digraph Tree {
node [shape=box] ;
0 [label="X[229] <= 0.5\nmse = 0.0012\nsamples = 500\nvalue = 0.0485"] ;
1 [label="X[241] <= 0.5\nmse = 0.0014\nsamples = 237\nvalue = 0.0664"] ;
0 -> 1 [labeldistance=2.5, labelangle=45, headlabel="True"] ;
2 [label="X[239] <= 0.5\nmse = 0.0013\nsamples = 119\nvalue = 0.0816"] ;
1 -> 2 ;
3 [label="X[205] <= 0.5\nmse = 0.0015\nsamples = 56\nvalue = 0.0954"] ;
2 -> 3 ;
4 [label="X[120] <= 0.5\nmse = 0.0015\nsamples = 28\nvalue = 0.1093"] ;
3 -> 4 ;
5 [label="X[107] <= 0.5\nmse = 0.0008\nsamples = 20\nvalue = 0.095"] ;
4 -> 5 ;
6 [label="X[16] <= 0.5\nmse = 0.0004\nsamples = 10\nvalue = 0.076"] ;
5 -> 6 ;
7 [label="X[48] <= 0.5\nmse = 0.0\nsamples = 4\nvalue = 0.055"] ;
6 -> 7 ;
8 [label="mse = 0.0\nsamples = 2\nvalue = 0.06"] ;
7 -> 8 ;
9 [label="mse = 0.0\nsamples = 2\nvalue = 0.05"] ;
7 -> 9 ;
10 [label="X[99] <= 0.5\nmse = 0.0001\nsamples = 6\nvalue = 0.09"] ;
6 -> 10 ;
11 [label="X[146] <= 0.5\nmse = 0.0\nsamples = 2\nvalue = 0.105"] ;
10 -> 11 ;
12 [label="mse = 0.0\nsamples = 1\nvalue = 0.1"] ;
11 -> 12 ;
13 [label="mse = -0.0\nsamples = 1\nvalue = 0.11"] ;
11 -> 13 ;
14 [label="X[33] <= 0.5\nmse = 0.0\nsamples = 4\nvalue = 0.0825"] ;
10 -> 14 ;
15 [label="mse = 0.0\nsamples = 3\nvalue = 0.08"] ;
14 -> 15 ;
16 [label="mse = -0.0\nsamples = 1\nvalue = 0.09"] ;
14 -> 16 ;
17 [label="X[65] <= 0.5\nmse = 0.0004\nsamples = 10\nvalue = 0.114"] ;
5 -> 17 ;
18 [label="X[158] <= 0.5\nmse = 0.0001\nsamples = 5\nvalue = 0.098"] ;
17 -> 18 ;
19 [label="X[118] <= 0.5\nmse = 0.0\nsamples = 2\nvalue = 0.085"] ;
18 -> 19 ;
20 [label="mse = 0.0\nsamples = 1\nvalue = 0.09"] ;
19 -> 20 ;
21 [label="mse = 0.0\nsamples = 1\nvalue = 0.08"] ;
19 -> 21 ;
22 [label="X[290] <= 0.5\nmse = 0.0\nsamples = 3\nvalue = 0.1067"] ;
18 -> 22 ;
23 [label="mse = 0.0\nsamples = 2\nvalue = 0.11"] ;
22 -> 23 ;
24 [label="mse = 0.0\nsamples = 1\nvalue = 0.1"] ;
22 -> 24 ;
25 [label="X[83] <= 0.5\nmse = 0.0002\nsamples = 5\nvalue = 0.13"] ;
17 -> 25 ;
26 [label="mse = 0.0\nsamples = 3\nvalue = 0.12"] ;
25 -> 26 ;
27 [label="X[246] <= 0.5\nmse = 0.0\nsamples = 2\nvalue = 0.145"] ;
25 -> 27 ;
28 [label="mse = 0.0\nsamples = 1\nvalue = 0.14"] ;
27 -> 28 ;
29 [label="mse = -0.0\nsamples = 1\nvalue = 0.15"] ;
27 -> 29 ;
30 [label="X[122] <= 0.5\nmse = 0.0014\nsamples = 8\nvalue = 0.145"] ;
4 -> 30 ;
31 [label="X[245] <= 0.5\nmse = 0.0005\nsamples = 7\nvalue = 0.1571"] ;
30 -> 31 ;
32 [label="X[96] <= 0.5\nmse = 0.0002\nsamples = 4\nvalue = 0.1725"] ;
31 -> 32 ;
33 [label="mse = 0.0\nsamples = 2\nvalue = 0.16"] ;
32 -> 33 ;
34 [label="X[360] <= 0.5\nmse = 0.0\nsamples = 2\nvalue = 0.185"] ;
32 -> 34 ;
35 [label="mse = 0.0\nsamples = 1\nvalue = 0.18"] ;
34 -> 35 ;
36 [label="mse = 0.0\nsamples = 1\nvalue = 0.19"] ;
34 -> 36 ;
37 [label="X[165] <= 0.5\nmse = 0.0002\nsamples = 3\nvalue = 0.1367"] ;
31 -> 37 ;
38 [label="mse = 0.0\nsamples = 1\nvalue = 0.12"] ;
37 -> 38 ;
39 [label="X[53] <= 0.5\nmse = 0.0\nsamples = 2\nvalue = 0.145"] ;
37 -> 39 ;
40 [label="mse = 0.0\nsamples = 1\nvalue = 0.14"] ;
39 -> 40 ;
41 [label="mse = -0.0\nsamples = 1\nvalue = 0.15"] ;
39 -> 41 ;
42 [label="mse = -0.0\nsamples = 1\nvalue = 0.06"] ;
30 -> 42 ;
43 [label="X[86] <= 0.5\nmse = 0.0011\nsamples = 28\nvalue = 0.0814"] ;
3 -> 43 ;
44 [label="X[363] <= 0.5\nmse = 0.0004\nsamples = 17\nvalue = 0.0647"] ;
43 -> 44 ;
45 [label="X[262] <= 0.5\nmse = 0.0003\nsamples = 9\nvalue = 0.0778"] ;
44 -> 45 ;
46 [label="X[183] <= 0.5\nmse = 0.0\nsamples = 6\nvalue = 0.0883"] ;
45 -> 46 ;
47 [label="X[48] <= 0.5\nmse = 0.0\nsamples = 4\nvalue = 0.0925"] ;
46 -> 47 ;
48 [label="mse = 0.0\nsamples = 1\nvalue = 0.1"] ;
47 -> 48 ;
49 [label="mse = -0.0\nsamples = 3\nvalue = 0.09"] ;
47 -> 49 ;
50 [label="mse = 0.0\nsamples = 2\nvalue = 0.08"] ;
46 -> 50 ;
51 [label="X[144] <= 0.5\nmse = 0.0001\nsamples = 3\nvalue = 0.0567"] ;
45 -> 51 ;
52 [label="mse = 0.0\nsamples = 2\nvalue = 0.05"] ;
51 -> 52 ;
53 [label="mse = 0.0\nsamples = 1\nvalue = 0.07"] ;
51 -> 53 ;
54 [label="X[120] <= 0.5\nmse = 0.0001\nsamples = 8\nvalue = 0.05"] ;
44 -> 54 ;
55 [label="X[82] <= 0.5\nmse = 0.0\nsamples = 6\nvalue = 0.055"] ;
54 -> 55 ;
56 [label="mse = 0.0\nsamples = 3\nvalue = 0.06"] ;
55 -> 56 ;
57 [label="mse = 0.0\nsamples = 3\nvalue = 0.05"] ;
55 -> 57 ;
58 [label="X[291] <= 0.5\nmse = 0.0\nsamples = 2\nvalue = 0.035"] ;
54 -> 58 ;
59 [label="mse = 0.0\nsamples = 1\nvalue = 0.04"] ;
58 -> 59 ;
60 [label="mse = -0.0\nsamples = 1\nvalue = 0.03"] ;
58 -> 60 ;
61 [label="X[20] <= 0.5\nmse = 0.0011\nsamples = 11\nvalue = 0.1073"] ;
43 -> 61 ;
62 [label="X[303] <= 0.5\nmse = 0.0\nsamples = 2\nvalue = 0.165"] ;
61 -> 62 ;
63 [label="mse = 0.0\nsamples = 1\nvalue = 0.16"] ;
62 -> 63 ;
64 [label="mse = 0.0\nsamples = 1\nvalue = 0.17"] ;
62 -> 64 ;
65 [label="X[267] <= 0.5\nmse = 0.0005\nsamples = 9\nvalue = 0.0944"] ;
61 -> 65 ;
66 [label="X[175] <= 0.5\nmse = 0.0002\nsamples = 5\nvalue = 0.08"] ;
65 -> 66 ;
67 [label="mse = 0.0\nsamples = 1\nvalue = 0.05"] ;
66 -> 67 ;
68 [label="X[82] <= 0.5\nmse = 0.0\nsamples = 4\nvalue = 0.0875"] ;
66 -> 68 ;
69 [label="mse = 0.0\nsamples = 3\nvalue = 0.09"] ;
68 -> 69 ;
70 [label="mse = -0.0\nsamples = 1\nvalue = 0.08"] ;
68 -> 70 ;
71 [label="X[36] <= 0.5\nmse = 0.0002\nsamples = 4\nvalue = 0.1125"] ;
65 -> 71 ;
72 [label="mse = 0.0\nsamples = 1\nvalue = 0.09"] ;
71 -> 72 ;
73 [label="mse = 0.0\nsamples = 3\nvalue = 0.12"] ;
71 -> 73 ;
74 [label="X[233] <= 0.5\nmse = 0.0008\nsamples = 63\nvalue = 0.0694"] ;
2 -> 74 ;
75 [label="X[275] <= 0.5\nmse = 0.0007\nsamples = 31\nvalue = 0.0819"] ;
74 -> 75 ;
76 [label="X[178] <= 0.5\nmse = 0.0005\nsamples = 14\nvalue = 0.0679"] ;
75 -> 76 ;
77 [label="X[80] <= 0.5\nmse = 0.0001\nsamples = 5\nvalue = 0.092"] ;
76 -> 77 ;
78 [label="X[271] <= 0.5\nmse = 0.0\nsamples = 3\nvalue = 0.0867"] ;
77 -> 78 ;
79 [label="mse = 0.0\nsamples = 2\nvalue = 0.09"] ;
78 -> 79 ;
80 [label="mse = -0.0\nsamples = 1\nvalue = 0.08"] ;
78 -> 80 ;
81 [label="mse = 0.0\nsamples = 2\nvalue = 0.1"] ;
77 -> 81 ;
82 [label="X[375] <= 0.5\nmse = 0.0003\nsamples = 9\nvalue = 0.0544"] ;
76 -> 82 ;
83 [label="X[78] <= 0.5\nmse = 0.0\nsamples = 4\nvalue = 0.04"] ;
82 -> 83 ;
84 [label="X[43] <= 0.5\nmse = 0.0\nsamples = 3\nvalue = 0.0367"] ;
83 -> 84 ;
85 [label="mse = 0.0\nsamples = 1\nvalue = 0.03"] ;
84 -> 85 ;
86 [label="mse = -0.0\nsamples = 2\nvalue = 0.04"] ;
84 -> 86 ;
87 [label="mse = 0.0\nsamples = 1\nvalue = 0.05"] ;
83 -> 87 ;
88 [label="X[276] <= 0.5\nmse = 0.0001\nsamples = 5\nvalue = 0.066"] ;
82 -> 88 ;
89 [label="mse = -0.0\nsamples = 4\nvalue = 0.06"] ;
88 -> 89 ;
90 [label="mse = -0.0\nsamples = 1\nvalue = 0.09"] ;
88 -> 90 ;
91 [label="X[305] <= 0.5\nmse = 0.0005\nsamples = 17\nvalue = 0.0935"] ;
75 -> 91 ;
92 [label="X[27] <= 0.5\nmse = 0.0004\nsamples = 5\nvalue = 0.118"] ;
91 -> 92 ;
93 [label="X[125] <= 0.5\nmse = 0.0\nsamples = 2\nvalue = 0.095"] ;
92 -> 93 ;
94 [label="mse = 0.0\nsamples = 1\nvalue = 0.09"] ;
93 -> 94 ;
95 [label="mse = 0.0\nsamples = 1\nvalue = 0.1"] ;
93 -> 95 ;
96 [label="X[262] <= 0.5\nmse = 0.0\nsamples = 3\nvalue = 0.1333"] ;
92 -> 96 ;
97 [label="mse = 0.0\nsamples = 2\nvalue = 0.13"] ;
96 -> 97 ;
98 [label="mse = -0.0\nsamples = 1\nvalue = 0.14"] ;
96 -> 98 ;
99 [label="X[116] <= 0.5\nmse = 0.0002\nsamples = 12\nvalue = 0.0833"] ;
91 -> 99 ;
100 [label="X[357] <= 0.5\nmse = 0.0\nsamples = 6\nvalue = 0.0717"] ;
99 -> 100 ;
101 [label="X[355] <= 0.5\nmse = 0.0\nsamples = 4\nvalue = 0.0675"] ;
100 -> 101 ;
102 [label="mse = 0.0\nsamples = 1\nvalue = 0.06"] ;
101 -> 102 ;
103 [label="mse = 0.0\nsamples = 3\nvalue = 0.07"] ;
101 -> 103 ;
104 [label="mse = -0.0\nsamples = 2\nvalue = 0.08"] ;
100 -> 104 ;
105 [label="X[50] <= 0.5\nmse = 0.0001\nsamples = 6\nvalue = 0.095"] ;
99 -> 105 ;
106 [label="X[256] <= 0.5\nmse = 0.0\nsamples = 3\nvalue = 0.1033"] ;
105 -> 106 ;
107 [label="mse = 0.0\nsamples = 1\nvalue = 0.11"] ;
106 -> 107 ;
108 [label="mse = -0.0\nsamples = 2\nvalue = 0.1"] ;
106 -> 108 ;
109 [label="X[130] <= 0.5\nmse = 0.0\nsamples = 3\nvalue = 0.0867"] ;
105 -> 109 ;
110 [label="mse = 0.0\nsamples = 2\nvalue = 0.09"] ;
109 -> 110 ;
111 [label="mse = -0.0\nsamples = 1\nvalue = 0.08"] ;
109 -> 111 ;
112 [label="X[230] <= 0.5\nmse = 0.0006\nsamples = 32\nvalue = 0.0572"] ;
74 -> 112 ;
113 [label="X[142] <= 0.5\nmse = 0.0004\nsamples = 13\nvalue = 0.0738"] ;
112 -> 113 ;
114 [label="X[145] <= 0.5\nmse = 0.0001\nsamples = 2\nvalue = 0.04"] ;
113 -> 114 ;
115 [label="mse = 0.0\nsamples = 1\nvalue = 0.05"] ;
114 -> 115 ;
116 [label="mse = -0.0\nsamples = 1\nvalue = 0.03"] ;
114 -> 116 ;
117 [label="X[249] <= 0.5\nmse = 0.0003\nsamples = 11\nvalue = 0.08"] ;
113 -> 117 ;
118 [label="mse = 0.0\nsamples = 1\nvalue = 0.12"] ;
117 -> 118 ;
119 [label="X[16] <= 0.5\nmse = 0.0001\nsamples = 10\nvalue = 0.076"] ;
117 -> 119 ;
120 [label="X[199] <= 0.5\nmse = 0.0001\nsamples = 4\nvalue = 0.085"] ;
119 -> 120 ;
121 [label="mse = 0.0\nsamples = 1\nvalue = 0.1"] ;
120 -> 121 ;
122 [label="mse = 0.0\nsamples = 3\nvalue = 0.08"] ;
120 -> 122 ;
123 [label="X[261] <= 0.5\nmse = 0.0\nsamples = 6\nvalue = 0.07"] ;
119 -> 123 ;
124 [label="X[58] <= 0.5\nmse = 0.0\nsamples = 5\nvalue = 0.068"] ;
123 -> 124 ;
125 [label="mse = 0.0\nsamples = 1\nvalue = 0.06"] ;
124 -> 125 ;
126 [label="mse = 0.0\nsamples = 4\nvalue = 0.07"] ;
124 -> 126 ;
127 [label="mse = -0.0\nsamples = 1\nvalue = 0.08"] ;
123 -> 127 ;
128 [label="X[344] <= 0.5\nmse = 0.0003\nsamples = 19\nvalue = 0.0458"] ;
112 -> 128 ;
129 [label="X[149] <= 0.5\nmse = 0.0001\nsamples = 10\nvalue = 0.034"] ;
128 -> 129 ;
130 [label="X[352] <= 0.5\nmse = 0.0\nsamples = 6\nvalue = 0.04"] ;
129 -> 130 ;
131 [label="X[231] <= 0.5\nmse = 0.0\nsamples = 5\nvalue = 0.038"] ;
130 -> 131 ;
132 [label="mse = 0.0\nsamples = 1\nvalue = 0.03"] ;
131 -> 132 ;
133 [label="mse = 0.0\nsamples = 4\nvalue = 0.04"] ;
131 -> 133 ;
134 [label="mse = -0.0\nsamples = 1\nvalue = 0.05"] ;
130 -> 134 ;
135 [label="X[307] <= 0.5\nmse = 0.0\nsamples = 4\nvalue = 0.025"] ;
129 -> 135 ;
136 [label="mse = 0.0\nsamples = 2\nvalue = 0.03"] ;
135 -> 136 ;
137 [label="mse = -0.0\nsamples = 2\nvalue = 0.02"] ;
135 -> 137 ;
138 [label="X[121] <= 0.5\nmse = 0.0002\nsamples = 9\nvalue = 0.0589"] ;
128 -> 138 ;
139 [label="X[336] <= 0.5\nmse = 0.0001\nsamples = 6\nvalue = 0.05"] ;
138 -> 139 ;
140 [label="mse = 0.0\nsamples = 1\nvalue = 0.03"] ;
139 -> 140 ;
141 [label="X[53] <= 0.5\nmse = 0.0\nsamples = 5\nvalue = 0.054"] ;
139 -> 141 ;
142 [label="mse = -0.0\nsamples = 3\nvalue = 0.05"] ;
141 -> 142 ;
143 [label="mse = -0.0\nsamples = 2\nvalue = 0.06"] ;
141 -> 143 ;
144 [label="X[275] <= 0.5\nmse = 0.0\nsamples = 3\nvalue = 0.0767"] ;
138 -> 144 ;
145 [label="mse = 0.0\nsamples = 2\nvalue = 0.08"] ;
144 -> 145 ;
146 [label="mse = -0.0\nsamples = 1\nvalue = 0.07"] ;
144 -> 146 ;
147 [label="X[239] <= 0.5\nmse = 0.001\nsamples = 118\nvalue = 0.051"] ;
1 -> 147 ;
148 [label="X[205] <= 0.5\nmse = 0.0012\nsamples = 56\nvalue = 0.0648"] ;
147 -> 148 ;
149 [label="X[56] <= 0.5\nmse = 0.0015\nsamples = 27\nvalue = 0.0785"] ;
148 -> 149 ;
150 [label="X[366] <= 0.5\nmse = 0.0013\nsamples = 10\nvalue = 0.107"] ;
149 -> 150 ;
151 [label="X[255] <= 0.5\nmse = 0.0003\nsamples = 7\nvalue = 0.0857"] ;
150 -> 151 ;
152 [label="X[139] <= 0.5\nmse = 0.0001\nsamples = 4\nvalue = 0.0725"] ;
151 -> 152 ;
153 [label="X[165] <= 0.5\nmse = 0.0\nsamples = 2\nvalue = 0.065"] ;
152 -> 153 ;
154 [label="mse = 0.0\nsamples = 1\nvalue = 0.07"] ;
153 -> 154 ;
155 [label="mse = 0.0\nsamples = 1\nvalue = 0.06"] ;
153 -> 155 ;
156 [label="mse = -0.0\nsamples = 2\nvalue = 0.08"] ;
152 -> 156 ;
157 [label="X[191] <= 0.5\nmse = 0.0\nsamples = 3\nvalue = 0.1033"] ;
151 -> 157 ;
158 [label="mse = 0.0\nsamples = 1\nvalue = 0.11"] ;
157 -> 158 ;
159 [label="mse = -0.0\nsamples = 2\nvalue = 0.1"] ;
157 -> 159 ;
160 [label="X[295] <= 0.5\nmse = 0.0002\nsamples = 3\nvalue = 0.1567"] ;
150 -> 160 ;
161 [label="X[193] <= 0.5\nmse = 0.0\nsamples = 2\nvalue = 0.165"] ;
160 -> 161 ;
162 [label="mse = 0.0\nsamples = 1\nvalue = 0.16"] ;
161 -> 162 ;
163 [label="mse = 0.0\nsamples = 1\nvalue = 0.17"] ;
161 -> 163 ;
164 [label="mse = 0.0\nsamples = 1\nvalue = 0.14"] ;
160 -> 164 ;
165 [label="X[219] <= 0.5\nmse = 0.0008\nsamples = 17\nvalue = 0.0618"] ;
149 -> 165 ;
166 [label="X[48] <= 0.5\nmse = 0.0006\nsamples = 6\nvalue = 0.0883"] ;
165 -> 166 ;
167 [label="mse = 0.0\nsamples = 1\nvalue = 0.14"] ;
166 -> 167 ;
168 [label="X[151] <= 0.5\nmse = 0.0001\nsamples = 5\nvalue = 0.078"] ;
166 -> 168 ;
169 [label="X[381] <= 0.5\nmse = 0.0\nsamples = 4\nvalue = 0.0825"] ;
168 -> 169 ;
170 [label="mse = 0.0\nsamples = 3\nvalue = 0.08"] ;
169 -> 170 ;
171 [label="mse = 0.0\nsamples = 1\nvalue = 0.09"] ;
169 -> 171 ;
172 [label="mse = -0.0\nsamples = 1\nvalue = 0.06"] ;
168 -> 172 ;
173 [label="X[216] <= 0.5\nmse = 0.0003\nsamples = 11\nvalue = 0.0473"] ;
165 -> 173 ;
174 [label="X[277] <= 0.5\nmse = 0.0001\nsamples = 7\nvalue = 0.0586"] ;
173 -> 174 ;
175 [label="X[294] <= 0.5\nmse = 0.0\nsamples = 5\nvalue = 0.052"] ;
174 -> 175 ;
176 [label="mse = 0.0\nsamples = 1\nvalue = 0.06"] ;
175 -> 176 ;
177 [label="mse = 0.0\nsamples = 4\nvalue = 0.05"] ;
175 -> 177 ;
178 [label="X[77] <= 0.5\nmse = 0.0\nsamples = 2\nvalue = 0.075"] ;
174 -> 178 ;
179 [label="mse = 0.0\nsamples = 1\nvalue = 0.07"] ;
178 -> 179 ;
180 [label="mse = -0.0\nsamples = 1\nvalue = 0.08"] ;
178 -> 180 ;
181 [label="X[206] <= 0.5\nmse = 0.0001\nsamples = 4\nvalue = 0.0275"] ;
173 -> 181 ;
182 [label="X[302] <= 0.5\nmse = 0.0\nsamples = 2\nvalue = 0.035"] ;
181 -> 182 ;
183 [label="mse = 0.0\nsamples = 1\nvalue = 0.04"] ;
182 -> 183 ;
184 [label="mse = -0.0\nsamples = 1\nvalue = 0.03"] ;
182 -> 184 ;
185 [label="mse = 0.0\nsamples = 2\nvalue = 0.02"] ;
181 -> 185 ;
186 [label="X[263] <= 0.5\nmse = 0.0006\nsamples = 29\nvalue = 0.0521"] ;
148 -> 186 ;
187 [label="X[212] <= 0.5\nmse = 0.0006\nsamples = 14\nvalue = 0.0671"] ;
186 -> 187 ;
188 [label="X[173] <= 0.5\nmse = 0.0002\nsamples = 6\nvalue = 0.045"] ;
187 -> 188 ;
189 [label="X[177] <= 0.5\nmse = 0.0001\nsamples = 3\nvalue = 0.0567"] ;
188 -> 189 ;
190 [label="mse = 0.0\nsamples = 2\nvalue = 0.05"] ;
189 -> 190 ;
191 [label="mse = 0.0\nsamples = 1\nvalue = 0.07"] ;
189 -> 191 ;
192 [label="X[126] <= 0.5\nmse = 0.0\nsamples = 3\nvalue = 0.0333"] ;
188 -> 192 ;
193 [label="mse = -0.0\nsamples = 2\nvalue = 0.03"] ;
192 -> 193 ;
194 [label="mse = 0.0\nsamples = 1\nvalue = 0.04"] ;
192 -> 194 ;
195 [label="X[69] <= 0.5\nmse = 0.0002\nsamples = 8\nvalue = 0.0837"] ;
187 -> 195 ;
196 [label="X[188] <= 0.5\nmse = 0.0001\nsamples = 3\nvalue = 0.1"] ;
195 -> 196 ;
197 [label="mse = 0.0\nsamples = 1\nvalue = 0.11"] ;
196 -> 197 ;
198 [label="X[94] <= 0.5\nmse = 0.0\nsamples = 2\nvalue = 0.095"] ;
196 -> 198 ;
199 [label="mse = 0.0\nsamples = 1\nvalue = 0.1"] ;
198 -> 199 ;
200 [label="mse = 0.0\nsamples = 1\nvalue = 0.09"] ;
198 -> 200 ;
201 [label="X[343] <= 0.5\nmse = 0.0\nsamples = 5\nvalue = 0.074"] ;
195 -> 201 ;
202 [label="mse = 0.0\nsamples = 3\nvalue = 0.07"] ;
201 -> 202 ;
203 [label="mse = -0.0\nsamples = 2\nvalue = 0.08"] ;
201 -> 203 ;
204 [label="X[140] <= 0.5\nmse = 0.0002\nsamples = 15\nvalue = 0.038"] ;
186 -> 204 ;
205 [label="X[345] <= 0.5\nmse = 0.0001\nsamples = 9\nvalue = 0.0467"] ;
204 -> 205 ;
206 [label="mse = 0.0\nsamples = 1\nvalue = 0.07"] ;
205 -> 206 ;
207 [label="X[267] <= 0.5\nmse = 0.0\nsamples = 8\nvalue = 0.0438"] ;
205 -> 207 ;
208 [label="mse = 0.0\nsamples = 5\nvalue = 0.04"] ;
207 -> 208 ;
209 [label="mse = 0.0\nsamples = 3\nvalue = 0.05"] ;
207 -> 209 ;
210 [label="X[323] <= 0.5\nmse = 0.0\nsamples = 6\nvalue = 0.025"] ;
204 -> 210 ;
211 [label="mse = 0.0\nsamples = 3\nvalue = 0.03"] ;
210 -> 211 ;
212 [label="mse = -0.0\nsamples = 3\nvalue = 0.02"] ;
210 -> 212 ;
213 [label="X[91] <= 0.5\nmse = 0.0005\nsamples = 62\nvalue = 0.0385"] ;
147 -> 213 ;
214 [label="X[283] <= 0.5\nmse = 0.0004\nsamples = 28\nvalue = 0.0286"] ;
213 -> 214 ;
215 [label="X[181] <= 0.5\nmse = 0.0002\nsamples = 14\nvalue = 0.0171"] ;
214 -> 215 ;
216 [label="X[269] <= 0.5\nmse = 0.0\nsamples = 6\nvalue = 0.005"] ;
215 -> 216 ;
217 [label="mse = 0.0\nsamples = 3\nvalue = 0.0"] ;
216 -> 217 ;
218 [label="mse = 0.0\nsamples = 3\nvalue = 0.01"] ;
216 -> 218 ;
219 [label="X[89] <= 0.5\nmse = 0.0001\nsamples = 8\nvalue = 0.0262"] ;
215 -> 219 ;
220 [label="X[145] <= 0.5\nmse = 0.0\nsamples = 3\nvalue = 0.0367"] ;
219 -> 220 ;
221 [label="mse = 0.0\nsamples = 1\nvalue = 0.03"] ;
220 -> 221 ;
222 [label="mse = 0.0\nsamples = 2\nvalue = 0.04"] ;
220 -> 222 ;
223 [label="mse = 0.0\nsamples = 5\nvalue = 0.02"] ;
219 -> 223 ;
224 [label="X[329] <= 0.5\nmse = 0.0003\nsamples = 14\nvalue = 0.04"] ;
214 -> 224 ;
225 [label="X[335] <= 0.5\nmse = 0.0001\nsamples = 6\nvalue = 0.0567"] ;
224 -> 225 ;
226 [label="mse = 0.0\nsamples = 1\nvalue = 0.04"] ;
225 -> 226 ;
227 [label="mse = -0.0\nsamples = 5\nvalue = 0.06"] ;
225 -> 227 ;
228 [label="X[175] <= 0.5\nmse = 0.0001\nsamples = 8\nvalue = 0.0275"] ;
224 -> 228 ;
229 [label="X[306] <= 0.5\nmse = 0.0\nsamples = 6\nvalue = 0.0217"] ;
228 -> 229 ;
230 [label="X[47] <= 0.5\nmse = 0.0\nsamples = 4\nvalue = 0.0175"] ;
229 -> 230 ;
231 [label="mse = 0.0\nsamples = 1\nvalue = 0.01"] ;
230 -> 231 ;
232 [label="mse = -0.0\nsamples = 3\nvalue = 0.02"] ;
230 -> 232 ;
233 [label="mse = 0.0\nsamples = 2\nvalue = 0.03"] ;
229 -> 233 ;
234 [label="X[299] <= 0.5\nmse = 0.0\nsamples = 2\nvalue = 0.045"] ;
228 -> 234 ;
235 [label="mse = 0.0\nsamples = 1\nvalue = 0.04"] ;
234 -> 235 ;
236 [label="mse = 0.0\nsamples = 1\nvalue = 0.05"] ;
234 -> 236 ;
237 [label="X[9] <= 0.5\nmse = 0.0005\nsamples = 34\nvalue = 0.0468"] ;
213 -> 237 ;
238 [label="X[249] <= 0.5\nmse = 0.0004\nsamples = 17\nvalue = 0.0588"] ;
237 -> 238 ;
239 [label="X[304] <= 0.5\nmse = 0.0002\nsamples = 9\nvalue = 0.0467"] ;
238 -> 239 ;
240 [label="X[3] <= 0.5\nmse = 0.0001\nsamples = 7\nvalue = 0.0414"] ;
239 -> 240 ;
241 [label="mse = -0.0\nsamples = 3\nvalue = 0.05"] ;
240 -> 241 ;
242 [label="X[58] <= 0.5\nmse = 0.0\nsamples = 4\nvalue = 0.035"] ;
240 -> 242 ;
243 [label="mse = 0.0\nsamples = 2\nvalue = 0.04"] ;
242 -> 243 ;
244 [label="mse = -0.0\nsamples = 2\nvalue = 0.03"] ;
242 -> 244 ;
245 [label="X[11] <= 0.5\nmse = 0.0\nsamples = 2\nvalue = 0.065"] ;
239 -> 245 ;
246 [label="mse = 0.0\nsamples = 1\nvalue = 0.07"] ;
245 -> 246 ;
247 [label="mse = 0.0\nsamples = 1\nvalue = 0.06"] ;
245 -> 247 ;
248 [label="X[106] <= 0.5\nmse = 0.0002\nsamples = 8\nvalue = 0.0725"] ;
238 -> 248 ;
249 [label="X[53] <= 0.5\nmse = 0.0\nsamples = 5\nvalue = 0.062"] ;
248 -> 249 ;
250 [label="mse = 0.0\nsamples = 1\nvalue = 0.07"] ;
249 -> 250 ;
251 [label="mse = -0.0\nsamples = 4\nvalue = 0.06"] ;
249 -> 251 ;
252 [label="X[166] <= 0.5\nmse = 0.0001\nsamples = 3\nvalue = 0.09"] ;
248 -> 252 ;
253 [label="X[382] <= 0.5\nmse = 0.0\nsamples = 2\nvalue = 0.085"] ;
252 -> 253 ;
254 [label="mse = 0.0\nsamples = 1\nvalue = 0.09"] ;
253 -> 254 ;
255 [label="mse = 0.0\nsamples = 1\nvalue = 0.08"] ;
253 -> 255 ;
256 [label="mse = 0.0\nsamples = 1\nvalue = 0.1"] ;
252 -> 256 ;
257 [label="X[349] <= 0.5\nmse = 0.0004\nsamples = 17\nvalue = 0.0347"] ;
237 -> 257 ;
258 [label="X[298] <= 0.5\nmse = 0.0002\nsamples = 9\nvalue = 0.0222"] ;
257 -> 258 ;
259 [label="X[250] <= 0.5\nmse = 0.0004\nsamples = 2\nvalue = 0.04"] ;
258 -> 259 ;
260 [label="mse = 0.0\nsamples = 1\nvalue = 0.02"] ;
259 -> 260 ;
261 [label="mse = 0.0\nsamples = 1\nvalue = 0.06"] ;
259 -> 261 ;
262 [label="X[352] <= 0.5\nmse = 0.0\nsamples = 7\nvalue = 0.0171"] ;
258 -> 262 ;
263 [label="mse = 0.0\nsamples = 2\nvalue = 0.01"] ;
262 -> 263 ;
264 [label="mse = 0.0\nsamples = 5\nvalue = 0.02"] ;
262 -> 264 ;
265 [label="X[29] <= 0.5\nmse = 0.0002\nsamples = 8\nvalue = 0.0488"] ;
257 -> 265 ;
266 [label="X[336] <= 0.5\nmse = 0.0\nsamples = 6\nvalue = 0.0417"] ;
265 -> 266 ;
267 [label="mse = 0.0\nsamples = 2\nvalue = 0.05"] ;
266 -> 267 ;
268 [label="X[152] <= 0.5\nmse = 0.0\nsamples = 4\nvalue = 0.0375"] ;
266 -> 268 ;
269 [label="mse = -0.0\nsamples = 3\nvalue = 0.04"] ;
268 -> 269 ;
270 [label="mse = -0.0\nsamples = 1\nvalue = 0.03"] ;
268 -> 270 ;
271 [label="X[184] <= 0.5\nmse = 0.0001\nsamples = 2\nvalue = 0.07"] ;
265 -> 271 ;
272 [label="mse = 0.0\nsamples = 1\nvalue = 0.08"] ;
271 -> 272 ;
273 [label="mse = -0.0\nsamples = 1\nvalue = 0.06"] ;
271 -> 273 ;
274 [label="X[233] <= 0.5\nmse = 0.0006\nsamples = 263\nvalue = 0.0324"] ;
0 -> 274 [labeldistance=2.5, labelangle=-45, headlabel="False"] ;
275 [label="X[205] <= 0.5\nmse = 0.0006\nsamples = 129\nvalue = 0.0441"] ;
274 -> 275 ;
276 [label="X[223] <= 0.5\nmse = 0.0005\nsamples = 65\nvalue = 0.0549"] ;
275 -> 276 ;
277 [label="X[206] <= 0.5\nmse = 0.0005\nsamples = 34\nvalue = 0.0659"] ;
276 -> 277 ;
278 [label="X[315] <= 0.5\nmse = 0.0005\nsamples = 16\nvalue = 0.0775"] ;
277 -> 278 ;
279 [label="X[369] <= 0.5\nmse = 0.0002\nsamples = 9\nvalue = 0.0911"] ;
278 -> 279 ;
280 [label="X[241] <= 0.5\nmse = 0.0\nsamples = 5\nvalue = 0.08"] ;
279 -> 280 ;
281 [label="mse = 0.0\nsamples = 1\nvalue = 0.07"] ;
280 -> 281 ;
282 [label="X[157] <= 0.5\nmse = 0.0\nsamples = 4\nvalue = 0.0825"] ;
280 -> 282 ;
283 [label="mse = 0.0\nsamples = 3\nvalue = 0.08"] ;
282 -> 283 ;
284 [label="mse = 0.0\nsamples = 1\nvalue = 0.09"] ;
282 -> 284 ;
285 [label="X[287] <= 0.5\nmse = 0.0001\nsamples = 4\nvalue = 0.105"] ;
279 -> 285 ;
286 [label="mse = 0.0\nsamples = 1\nvalue = 0.09"] ;
285 -> 286 ;
287 [label="mse = 0.0\nsamples = 3\nvalue = 0.11"] ;
285 -> 287 ;
288 [label="X[145] <= 0.5\nmse = 0.0003\nsamples = 7\nvalue = 0.06"] ;
278 -> 288 ;
289 [label="X[117] <= 0.5\nmse = 0.0001\nsamples = 4\nvalue = 0.0725"] ;
288 -> 289 ;
290 [label="mse = 0.0\nsamples = 2\nvalue = 0.08"] ;
289 -> 290 ;
291 [label="X[339] <= 0.5\nmse = 0.0\nsamples = 2\nvalue = 0.065"] ;
289 -> 291 ;
292 [label="mse = 0.0\nsamples = 1\nvalue = 0.06"] ;
291 -> 292 ;
293 [label="mse = 0.0\nsamples = 1\nvalue = 0.07"] ;
291 -> 293 ;
294 [label="X[47] <= 0.5\nmse = 0.0\nsamples = 3\nvalue = 0.0433"] ;
288 -> 294 ;
295 [label="mse = 0.0\nsamples = 2\nvalue = 0.04"] ;
294 -> 295 ;
296 [label="mse = -0.0\nsamples = 1\nvalue = 0.05"] ;
294 -> 296 ;
297 [label="X[218] <= 0.5\nmse = 0.0004\nsamples = 18\nvalue = 0.0556"] ;
277 -> 297 ;
298 [label="X[203] <= 0.5\nmse = 0.0001\nsamples = 10\nvalue = 0.069"] ;
297 -> 298 ;
299 [label="X[5] <= 0.5\nmse = 0.0\nsamples = 5\nvalue = 0.06"] ;
298 -> 299 ;
300 [label="mse = 0.0\nsamples = 1\nvalue = 0.05"] ;
299 -> 300 ;
301 [label="X[374] <= 0.5\nmse = 0.0\nsamples = 4\nvalue = 0.0625"] ;
299 -> 301 ;
302 [label="mse = 0.0\nsamples = 1\nvalue = 0.07"] ;
301 -> 302 ;
303 [label="mse = -0.0\nsamples = 3\nvalue = 0.06"] ;
301 -> 303 ;
304 [label="X[82] <= 0.5\nmse = 0.0001\nsamples = 5\nvalue = 0.078"] ;
298 -> 304 ;
305 [label="X[278] <= 0.5\nmse = 0.0\nsamples = 3\nvalue = 0.0833"] ;
304 -> 305 ;
306 [label="mse = 0.0\nsamples = 1\nvalue = 0.09"] ;
305 -> 306 ;
307 [label="mse = -0.0\nsamples = 2\nvalue = 0.08"] ;
305 -> 307 ;
308 [label="mse = 0.0\nsamples = 2\nvalue = 0.07"] ;
304 -> 308 ;
309 [label="X[198] <= 0.5\nmse = 0.0002\nsamples = 8\nvalue = 0.0388"] ;
297 -> 309 ;
310 [label="X[25] <= 0.5\nmse = 0.0001\nsamples = 5\nvalue = 0.048"] ;
309 -> 310 ;
311 [label="mse = 0.0\nsamples = 2\nvalue = 0.04"] ;
310 -> 311 ;
312 [label="X[135] <= 0.5\nmse = 0.0\nsamples = 3\nvalue = 0.0533"] ;
310 -> 312 ;
313 [label="mse = 0.0\nsamples = 2\nvalue = 0.05"] ;
312 -> 313 ;
314 [label="mse = -0.0\nsamples = 1\nvalue = 0.06"] ;
312 -> 314 ;
315 [label="X[115] <= 0.5\nmse = 0.0001\nsamples = 3\nvalue = 0.0233"] ;
309 -> 315 ;
316 [label="mse = -0.0\nsamples = 2\nvalue = 0.03"] ;
315 -> 316 ;
317 [label="mse = 0.0\nsamples = 1\nvalue = 0.01"] ;
315 -> 317 ;
318 [label="X[9] <= 0.5\nmse = 0.0002\nsamples = 31\nvalue = 0.0429"] ;
276 -> 318 ;
319 [label="X[104] <= 0.5\nmse = 0.0001\nsamples = 11\nvalue = 0.0336"] ;
318 -> 319 ;
320 [label="X[351] <= 0.5\nmse = 0.0\nsamples = 4\nvalue = 0.045"] ;
319 -> 320 ;
321 [label="mse = 0.0\nsamples = 2\nvalue = 0.04"] ;
320 -> 321 ;
322 [label="mse = 0.0\nsamples = 2\nvalue = 0.05"] ;
320 -> 322 ;
323 [label="X[112] <= 0.5\nmse = 0.0\nsamples = 7\nvalue = 0.0271"] ;
319 -> 323 ;
324 [label="X[344] <= 0.5\nmse = 0.0\nsamples = 4\nvalue = 0.0325"] ;
323 -> 324 ;
325 [label="mse = 0.0\nsamples = 1\nvalue = 0.04"] ;
324 -> 325 ;
326 [label="mse = 0.0\nsamples = 3\nvalue = 0.03"] ;
324 -> 326 ;
327 [label="mse = 0.0\nsamples = 3\nvalue = 0.02"] ;
323 -> 327 ;
328 [label="X[102] <= 0.5\nmse = 0.0002\nsamples = 20\nvalue = 0.048"] ;
318 -> 328 ;
329 [label="X[73] <= 0.5\nmse = 0.0001\nsamples = 11\nvalue = 0.0545"] ;
328 -> 329 ;
330 [label="X[337] <= 0.5\nmse = 0.0\nsamples = 9\nvalue = 0.0511"] ;
329 -> 330 ;
331 [label="mse = 0.0\nsamples = 8\nvalue = 0.05"] ;
330 -> 331 ;
332 [label="mse = -0.0\nsamples = 1\nvalue = 0.06"] ;
330 -> 332 ;
333 [label="mse = 0.0\nsamples = 2\nvalue = 0.07"] ;
329 -> 333 ;
334 [label="X[183] <= 0.5\nmse = 0.0002\nsamples = 9\nvalue = 0.04"] ;
328 -> 334 ;
335 [label="X[65] <= 0.5\nmse = 0.0\nsamples = 8\nvalue = 0.0438"] ;
334 -> 335 ;
336 [label="X[284] <= 0.5\nmse = 0.0\nsamples = 4\nvalue = 0.0375"] ;
335 -> 336 ;
337 [label="mse = -0.0\nsamples = 3\nvalue = 0.04"] ;
336 -> 337 ;
338 [label="mse = -0.0\nsamples = 1\nvalue = 0.03"] ;
336 -> 338 ;
339 [label="mse = 0.0\nsamples = 4\nvalue = 0.05"] ;
335 -> 339 ;
340 [label="mse = -0.0\nsamples = 1\nvalue = 0.01"] ;
334 -> 340 ;
341 [label="X[230] <= 0.5\nmse = 0.0004\nsamples = 64\nvalue = 0.0331"] ;
275 -> 341 ;
342 [label="X[196] <= 0.5\nmse = 0.0004\nsamples = 30\nvalue = 0.0443"] ;
341 -> 342 ;
343 [label="X[215] <= 0.5\nmse = 0.0001\nsamples = 12\nvalue = 0.0308"] ;
342 -> 343 ;
344 [label="X[100] <= 0.5\nmse = 0.0001\nsamples = 5\nvalue = 0.042"] ;
343 -> 344 ;
345 [label="mse = 0.0\nsamples = 2\nvalue = 0.05"] ;
344 -> 345 ;
346 [label="X[382] <= 0.5\nmse = 0.0\nsamples = 3\nvalue = 0.0367"] ;
344 -> 346 ;
347 [label="mse = -0.0\nsamples = 2\nvalue = 0.04"] ;
346 -> 347 ;
348 [label="mse = 0.0\nsamples = 1\nvalue = 0.03"] ;
346 -> 348 ;
349 [label="X[175] <= 0.5\nmse = 0.0\nsamples = 7\nvalue = 0.0229"] ;
343 -> 349 ;
350 [label="X[83] <= 0.5\nmse = 0.0\nsamples = 4\nvalue = 0.0175"] ;
349 -> 350 ;
351 [label="mse = 0.0\nsamples = 3\nvalue = 0.02"] ;
350 -> 351 ;
352 [label="mse = 0.0\nsamples = 1\nvalue = 0.01"] ;
350 -> 352 ;
353 [label="mse = 0.0\nsamples = 3\nvalue = 0.03"] ;
349 -> 353 ;
354 [label="X[318] <= 0.5\nmse = 0.0004\nsamples = 18\nvalue = 0.0533"] ;
342 -> 354 ;
355 [label="X[325] <= 0.5\nmse = 0.0001\nsamples = 10\nvalue = 0.041"] ;
354 -> 355 ;
356 [label="X[223] <= 0.5\nmse = 0.0001\nsamples = 4\nvalue = 0.0525"] ;
355 -> 356 ;
357 [label="X[67] <= 0.5\nmse = 0.0\nsamples = 2\nvalue = 0.045"] ;
356 -> 357 ;
358 [label="mse = 0.0\nsamples = 1\nvalue = 0.05"] ;
357 -> 358 ;
359 [label="mse = 0.0\nsamples = 1\nvalue = 0.04"] ;
357 -> 359 ;
360 [label="mse = -0.0\nsamples = 2\nvalue = 0.06"] ;
356 -> 360 ;
361 [label="X[265] <= 0.5\nmse = 0.0001\nsamples = 6\nvalue = 0.0333"] ;
355 -> 361 ;
362 [label="X[53] <= 0.5\nmse = 0.0\nsamples = 3\nvalue = 0.0267"] ;
361 -> 362 ;
363 [label="mse = 0.0\nsamples = 2\nvalue = 0.03"] ;
362 -> 363 ;
364 [label="mse = -0.0\nsamples = 1\nvalue = 0.02"] ;
362 -> 364 ;
365 [label="mse = 0.0\nsamples = 3\nvalue = 0.04"] ;
361 -> 365 ;
366 [label="X[348] <= 0.5\nmse = 0.0004\nsamples = 8\nvalue = 0.0688"] ;
354 -> 366 ;
367 [label="mse = 0.0\nsamples = 1\nvalue = 0.11"] ;
366 -> 367 ;
368 [label="X[119] <= 0.5\nmse = 0.0001\nsamples = 7\nvalue = 0.0629"] ;
366 -> 368 ;
369 [label="X[26] <= 0.5\nmse = 0.0001\nsamples = 6\nvalue = 0.0667"] ;
368 -> 369 ;
370 [label="X[71] <= 0.5\nmse = 0.0\nsamples = 3\nvalue = 0.0733"] ;
369 -> 370 ;
371 [label="mse = 0.0\nsamples = 2\nvalue = 0.07"] ;
370 -> 371 ;
372 [label="mse = -0.0\nsamples = 1\nvalue = 0.08"] ;
370 -> 372 ;
373 [label="mse = 0.0\nsamples = 3\nvalue = 0.06"] ;
369 -> 373 ;
374 [label="mse = -0.0\nsamples = 1\nvalue = 0.04"] ;
368 -> 374 ;
375 [label="X[86] <= 0.5\nmse = 0.0001\nsamples = 34\nvalue = 0.0232"] ;
341 -> 375 ;
376 [label="X[293] <= 0.5\nmse = 0.0001\nsamples = 22\nvalue = 0.0282"] ;
375 -> 376 ;
377 [label="X[213] <= 0.5\nmse = 0.0\nsamples = 9\nvalue = 0.0367"] ;
376 -> 377 ;
378 [label="X[4] <= 0.5\nmse = 0.0\nsamples = 5\nvalue = 0.042"] ;
377 -> 378 ;
379 [label="mse = 0.0\nsamples = 1\nvalue = 0.05"] ;
378 -> 379 ;
380 [label="mse = -0.0\nsamples = 4\nvalue = 0.04"] ;
378 -> 380 ;
381 [label="mse = -0.0\nsamples = 4\nvalue = 0.03"] ;
377 -> 381 ;
382 [label="X[31] <= 0.5\nmse = 0.0001\nsamples = 13\nvalue = 0.0223"] ;
376 -> 382 ;
383 [label="X[3] <= 0.5\nmse = 0.0\nsamples = 7\nvalue = 0.0286"] ;
382 -> 383 ;
384 [label="mse = -0.0\nsamples = 6\nvalue = 0.03"] ;
383 -> 384 ;
385 [label="mse = 0.0\nsamples = 1\nvalue = 0.02"] ;
383 -> 385 ;
386 [label="X[38] <= 0.5\nmse = 0.0\nsamples = 6\nvalue = 0.015"] ;
382 -> 386 ;
387 [label="mse = 0.0\nsamples = 3\nvalue = 0.01"] ;
386 -> 387 ;
388 [label="mse = -0.0\nsamples = 3\nvalue = 0.02"] ;
386 -> 388 ;
389 [label="X[255] <= 0.5\nmse = 0.0001\nsamples = 12\nvalue = 0.0142"] ;
375 -> 389 ;
390 [label="X[112] <= 0.5\nmse = 0.0\nsamples = 8\nvalue = 0.01"] ;
389 -> 390 ;
391 [label="mse = 0.0\nsamples = 1\nvalue = 0.02"] ;
390 -> 391 ;
392 [label="X[116] <= 0.5\nmse = 0.0\nsamples = 7\nvalue = 0.0086"] ;
390 -> 392 ;
393 [label="mse = 0.0\nsamples = 6\nvalue = 0.01"] ;
392 -> 393 ;
394 [label="mse = 0.0\nsamples = 1\nvalue = 0.0"] ;
392 -> 394 ;
395 [label="X[192] <= 0.5\nmse = 0.0\nsamples = 4\nvalue = 0.0225"] ;
389 -> 395 ;
396 [label="mse = 0.0\nsamples = 1\nvalue = 0.03"] ;
395 -> 396 ;
397 [label="mse = 0.0\nsamples = 3\nvalue = 0.02"] ;
395 -> 397 ;
398 [label="X[230] <= 0.5\nmse = 0.0003\nsamples = 134\nvalue = 0.0211"] ;
274 -> 398 ;
399 [label="X[239] <= 0.5\nmse = 0.0004\nsamples = 64\nvalue = 0.0291"] ;
398 -> 399 ;
400 [label="X[120] <= 0.5\nmse = 0.0004\nsamples = 33\nvalue = 0.0373"] ;
399 -> 400 ;
401 [label="X[372] <= 0.5\nmse = 0.0004\nsamples = 11\nvalue = 0.0509"] ;
400 -> 401 ;
402 [label="X[146] <= 0.5\nmse = 0.0001\nsamples = 4\nvalue = 0.0725"] ;
401 -> 402 ;
403 [label="X[269] <= 0.5\nmse = 0.0\nsamples = 3\nvalue = 0.0667"] ;
402 -> 403 ;
404 [label="mse = 0.0\nsamples = 1\nvalue = 0.06"] ;
403 -> 404 ;
405 [label="mse = 0.0\nsamples = 2\nvalue = 0.07"] ;
403 -> 405 ;
406 [label="mse = -0.0\nsamples = 1\nvalue = 0.09"] ;
402 -> 406 ;
407 [label="X[132] <= 0.5\nmse = 0.0002\nsamples = 7\nvalue = 0.0386"] ;
401 -> 407 ;
408 [label="X[303] <= 0.5\nmse = 0.0\nsamples = 2\nvalue = 0.055"] ;
407 -> 408 ;
409 [label="mse = 0.0\nsamples = 1\nvalue = 0.05"] ;
408 -> 409 ;
410 [label="mse = 0.0\nsamples = 1\nvalue = 0.06"] ;
408 -> 410 ;
411 [label="X[24] <= 0.5\nmse = 0.0001\nsamples = 5\nvalue = 0.032"] ;
407 -> 411 ;
412 [label="mse = 0.0\nsamples = 2\nvalue = 0.04"] ;
411 -> 412 ;
413 [label="X[136] <= 0.5\nmse = 0.0\nsamples = 3\nvalue = 0.0267"] ;
411 -> 413 ;
414 [label="mse = 0.0\nsamples = 2\nvalue = 0.03"] ;
413 -> 414 ;
415 [label="mse = -0.0\nsamples = 1\nvalue = 0.02"] ;
413 -> 415 ;
416 [label="X[331] <= 0.5\nmse = 0.0003\nsamples = 22\nvalue = 0.0305"] ;
400 -> 416 ;
417 [label="X[57] <= 0.5\nmse = 0.0002\nsamples = 9\nvalue = 0.0433"] ;
416 -> 417 ;
418 [label="X[321] <= 0.5\nmse = 0.0001\nsamples = 8\nvalue = 0.04"] ;
417 -> 418 ;
419 [label="X[22] <= 0.5\nmse = 0.0\nsamples = 7\nvalue = 0.0429"] ;
418 -> 419 ;
420 [label="mse = 0.0\nsamples = 2\nvalue = 0.05"] ;
419 -> 420 ;
421 [label="mse = 0.0\nsamples = 5\nvalue = 0.04"] ;
419 -> 421 ;
422 [label="mse = -0.0\nsamples = 1\nvalue = 0.02"] ;
418 -> 422 ;
423 [label="mse = 0.0\nsamples = 1\nvalue = 0.07"] ;
417 -> 423 ;
424 [label="X[112] <= 0.5\nmse = 0.0002\nsamples = 13\nvalue = 0.0215"] ;
416 -> 424 ;
425 [label="X[133] <= 0.5\nmse = 0.0\nsamples = 7\nvalue = 0.0129"] ;
424 -> 425 ;
426 [label="X[6] <= 0.5\nmse = 0.0\nsamples = 4\nvalue = 0.0075"] ;
425 -> 426 ;
427 [label="mse = 0.0\nsamples = 1\nvalue = 0.0"] ;
426 -> 427 ;
428 [label="mse = 0.0\nsamples = 3\nvalue = 0.01"] ;
426 -> 428 ;
429 [label="mse = -0.0\nsamples = 3\nvalue = 0.02"] ;
425 -> 429 ;
430 [label="X[9] <= 0.5\nmse = 0.0001\nsamples = 6\nvalue = 0.0317"] ;
424 -> 430 ;
431 [label="X[219] <= 0.5\nmse = 0.0\nsamples = 4\nvalue = 0.025"] ;
430 -> 431 ;
432 [label="mse = 0.0\nsamples = 2\nvalue = 0.03"] ;
431 -> 432 ;
433 [label="mse = -0.0\nsamples = 2\nvalue = 0.02"] ;
431 -> 433 ;
434 [label="X[321] <= 0.5\nmse = 0.0\nsamples = 2\nvalue = 0.045"] ;
430 -> 434 ;
435 [label="mse = 0.0\nsamples = 1\nvalue = 0.05"] ;
434 -> 435 ;
436 [label="mse = 0.0\nsamples = 1\nvalue = 0.04"] ;
434 -> 436 ;
437 [label="X[267] <= 0.5\nmse = 0.0002\nsamples = 31\nvalue = 0.0203"] ;
399 -> 437 ;
438 [label="X[42] <= 0.5\nmse = 0.0002\nsamples = 18\nvalue = 0.0261"] ;
437 -> 438 ;
439 [label="X[100] <= 0.5\nmse = 0.0001\nsamples = 12\nvalue = 0.0192"] ;
438 -> 439 ;
440 [label="X[334] <= 0.5\nmse = 0.0\nsamples = 5\nvalue = 0.012"] ;
439 -> 440 ;
441 [label="mse = 0.0\nsamples = 1\nvalue = 0.02"] ;
440 -> 441 ;
442 [label="mse = -0.0\nsamples = 4\nvalue = 0.01"] ;
440 -> 442 ;
443 [label="X[53] <= 0.5\nmse = 0.0\nsamples = 7\nvalue = 0.0243"] ;
439 -> 443 ;
444 [label="mse = -0.0\nsamples = 4\nvalue = 0.02"] ;
443 -> 444 ;
445 [label="mse = 0.0\nsamples = 3\nvalue = 0.03"] ;
443 -> 445 ;
446 [label="X[298] <= 0.5\nmse = 0.0001\nsamples = 6\nvalue = 0.04"] ;
438 -> 446 ;
447 [label="X[102] <= 0.5\nmse = 0.0\nsamples = 4\nvalue = 0.0475"] ;
446 -> 447 ;
448 [label="mse = 0.0\nsamples = 3\nvalue = 0.05"] ;
447 -> 448 ;
449 [label="mse = -0.0\nsamples = 1\nvalue = 0.04"] ;
447 -> 449 ;
450 [label="X[284] <= 0.5\nmse = 0.0\nsamples = 2\nvalue = 0.025"] ;
446 -> 450 ;
451 [label="mse = 0.0\nsamples = 1\nvalue = 0.02"] ;
450 -> 451 ;
452 [label="mse = -0.0\nsamples = 1\nvalue = 0.03"] ;
450 -> 452 ;
453 [label="X[284] <= 0.5\nmse = 0.0\nsamples = 13\nvalue = 0.0123"] ;
437 -> 453 ;
454 [label="mse = 0.0\nsamples = 1\nvalue = 0.03"] ;
453 -> 454 ;
455 [label="X[10] <= 0.5\nmse = 0.0\nsamples = 12\nvalue = 0.0108"] ;
453 -> 455 ;
456 [label="X[11] <= 0.5\nmse = 0.0\nsamples = 3\nvalue = 0.0167"] ;
455 -> 456 ;
457 [label="mse = 0.0\nsamples = 2\nvalue = 0.02"] ;
456 -> 457 ;
458 [label="mse = -0.0\nsamples = 1\nvalue = 0.01"] ;
456 -> 458 ;
459 [label="X[87] <= 0.5\nmse = 0.0\nsamples = 9\nvalue = 0.0089"] ;
455 -> 459 ;
460 [label="mse = 0.0\nsamples = 1\nvalue = 0.0"] ;
459 -> 460 ;
461 [label="mse = 0.0\nsamples = 8\nvalue = 0.01"] ;
459 -> 461 ;
462 [label="X[231] <= 0.5\nmse = 0.0001\nsamples = 70\nvalue = 0.0139"] ;
398 -> 462 ;
463 [label="X[205] <= 0.5\nmse = 0.0001\nsamples = 32\nvalue = 0.0184"] ;
462 -> 463 ;
464 [label="X[96] <= 0.5\nmse = 0.0001\nsamples = 19\nvalue = 0.0237"] ;
463 -> 464 ;
465 [label="X[157] <= 0.5\nmse = 0.0\nsamples = 9\nvalue = 0.0311"] ;
464 -> 465 ;
466 [label="X[211] <= 0.5\nmse = 0.0\nsamples = 7\nvalue = 0.0286"] ;
465 -> 466 ;
467 [label="mse = 0.0\nsamples = 1\nvalue = 0.02"] ;
466 -> 467 ;
468 [label="mse = -0.0\nsamples = 6\nvalue = 0.03"] ;
466 -> 468 ;
469 [label="mse = -0.0\nsamples = 2\nvalue = 0.04"] ;
465 -> 469 ;
470 [label="X[368] <= 0.5\nmse = 0.0\nsamples = 10\nvalue = 0.017"] ;
464 -> 470 ;
471 [label="X[261] <= 0.5\nmse = 0.0\nsamples = 5\nvalue = 0.022"] ;
470 -> 471 ;
472 [label="mse = 0.0\nsamples = 4\nvalue = 0.02"] ;
471 -> 472 ;
473 [label="mse = 0.0\nsamples = 1\nvalue = 0.03"] ;
471 -> 473 ;
474 [label="X[31] <= 0.5\nmse = 0.0\nsamples = 5\nvalue = 0.012"] ;
470 -> 474 ;
475 [label="mse = 0.0\nsamples = 1\nvalue = 0.02"] ;
474 -> 475 ;
476 [label="mse = -0.0\nsamples = 4\nvalue = 0.01"] ;
474 -> 476 ;
477 [label="X[47] <= 0.5\nmse = 0.0001\nsamples = 13\nvalue = 0.0108"] ;
463 -> 477 ;
478 [label="X[328] <= 0.5\nmse = 0.0\nsamples = 7\nvalue = 0.0043"] ;
477 -> 478 ;
479 [label="mse = -0.0\nsamples = 4\nvalue = 0.0"] ;
478 -> 479 ;
480 [label="mse = 0.0\nsamples = 3\nvalue = 0.01"] ;
478 -> 480 ;
481 [label="X[75] <= 0.5\nmse = 0.0\nsamples = 6\nvalue = 0.0183"] ;
477 -> 481 ;
482 [label="X[43] <= 0.5\nmse = 0.0\nsamples = 4\nvalue = 0.0225"] ;
481 -> 482 ;
483 [label="mse = -0.0\nsamples = 3\nvalue = 0.02"] ;
482 -> 483 ;
484 [label="mse = -0.0\nsamples = 1\nvalue = 0.03"] ;
482 -> 484 ;
485 [label="mse = 0.0\nsamples = 2\nvalue = 0.01"] ;
481 -> 485 ;
486 [label="X[373] <= 0.5\nmse = 0.0001\nsamples = 38\nvalue = 0.01"] ;
462 -> 486 ;
487 [label="X[262] <= 0.5\nmse = 0.0\nsamples = 22\nvalue = 0.0068"] ;
486 -> 487 ;
488 [label="X[97] <= 0.5\nmse = 0.0\nsamples = 8\nvalue = 0.0025"] ;
487 -> 488 ;
489 [label="mse = 0.0\nsamples = 2\nvalue = 0.01"] ;
488 -> 489 ;
490 [label="mse = 0.0\nsamples = 6\nvalue = 0.0"] ;
488 -> 490 ;
491 [label="X[77] <= 0.5\nmse = 0.0\nsamples = 14\nvalue = 0.0093"] ;
487 -> 491 ;
492 [label="X[320] <= 0.5\nmse = 0.0\nsamples = 3\nvalue = 0.0033"] ;
491 -> 492 ;
493 [label="mse = 0.0\nsamples = 1\nvalue = 0.01"] ;
492 -> 493 ;
494 [label="mse = 0.0\nsamples = 2\nvalue = 0.0"] ;
492 -> 494 ;
495 [label="X[351] <= 0.5\nmse = 0.0\nsamples = 11\nvalue = 0.0109"] ;
491 -> 495 ;
496 [label="mse = 0.0\nsamples = 1\nvalue = 0.02"] ;
495 -> 496 ;
497 [label="mse = 0.0\nsamples = 10\nvalue = 0.01"] ;
495 -> 497 ;
498 [label="X[315] <= 0.5\nmse = 0.0\nsamples = 16\nvalue = 0.0144"] ;
486 -> 498 ;
499 [label="X[112] <= 0.5\nmse = 0.0\nsamples = 8\nvalue = 0.0188"] ;
498 -> 499 ;
500 [label="X[384] <= 0.5\nmse = 0.0\nsamples = 6\nvalue = 0.0217"] ;
499 -> 500 ;
501 [label="mse = 0.0\nsamples = 5\nvalue = 0.02"] ;
500 -> 501 ;
502 [label="mse = 0.0\nsamples = 1\nvalue = 0.03"] ;
500 -> 502 ;
503 [label="mse = -0.0\nsamples = 2\nvalue = 0.01"] ;
499 -> 503 ;
504 [label="X[175] <= 0.5\nmse = 0.0\nsamples = 8\nvalue = 0.01"] ;
498 -> 504 ;
505 [label="X[17] <= 0.5\nmse = 0.0\nsamples = 7\nvalue = 0.0086"] ;
504 -> 505 ;
506 [label="mse = 0.0\nsamples = 1\nvalue = 0.0"] ;
505 -> 506 ;
507 [label="mse = 0.0\nsamples = 6\nvalue = 0.01"] ;
505 -> 507 ;
508 [label="mse = -0.0\nsamples = 1\nvalue = 0.02"] ;
504 -> 508 ;
}