digraph Tree {
node [shape=box] ;
0 [label="X[382] <= 0.5\nmse = 0.0163\nsamples = 100\nvalue = 0.5327"] ;
1 [label="X[381] <= 0.5\nmse = 0.0086\nsamples = 72\nvalue = 0.5894"] ;
0 -> 1 [labeldistance=2.5, labelangle=45, headlabel="True"] ;
2 [label="X[50] <= 0.5\nmse = 0.0056\nsamples = 61\nvalue = 0.6125"] ;
1 -> 2 ;
3 [label="X[172] <= 0.5\nmse = 0.0047\nsamples = 41\nvalue = 0.641"] ;
2 -> 3 ;
4 [label="X[297] <= 0.5\nmse = 0.0022\nsamples = 15\nvalue = 0.6967"] ;
3 -> 4 ;
5 [label="X[122] <= 0.5\nmse = 0.0012\nsamples = 13\nvalue = 0.71"] ;
4 -> 5 ;
6 [label="X[95] <= 0.5\nmse = 0.0002\nsamples = 8\nvalue = 0.6912"] ;
5 -> 6 ;
7 [label="X[59] <= 0.5\nmse = 0.0001\nsamples = 3\nvalue = 0.7067"] ;
6 -> 7 ;
8 [label="mse = -0.0\nsamples = 2\nvalue = 0.7"] ;
7 -> 8 ;
9 [label="mse = -0.0\nsamples = 1\nvalue = 0.72"] ;
7 -> 9 ;
10 [label="X[127] <= 0.5\nmse = 0.0001\nsamples = 5\nvalue = 0.682"] ;
6 -> 10 ;
11 [label="X[176] <= 0.5\nmse = 0.0\nsamples = 3\nvalue = 0.6767"] ;
10 -> 11 ;
12 [label="mse = 0.0\nsamples = 1\nvalue = 0.67"] ;
11 -> 12 ;
13 [label="mse = -0.0\nsamples = 2\nvalue = 0.68"] ;
11 -> 13 ;
14 [label="mse = 0.0\nsamples = 2\nvalue = 0.69"] ;
10 -> 14 ;
15 [label="X[112] <= 0.5\nmse = 0.0013\nsamples = 5\nvalue = 0.74"] ;
5 -> 15 ;
16 [label="X[167] <= 0.5\nmse = 0.0001\nsamples = 3\nvalue = 0.7133"] ;
15 -> 16 ;
17 [label="mse = 0.0\nsamples = 2\nvalue = 0.72"] ;
16 -> 17 ;
18 [label="mse = 0.0\nsamples = 1\nvalue = 0.7"] ;
16 -> 18 ;
19 [label="X[197] <= 0.5\nmse = 0.0004\nsamples = 2\nvalue = 0.78"] ;
15 -> 19 ;
20 [label="mse = 0.0\nsamples = 1\nvalue = 0.8"] ;
19 -> 20 ;
21 [label="mse = -0.0\nsamples = 1\nvalue = 0.76"] ;
19 -> 21 ;
22 [label="X[15] <= 0.5\nmse = 0.0001\nsamples = 2\nvalue = 0.61"] ;
4 -> 22 ;
23 [label="mse = 0.0\nsamples = 1\nvalue = 0.6"] ;
22 -> 23 ;
24 [label="mse = -0.0\nsamples = 1\nvalue = 0.62"] ;
22 -> 24 ;
25 [label="X[29] <= 0.5\nmse = 0.0033\nsamples = 26\nvalue = 0.6088"] ;
3 -> 25 ;
26 [label="X[21] <= 0.5\nmse = 0.0021\nsamples = 16\nvalue = 0.6394"] ;
25 -> 26 ;
27 [label="X[186] <= 0.5\nmse = 0.001\nsamples = 14\nvalue = 0.6529"] ;
26 -> 27 ;
28 [label="X[37] <= 0.5\nmse = 0.0\nsamples = 2\nvalue = 0.715"] ;
27 -> 28 ;
29 [label="mse = 0.0\nsamples = 1\nvalue = 0.72"] ;
28 -> 29 ;
30 [label="mse = 0.0\nsamples = 1\nvalue = 0.71"] ;
28 -> 30 ;
31 [label="X[131] <= 0.5\nmse = 0.0004\nsamples = 12\nvalue = 0.6425"] ;
27 -> 31 ;
32 [label="X[45] <= 0.5\nmse = 0.0002\nsamples = 10\nvalue = 0.636"] ;
31 -> 32 ;
33 [label="X[239] <= 0.5\nmse = 0.0001\nsamples = 8\nvalue = 0.6412"] ;
32 -> 33 ;
34 [label="X[277] <= 0.5\nmse = 0.0\nsamples = 2\nvalue = 0.655"] ;
33 -> 34 ;
35 [label="mse = 0.0\nsamples = 1\nvalue = 0.66"] ;
34 -> 35 ;
36 [label="mse = 0.0\nsamples = 1\nvalue = 0.65"] ;
34 -> 36 ;
37 [label="X[9] <= 0.5\nmse = 0.0\nsamples = 6\nvalue = 0.6367"] ;
33 -> 37 ;
38 [label="mse = 0.0\nsamples = 4\nvalue = 0.64"] ;
37 -> 38 ;
39 [label="mse = 0.0\nsamples = 2\nvalue = 0.63"] ;
37 -> 39 ;
40 [label="X[110] <= 0.5\nmse = 0.0\nsamples = 2\nvalue = 0.615"] ;
32 -> 40 ;
41 [label="mse = 0.0\nsamples = 1\nvalue = 0.62"] ;
40 -> 41 ;
42 [label="mse = -0.0\nsamples = 1\nvalue = 0.61"] ;
40 -> 42 ;
43 [label="X[206] <= 0.5\nmse = 0.0\nsamples = 2\nvalue = 0.675"] ;
31 -> 43 ;
44 [label="mse = 0.0\nsamples = 1\nvalue = 0.67"] ;
43 -> 44 ;
45 [label="mse = 0.0\nsamples = 1\nvalue = 0.68"] ;
43 -> 45 ;
46 [label="X[62] <= 0.5\nmse = 0.0002\nsamples = 2\nvalue = 0.545"] ;
26 -> 46 ;
47 [label="mse = 0.0\nsamples = 1\nvalue = 0.53"] ;
46 -> 47 ;
48 [label="mse = -0.0\nsamples = 1\nvalue = 0.56"] ;
46 -> 48 ;
49 [label="X[138] <= 0.5\nmse = 0.0012\nsamples = 10\nvalue = 0.56"] ;
25 -> 49 ;
50 [label="X[48] <= 0.5\nmse = 0.0004\nsamples = 7\nvalue = 0.5786"] ;
49 -> 50 ;
51 [label="X[70] <= 0.5\nmse = 0.0001\nsamples = 4\nvalue = 0.5925"] ;
50 -> 51 ;
52 [label="mse = 0.0\nsamples = 2\nvalue = 0.6"] ;
51 -> 52 ;
53 [label="X[245] <= 0.5\nmse = 0.0\nsamples = 2\nvalue = 0.585"] ;
51 -> 53 ;
54 [label="mse = 0.0\nsamples = 1\nvalue = 0.58"] ;
53 -> 54 ;
55 [label="mse = -0.0\nsamples = 1\nvalue = 0.59"] ;
53 -> 55 ;
56 [label="X[61] <= 0.5\nmse = 0.0002\nsamples = 3\nvalue = 0.56"] ;
50 -> 56 ;
57 [label="mse = 0.0\nsamples = 1\nvalue = 0.54"] ;
56 -> 57 ;
58 [label="mse = 0.0\nsamples = 2\nvalue = 0.57"] ;
56 -> 58 ;
59 [label="X[282] <= 0.5\nmse = 0.0004\nsamples = 3\nvalue = 0.5167"] ;
49 -> 59 ;
60 [label="X[209] <= 0.5\nmse = 0.0001\nsamples = 2\nvalue = 0.53"] ;
59 -> 60 ;
61 [label="mse = 0.0\nsamples = 1\nvalue = 0.54"] ;
60 -> 61 ;
62 [label="mse = 0.0\nsamples = 1\nvalue = 0.52"] ;
60 -> 62 ;
63 [label="mse = 0.0\nsamples = 1\nvalue = 0.49"] ;
59 -> 63 ;
64 [label="X[197] <= 0.5\nmse = 0.0024\nsamples = 20\nvalue = 0.554"] ;
2 -> 64 ;
65 [label="X[275] <= 0.5\nmse = 0.001\nsamples = 7\nvalue = 0.6029"] ;
64 -> 65 ;
66 [label="X[16] <= 0.5\nmse = 0.0002\nsamples = 3\nvalue = 0.6333"] ;
65 -> 66 ;
67 [label="mse = 0.0\nsamples = 1\nvalue = 0.65"] ;
66 -> 67 ;
68 [label="X[70] <= 0.5\nmse = 0.0\nsamples = 2\nvalue = 0.625"] ;
66 -> 68 ;
69 [label="mse = 0.0\nsamples = 1\nvalue = 0.62"] ;
68 -> 69 ;
70 [label="mse = 0.0\nsamples = 1\nvalue = 0.63"] ;
68 -> 70 ;
71 [label="X[47] <= 0.5\nmse = 0.0003\nsamples = 4\nvalue = 0.58"] ;
65 -> 71 ;
72 [label="X[111] <= 0.5\nmse = 0.0001\nsamples = 3\nvalue = 0.59"] ;
71 -> 72 ;
73 [label="X[138] <= 0.5\nmse = 0.0\nsamples = 2\nvalue = 0.595"] ;
72 -> 73 ;
74 [label="mse = 0.0\nsamples = 1\nvalue = 0.59"] ;
73 -> 74 ;
75 [label="mse = 0.0\nsamples = 1\nvalue = 0.6"] ;
73 -> 75 ;
76 [label="mse = -0.0\nsamples = 1\nvalue = 0.58"] ;
72 -> 76 ;
77 [label="mse = -0.0\nsamples = 1\nvalue = 0.55"] ;
71 -> 77 ;
78 [label="X[8] <= 0.5\nmse = 0.0012\nsamples = 13\nvalue = 0.5277"] ;
64 -> 78 ;
79 [label="X[275] <= 0.5\nmse = 0.0001\nsamples = 5\nvalue = 0.56"] ;
78 -> 79 ;
80 [label="X[249] <= 0.5\nmse = 0.0\nsamples = 4\nvalue = 0.555"] ;
79 -> 80 ;
81 [label="mse = 0.0\nsamples = 2\nvalue = 0.56"] ;
80 -> 81 ;
82 [label="mse = 0.0\nsamples = 2\nvalue = 0.55"] ;
80 -> 82 ;
83 [label="mse = -0.0\nsamples = 1\nvalue = 0.58"] ;
79 -> 83 ;
84 [label="X[192] <= 0.5\nmse = 0.0008\nsamples = 8\nvalue = 0.5075"] ;
78 -> 84 ;
85 [label="X[60] <= 0.5\nmse = 0.0001\nsamples = 2\nvalue = 0.55"] ;
84 -> 85 ;
86 [label="mse = 0.0\nsamples = 1\nvalue = 0.56"] ;
85 -> 86 ;
87 [label="mse = 0.0\nsamples = 1\nvalue = 0.54"] ;
85 -> 87 ;
88 [label="X[176] <= 0.5\nmse = 0.0003\nsamples = 6\nvalue = 0.4933"] ;
84 -> 88 ;
89 [label="X[27] <= 0.5\nmse = 0.0\nsamples = 2\nvalue = 0.515"] ;
88 -> 89 ;
90 [label="mse = 0.0\nsamples = 1\nvalue = 0.51"] ;
89 -> 90 ;
91 [label="mse = -0.0\nsamples = 1\nvalue = 0.52"] ;
89 -> 91 ;
92 [label="X[101] <= 0.5\nmse = 0.0\nsamples = 4\nvalue = 0.4825"] ;
88 -> 92 ;
93 [label="mse = 0.0\nsamples = 1\nvalue = 0.49"] ;
92 -> 93 ;
94 [label="mse = 0.0\nsamples = 3\nvalue = 0.48"] ;
92 -> 94 ;
95 [label="X[30] <= 0.5\nmse = 0.006\nsamples = 11\nvalue = 0.4618"] ;
1 -> 95 ;
96 [label="X[19] <= 0.5\nmse = 0.001\nsamples = 4\nvalue = 0.55"] ;
95 -> 96 ;
97 [label="X[117] <= 0.5\nmse = 0.0001\nsamples = 2\nvalue = 0.52"] ;
96 -> 97 ;
98 [label="mse = 0.0\nsamples = 1\nvalue = 0.53"] ;
97 -> 98 ;
99 [label="mse = 0.0\nsamples = 1\nvalue = 0.51"] ;
97 -> 99 ;
100 [label="X[350] <= 0.5\nmse = 0.0001\nsamples = 2\nvalue = 0.58"] ;
96 -> 100 ;
101 [label="mse = 0.0\nsamples = 1\nvalue = 0.59"] ;
100 -> 101 ;
102 [label="mse = 0.0\nsamples = 1\nvalue = 0.57"] ;
100 -> 102 ;
103 [label="X[145] <= 0.5\nmse = 0.0019\nsamples = 7\nvalue = 0.4114"] ;
95 -> 103 ;
104 [label="X[283] <= 0.5\nmse = 0.0004\nsamples = 4\nvalue = 0.445"] ;
103 -> 104 ;
105 [label="X[318] <= 0.5\nmse = 0.0\nsamples = 3\nvalue = 0.4333"] ;
104 -> 105 ;
106 [label="mse = 0.0\nsamples = 1\nvalue = 0.44"] ;
105 -> 106 ;
107 [label="mse = -0.0\nsamples = 2\nvalue = 0.43"] ;
105 -> 107 ;
108 [label="mse = 0.0\nsamples = 1\nvalue = 0.48"] ;
104 -> 108 ;
109 [label="X[226] <= 0.5\nmse = 0.0003\nsamples = 3\nvalue = 0.3667"] ;
103 -> 109 ;
110 [label="mse = 0.0\nsamples = 1\nvalue = 0.39"] ;
109 -> 110 ;
111 [label="X[256] <= 0.5\nmse = 0.0\nsamples = 2\nvalue = 0.355"] ;
109 -> 111 ;
112 [label="mse = 0.0\nsamples = 1\nvalue = 0.35"] ;
111 -> 112 ;
113 [label="mse = 0.0\nsamples = 1\nvalue = 0.36"] ;
111 -> 113 ;
114 [label="X[33] <= 0.5\nmse = 0.0066\nsamples = 28\nvalue = 0.3868"] ;
0 -> 114 [labeldistance=2.5, labelangle=-45, headlabel="False"] ;
115 [label="X[194] <= 0.5\nmse = 0.005\nsamples = 17\nvalue = 0.4294"] ;
114 -> 115 ;
116 [label="X[202] <= 0.5\nmse = 0.0016\nsamples = 6\nvalue = 0.5117"] ;
115 -> 116 ;
117 [label="X[345] <= 0.5\nmse = 0.0\nsamples = 2\nvalue = 0.565"] ;
116 -> 117 ;
118 [label="mse = 0.0\nsamples = 1\nvalue = 0.56"] ;
117 -> 118 ;
119 [label="mse = 0.0\nsamples = 1\nvalue = 0.57"] ;
117 -> 119 ;
120 [label="X[217] <= 0.5\nmse = 0.0002\nsamples = 4\nvalue = 0.485"] ;
116 -> 120 ;
121 [label="mse = 0.0\nsamples = 2\nvalue = 0.47"] ;
120 -> 121 ;
122 [label="mse = 0.0\nsamples = 2\nvalue = 0.5"] ;
120 -> 122 ;
123 [label="X[146] <= 0.5\nmse = 0.0011\nsamples = 11\nvalue = 0.3845"] ;
115 -> 123 ;
124 [label="X[41] <= 0.5\nmse = 0.0002\nsamples = 5\nvalue = 0.414"] ;
123 -> 124 ;
125 [label="X[200] <= 0.5\nmse = 0.0\nsamples = 3\nvalue = 0.4033"] ;
124 -> 125 ;
126 [label="mse = 0.0\nsamples = 1\nvalue = 0.41"] ;
125 -> 126 ;
127 [label="mse = 0.0\nsamples = 2\nvalue = 0.4"] ;
125 -> 127 ;
128 [label="X[342] <= 0.5\nmse = 0.0001\nsamples = 2\nvalue = 0.43"] ;
124 -> 128 ;
129 [label="mse = 0.0\nsamples = 1\nvalue = 0.44"] ;
128 -> 129 ;
130 [label="mse = 0.0\nsamples = 1\nvalue = 0.42"] ;
128 -> 130 ;
131 [label="X[182] <= 0.5\nmse = 0.0005\nsamples = 6\nvalue = 0.36"] ;
123 -> 131 ;
132 [label="mse = 0.0\nsamples = 1\nvalue = 0.41"] ;
131 -> 132 ;
133 [label="X[76] <= 0.5\nmse = 0.0\nsamples = 5\nvalue = 0.35"] ;
131 -> 133 ;
134 [label="X[208] <= 0.5\nmse = 0.0\nsamples = 4\nvalue = 0.3525"] ;
133 -> 134 ;
135 [label="mse = 0.0\nsamples = 1\nvalue = 0.36"] ;
134 -> 135 ;
136 [label="mse = -0.0\nsamples = 3\nvalue = 0.35"] ;
134 -> 136 ;
137 [label="mse = -0.0\nsamples = 1\nvalue = 0.34"] ;
133 -> 137 ;
138 [label="X[357] <= 0.5\nmse = 0.002\nsamples = 11\nvalue = 0.3209"] ;
114 -> 138 ;
139 [label="X[160] <= 0.5\nmse = 0.0003\nsamples = 5\nvalue = 0.366"] ;
138 -> 139 ;
140 [label="X[323] <= 0.5\nmse = 0.0\nsamples = 2\nvalue = 0.385"] ;
139 -> 140 ;
141 [label="mse = 0.0\nsamples = 1\nvalue = 0.39"] ;
140 -> 141 ;
142 [label="mse = -0.0\nsamples = 1\nvalue = 0.38"] ;
140 -> 142 ;
143 [label="X[219] <= 0.5\nmse = 0.0\nsamples = 3\nvalue = 0.3533"] ;
139 -> 143 ;
144 [label="mse = 0.0\nsamples = 1\nvalue = 0.36"] ;
143 -> 144 ;
145 [label="mse = -0.0\nsamples = 2\nvalue = 0.35"] ;
143 -> 145 ;
146 [label="X[214] <= 0.5\nmse = 0.0004\nsamples = 6\nvalue = 0.2833"] ;
138 -> 146 ;
147 [label="mse = 0.0\nsamples = 2\nvalue = 0.31"] ;
146 -> 147 ;
148 [label="X[126] <= 0.5\nmse = 0.0001\nsamples = 4\nvalue = 0.27"] ;
146 -> 148 ;
149 [label="X[191] <= 0.5\nmse = 0.0\nsamples = 3\nvalue = 0.2733"] ;
148 -> 149 ;
150 [label="mse = 0.0\nsamples = 1\nvalue = 0.28"] ;
149 -> 150 ;
151 [label="mse = -0.0\nsamples = 2\nvalue = 0.27"] ;
149 -> 151 ;
152 [label="mse = 0.0\nsamples = 1\nvalue = 0.26"] ;
148 -> 152 ;
}