digraph Tree {
node [shape=box] ;
0 [label="X[367] <= 0.5\nmse = 0.0007\nsamples = 500\nvalue = 0.48"] ;
1 [label="X[9] <= 0.5\nmse = 0.0007\nsamples = 237\nvalue = 0.4735"] ;
0 -> 1 [labeldistance=2.5, labelangle=45, headlabel="True"] ;
2 [label="X[352] <= 0.5\nmse = 0.0006\nsamples = 111\nvalue = 0.4661"] ;
1 -> 2 ;
3 [label="X[86] <= 0.5\nmse = 0.0005\nsamples = 65\nvalue = 0.4586"] ;
2 -> 3 ;
4 [label="X[327] <= 0.5\nmse = 0.0004\nsamples = 38\nvalue = 0.4516"] ;
3 -> 4 ;
5 [label="X[158] <= 0.5\nmse = 0.0002\nsamples = 24\nvalue = 0.4433"] ;
4 -> 5 ;
6 [label="X[250] <= 0.5\nmse = 0.0002\nsamples = 13\nvalue = 0.4346"] ;
5 -> 6 ;
7 [label="X[65] <= 0.5\nmse = 0.0001\nsamples = 6\nvalue = 0.4233"] ;
6 -> 7 ;
8 [label="X[201] <= 0.5\nmse = 0.0\nsamples = 4\nvalue = 0.4175"] ;
7 -> 8 ;
9 [label="mse = 0.0\nsamples = 1\nvalue = 0.41"] ;
8 -> 9 ;
10 [label="mse = 0.0\nsamples = 3\nvalue = 0.42"] ;
8 -> 10 ;
11 [label="X[262] <= 0.5\nmse = 0.0\nsamples = 2\nvalue = 0.435"] ;
7 -> 11 ;
12 [label="mse = 0.0\nsamples = 1\nvalue = 0.44"] ;
11 -> 12 ;
13 [label="mse = -0.0\nsamples = 1\nvalue = 0.43"] ;
11 -> 13 ;
14 [label="X[69] <= 0.5\nmse = 0.0001\nsamples = 7\nvalue = 0.4443"] ;
6 -> 14 ;
15 [label="X[266] <= 0.5\nmse = 0.0\nsamples = 3\nvalue = 0.4367"] ;
14 -> 15 ;
16 [label="mse = 0.0\nsamples = 1\nvalue = 0.43"] ;
15 -> 16 ;
17 [label="mse = -0.0\nsamples = 2\nvalue = 0.44"] ;
15 -> 17 ;
18 [label="mse = -0.0\nsamples = 4\nvalue = 0.45"] ;
14 -> 18 ;
19 [label="X[325] <= 0.5\nmse = 0.0001\nsamples = 11\nvalue = 0.4536"] ;
5 -> 19 ;
20 [label="X[142] <= 0.5\nmse = 0.0\nsamples = 8\nvalue = 0.4475"] ;
19 -> 20 ;
21 [label="X[224] <= 0.5\nmse = 0.0\nsamples = 5\nvalue = 0.452"] ;
20 -> 21 ;
22 [label="mse = -0.0\nsamples = 4\nvalue = 0.45"] ;
21 -> 22 ;
23 [label="mse = 0.0\nsamples = 1\nvalue = 0.46"] ;
21 -> 23 ;
24 [label="mse = 0.0\nsamples = 3\nvalue = 0.44"] ;
20 -> 24 ;
25 [label="mse = 0.0\nsamples = 3\nvalue = 0.47"] ;
19 -> 25 ;
26 [label="X[141] <= 0.5\nmse = 0.0004\nsamples = 14\nvalue = 0.4657"] ;
4 -> 26 ;
27 [label="X[79] <= 0.5\nmse = 0.0001\nsamples = 7\nvalue = 0.4814"] ;
26 -> 27 ;
28 [label="X[192] <= 0.5\nmse = 0.0\nsamples = 5\nvalue = 0.488"] ;
27 -> 28 ;
29 [label="mse = 0.0\nsamples = 1\nvalue = 0.48"] ;
28 -> 29 ;
30 [label="mse = 0.0\nsamples = 4\nvalue = 0.49"] ;
28 -> 30 ;
31 [label="X[73] <= 0.5\nmse = 0.0\nsamples = 2\nvalue = 0.465"] ;
27 -> 31 ;
32 [label="mse = 0.0\nsamples = 1\nvalue = 0.46"] ;
31 -> 32 ;
33 [label="mse = 0.0\nsamples = 1\nvalue = 0.47"] ;
31 -> 33 ;
34 [label="X[171] <= 0.5\nmse = 0.0002\nsamples = 7\nvalue = 0.45"] ;
26 -> 34 ;
35 [label="mse = 0.0\nsamples = 2\nvalue = 0.43"] ;
34 -> 35 ;
36 [label="X[180] <= 0.5\nmse = 0.0001\nsamples = 5\nvalue = 0.458"] ;
34 -> 36 ;
37 [label="X[298] <= 0.5\nmse = 0.0\nsamples = 3\nvalue = 0.4633"] ;
36 -> 37 ;
38 [label="mse = 0.0\nsamples = 1\nvalue = 0.47"] ;
37 -> 38 ;
39 [label="mse = 0.0\nsamples = 2\nvalue = 0.46"] ;
37 -> 39 ;
40 [label="mse = 0.0\nsamples = 2\nvalue = 0.45"] ;
36 -> 40 ;
41 [label="X[162] <= 0.5\nmse = 0.0004\nsamples = 27\nvalue = 0.4685"] ;
3 -> 41 ;
42 [label="X[304] <= 0.5\nmse = 0.0004\nsamples = 16\nvalue = 0.4594"] ;
41 -> 42 ;
43 [label="X[196] <= 0.5\nmse = 0.0002\nsamples = 10\nvalue = 0.469"] ;
42 -> 43 ;
44 [label="X[128] <= 0.5\nmse = 0.0001\nsamples = 6\nvalue = 0.4783"] ;
43 -> 44 ;
45 [label="X[145] <= 0.5\nmse = 0.0\nsamples = 5\nvalue = 0.474"] ;
44 -> 45 ;
46 [label="mse = -0.0\nsamples = 3\nvalue = 0.47"] ;
45 -> 46 ;
47 [label="mse = 0.0\nsamples = 2\nvalue = 0.48"] ;
45 -> 47 ;
48 [label="mse = 0.0\nsamples = 1\nvalue = 0.5"] ;
44 -> 48 ;
49 [label="X[256] <= 0.5\nmse = 0.0\nsamples = 4\nvalue = 0.455"] ;
43 -> 49 ;
50 [label="mse = 0.0\nsamples = 2\nvalue = 0.45"] ;
49 -> 50 ;
51 [label="mse = 0.0\nsamples = 2\nvalue = 0.46"] ;
49 -> 51 ;
52 [label="X[254] <= 0.5\nmse = 0.0002\nsamples = 6\nvalue = 0.4433"] ;
42 -> 52 ;
53 [label="X[39] <= 0.5\nmse = 0.0\nsamples = 4\nvalue = 0.4525"] ;
52 -> 53 ;
54 [label="mse = 0.0\nsamples = 1\nvalue = 0.46"] ;
53 -> 54 ;
55 [label="mse = 0.0\nsamples = 3\nvalue = 0.45"] ;
53 -> 55 ;
56 [label="X[330] <= 0.5\nmse = 0.0\nsamples = 2\nvalue = 0.425"] ;
52 -> 56 ;
57 [label="mse = 0.0\nsamples = 1\nvalue = 0.42"] ;
56 -> 57 ;
58 [label="mse = 0.0\nsamples = 1\nvalue = 0.43"] ;
56 -> 58 ;
59 [label="X[129] <= 0.5\nmse = 0.0003\nsamples = 11\nvalue = 0.4818"] ;
41 -> 59 ;
60 [label="X[313] <= 0.5\nmse = 0.0001\nsamples = 8\nvalue = 0.49"] ;
59 -> 60 ;
61 [label="mse = 0.0\nsamples = 1\nvalue = 0.47"] ;
60 -> 61 ;
62 [label="X[338] <= 0.5\nmse = 0.0\nsamples = 7\nvalue = 0.4929"] ;
60 -> 62 ;
63 [label="mse = -0.0\nsamples = 5\nvalue = 0.49"] ;
62 -> 63 ;
64 [label="mse = 0.0\nsamples = 2\nvalue = 0.5"] ;
62 -> 64 ;
65 [label="X[253] <= 0.5\nmse = 0.0001\nsamples = 3\nvalue = 0.46"] ;
59 -> 65 ;
66 [label="X[305] <= 0.5\nmse = 0.0\nsamples = 2\nvalue = 0.465"] ;
65 -> 66 ;
67 [label="mse = 0.0\nsamples = 1\nvalue = 0.46"] ;
66 -> 67 ;
68 [label="mse = 0.0\nsamples = 1\nvalue = 0.47"] ;
66 -> 68 ;
69 [label="mse = 0.0\nsamples = 1\nvalue = 0.45"] ;
65 -> 69 ;
70 [label="X[19] <= 0.5\nmse = 0.0005\nsamples = 46\nvalue = 0.4767"] ;
2 -> 70 ;
71 [label="X[296] <= 0.5\nmse = 0.0004\nsamples = 25\nvalue = 0.4672"] ;
70 -> 71 ;
72 [label="X[293] <= 0.5\nmse = 0.0003\nsamples = 16\nvalue = 0.4762"] ;
71 -> 72 ;
73 [label="X[261] <= 0.5\nmse = 0.0002\nsamples = 9\nvalue = 0.4867"] ;
72 -> 73 ;
74 [label="X[94] <= 0.5\nmse = 0.0001\nsamples = 5\nvalue = 0.476"] ;
73 -> 74 ;
75 [label="mse = 0.0\nsamples = 4\nvalue = 0.48"] ;
74 -> 75 ;
76 [label="mse = 0.0\nsamples = 1\nvalue = 0.46"] ;
74 -> 76 ;
77 [label="X[195] <= 0.5\nmse = 0.0\nsamples = 4\nvalue = 0.5"] ;
73 -> 77 ;
78 [label="X[268] <= 0.5\nmse = 0.0\nsamples = 3\nvalue = 0.5033"] ;
77 -> 78 ;
79 [label="mse = 0.0\nsamples = 2\nvalue = 0.5"] ;
78 -> 79 ;
80 [label="mse = 0.0\nsamples = 1\nvalue = 0.51"] ;
78 -> 80 ;
81 [label="mse = 0.0\nsamples = 1\nvalue = 0.49"] ;
77 -> 81 ;
82 [label="X[196] <= 0.5\nmse = 0.0001\nsamples = 7\nvalue = 0.4629"] ;
72 -> 82 ;
83 [label="X[169] <= 0.5\nmse = 0.0\nsamples = 4\nvalue = 0.455"] ;
82 -> 83 ;
84 [label="mse = 0.0\nsamples = 2\nvalue = 0.45"] ;
83 -> 84 ;
85 [label="mse = 0.0\nsamples = 2\nvalue = 0.46"] ;
83 -> 85 ;
86 [label="X[103] <= 0.5\nmse = 0.0\nsamples = 3\nvalue = 0.4733"] ;
82 -> 86 ;
87 [label="mse = 0.0\nsamples = 1\nvalue = 0.48"] ;
86 -> 87 ;
88 [label="mse = -0.0\nsamples = 2\nvalue = 0.47"] ;
86 -> 88 ;
89 [label="X[47] <= 0.5\nmse = 0.0003\nsamples = 9\nvalue = 0.4511"] ;
71 -> 89 ;
90 [label="X[160] <= 0.5\nmse = 0.0\nsamples = 6\nvalue = 0.4617"] ;
89 -> 90 ;
91 [label="mse = 0.0\nsamples = 5\nvalue = 0.46"] ;
90 -> 91 ;
92 [label="mse = -0.0\nsamples = 1\nvalue = 0.47"] ;
90 -> 92 ;
93 [label="X[44] <= 0.5\nmse = 0.0001\nsamples = 3\nvalue = 0.43"] ;
89 -> 93 ;
94 [label="X[115] <= 0.5\nmse = 0.0\nsamples = 2\nvalue = 0.435"] ;
93 -> 94 ;
95 [label="mse = 0.0\nsamples = 1\nvalue = 0.43"] ;
94 -> 95 ;
96 [label="mse = -0.0\nsamples = 1\nvalue = 0.44"] ;
94 -> 96 ;
97 [label="mse = 0.0\nsamples = 1\nvalue = 0.42"] ;
93 -> 97 ;
98 [label="X[291] <= 0.5\nmse = 0.0004\nsamples = 21\nvalue = 0.4881"] ;
70 -> 98 ;
99 [label="X[292] <= 0.5\nmse = 0.0004\nsamples = 11\nvalue = 0.4764"] ;
98 -> 99 ;
100 [label="X[137] <= 0.5\nmse = 0.0002\nsamples = 7\nvalue = 0.4886"] ;
99 -> 100 ;
101 [label="X[249] <= 0.5\nmse = 0.0\nsamples = 2\nvalue = 0.505"] ;
100 -> 101 ;
102 [label="mse = 0.0\nsamples = 1\nvalue = 0.5"] ;
101 -> 102 ;
103 [label="mse = 0.0\nsamples = 1\nvalue = 0.51"] ;
101 -> 103 ;
104 [label="X[348] <= 0.5\nmse = 0.0001\nsamples = 5\nvalue = 0.482"] ;
100 -> 104 ;
105 [label="mse = 0.0\nsamples = 2\nvalue = 0.49"] ;
104 -> 105 ;
106 [label="X[156] <= 0.5\nmse = 0.0\nsamples = 3\nvalue = 0.4767"] ;
104 -> 106 ;
107 [label="mse = 0.0\nsamples = 2\nvalue = 0.48"] ;
106 -> 107 ;
108 [label="mse = 0.0\nsamples = 1\nvalue = 0.47"] ;
106 -> 108 ;
109 [label="X[50] <= 0.5\nmse = 0.0001\nsamples = 4\nvalue = 0.455"] ;
99 -> 109 ;
110 [label="X[339] <= 0.5\nmse = 0.0\nsamples = 2\nvalue = 0.465"] ;
109 -> 110 ;
111 [label="mse = 0.0\nsamples = 1\nvalue = 0.46"] ;
110 -> 111 ;
112 [label="mse = 0.0\nsamples = 1\nvalue = 0.47"] ;
110 -> 112 ;
113 [label="X[193] <= 0.5\nmse = 0.0\nsamples = 2\nvalue = 0.445"] ;
109 -> 113 ;
114 [label="mse = 0.0\nsamples = 1\nvalue = 0.45"] ;
113 -> 114 ;
115 [label="mse = 0.0\nsamples = 1\nvalue = 0.44"] ;
113 -> 115 ;
116 [label="X[71] <= 0.5\nmse = 0.0001\nsamples = 10\nvalue = 0.501"] ;
98 -> 116 ;
117 [label="X[306] <= 0.5\nmse = 0.0\nsamples = 7\nvalue = 0.4971"] ;
116 -> 117 ;
118 [label="mse = 0.0\nsamples = 2\nvalue = 0.49"] ;
117 -> 118 ;
119 [label="mse = -0.0\nsamples = 5\nvalue = 0.5"] ;
117 -> 119 ;
120 [label="X[70] <= 0.5\nmse = 0.0001\nsamples = 3\nvalue = 0.51"] ;
116 -> 120 ;
121 [label="X[6] <= 0.5\nmse = 0.0\nsamples = 2\nvalue = 0.505"] ;
120 -> 121 ;
122 [label="mse = 0.0\nsamples = 1\nvalue = 0.5"] ;
121 -> 122 ;
123 [label="mse = 0.0\nsamples = 1\nvalue = 0.51"] ;
121 -> 123 ;
124 [label="mse = -0.0\nsamples = 1\nvalue = 0.52"] ;
120 -> 124 ;
125 [label="X[318] <= 0.5\nmse = 0.0006\nsamples = 126\nvalue = 0.4799"] ;
1 -> 125 ;
126 [label="X[197] <= 0.5\nmse = 0.0004\nsamples = 60\nvalue = 0.4718"] ;
125 -> 126 ;
127 [label="X[291] <= 0.5\nmse = 0.0004\nsamples = 31\nvalue = 0.4632"] ;
126 -> 127 ;
128 [label="X[176] <= 0.5\nmse = 0.0002\nsamples = 12\nvalue = 0.4492"] ;
127 -> 128 ;
129 [label="X[289] <= 0.5\nmse = 0.0001\nsamples = 7\nvalue = 0.4571"] ;
128 -> 129 ;
130 [label="X[199] <= 0.5\nmse = 0.0\nsamples = 3\nvalue = 0.4467"] ;
129 -> 130 ;
131 [label="mse = 0.0\nsamples = 1\nvalue = 0.44"] ;
130 -> 131 ;
132 [label="mse = -0.0\nsamples = 2\nvalue = 0.45"] ;
130 -> 132 ;
133 [label="X[222] <= 0.5\nmse = 0.0\nsamples = 4\nvalue = 0.465"] ;
129 -> 133 ;
134 [label="mse = 0.0\nsamples = 2\nvalue = 0.46"] ;
133 -> 134 ;
135 [label="mse = 0.0\nsamples = 2\nvalue = 0.47"] ;
133 -> 135 ;
136 [label="X[276] <= 0.5\nmse = 0.0001\nsamples = 5\nvalue = 0.438"] ;
128 -> 136 ;
137 [label="mse = 0.0\nsamples = 2\nvalue = 0.43"] ;
136 -> 137 ;
138 [label="X[160] <= 0.5\nmse = 0.0\nsamples = 3\nvalue = 0.4433"] ;
136 -> 138 ;
139 [label="mse = 0.0\nsamples = 1\nvalue = 0.45"] ;
138 -> 139 ;
140 [label="mse = -0.0\nsamples = 2\nvalue = 0.44"] ;
138 -> 140 ;
141 [label="X[210] <= 0.5\nmse = 0.0003\nsamples = 19\nvalue = 0.4721"] ;
127 -> 141 ;
142 [label="X[145] <= 0.5\nmse = 0.0003\nsamples = 5\nvalue = 0.454"] ;
141 -> 142 ;
143 [label="X[201] <= 0.5\nmse = 0.0001\nsamples = 3\nvalue = 0.44"] ;
142 -> 143 ;
144 [label="mse = 0.0\nsamples = 1\nvalue = 0.43"] ;
143 -> 144 ;
145 [label="X[334] <= 0.5\nmse = 0.0\nsamples = 2\nvalue = 0.445"] ;
143 -> 145 ;
146 [label="mse = 0.0\nsamples = 1\nvalue = 0.45"] ;
145 -> 146 ;
147 [label="mse = 0.0\nsamples = 1\nvalue = 0.44"] ;
145 -> 147 ;
148 [label="X[94] <= 0.5\nmse = 0.0\nsamples = 2\nvalue = 0.475"] ;
142 -> 148 ;
149 [label="mse = 0.0\nsamples = 1\nvalue = 0.47"] ;
148 -> 149 ;
150 [label="mse = 0.0\nsamples = 1\nvalue = 0.48"] ;
148 -> 150 ;
151 [label="X[353] <= 0.5\nmse = 0.0001\nsamples = 14\nvalue = 0.4786"] ;
141 -> 151 ;
152 [label="X[283] <= 0.5\nmse = 0.0001\nsamples = 3\nvalue = 0.49"] ;
151 -> 152 ;
153 [label="X[152] <= 0.5\nmse = 0.0\nsamples = 2\nvalue = 0.495"] ;
152 -> 153 ;
154 [label="mse = 0.0\nsamples = 1\nvalue = 0.49"] ;
153 -> 154 ;
155 [label="mse = 0.0\nsamples = 1\nvalue = 0.5"] ;
153 -> 155 ;
156 [label="mse = -0.0\nsamples = 1\nvalue = 0.48"] ;
152 -> 156 ;
157 [label="X[60] <= 0.5\nmse = 0.0\nsamples = 11\nvalue = 0.4755"] ;
151 -> 157 ;
158 [label="X[255] <= 0.5\nmse = 0.0\nsamples = 7\nvalue = 0.4714"] ;
157 -> 158 ;
159 [label="mse = 0.0\nsamples = 1\nvalue = 0.48"] ;
158 -> 159 ;
160 [label="mse = -0.0\nsamples = 6\nvalue = 0.47"] ;
158 -> 160 ;
161 [label="X[178] <= 0.5\nmse = 0.0\nsamples = 4\nvalue = 0.4825"] ;
157 -> 161 ;
162 [label="mse = 0.0\nsamples = 1\nvalue = 0.49"] ;
161 -> 162 ;
163 [label="mse = 0.0\nsamples = 3\nvalue = 0.48"] ;
161 -> 163 ;
164 [label="X[184] <= 0.5\nmse = 0.0003\nsamples = 29\nvalue = 0.481"] ;
126 -> 164 ;
165 [label="X[39] <= 0.5\nmse = 0.0002\nsamples = 13\nvalue = 0.4908"] ;
164 -> 165 ;
166 [label="X[293] <= 0.5\nmse = 0.0\nsamples = 6\nvalue = 0.5017"] ;
165 -> 166 ;
167 [label="mse = 0.0\nsamples = 2\nvalue = 0.51"] ;
166 -> 167 ;
168 [label="X[296] <= 0.5\nmse = 0.0\nsamples = 4\nvalue = 0.4975"] ;
166 -> 168 ;
169 [label="mse = 0.0\nsamples = 3\nvalue = 0.5"] ;
168 -> 169 ;
170 [label="mse = 0.0\nsamples = 1\nvalue = 0.49"] ;
168 -> 170 ;
171 [label="X[68] <= 0.5\nmse = 0.0001\nsamples = 7\nvalue = 0.4814"] ;
165 -> 171 ;
172 [label="X[136] <= 0.5\nmse = 0.0\nsamples = 4\nvalue = 0.475"] ;
171 -> 172 ;
173 [label="mse = 0.0\nsamples = 2\nvalue = 0.47"] ;
172 -> 173 ;
174 [label="mse = -0.0\nsamples = 2\nvalue = 0.48"] ;
172 -> 174 ;
175 [label="mse = 0.0\nsamples = 3\nvalue = 0.49"] ;
171 -> 175 ;
176 [label="X[64] <= 0.5\nmse = 0.0003\nsamples = 16\nvalue = 0.4731"] ;
164 -> 176 ;
177 [label="X[62] <= 0.5\nmse = 0.0002\nsamples = 8\nvalue = 0.4838"] ;
176 -> 177 ;
178 [label="X[65] <= 0.5\nmse = 0.0001\nsamples = 3\nvalue = 0.5"] ;
177 -> 178 ;
179 [label="mse = 0.0\nsamples = 1\nvalue = 0.51"] ;
178 -> 179 ;
180 [label="X[293] <= 0.5\nmse = 0.0\nsamples = 2\nvalue = 0.495"] ;
178 -> 180 ;
181 [label="mse = 0.0\nsamples = 1\nvalue = 0.5"] ;
180 -> 181 ;
182 [label="mse = 0.0\nsamples = 1\nvalue = 0.49"] ;
180 -> 182 ;
183 [label="X[140] <= 0.5\nmse = 0.0\nsamples = 5\nvalue = 0.474"] ;
177 -> 183 ;
184 [label="mse = -0.0\nsamples = 3\nvalue = 0.47"] ;
183 -> 184 ;
185 [label="mse = 0.0\nsamples = 2\nvalue = 0.48"] ;
183 -> 185 ;
186 [label="X[273] <= 0.5\nmse = 0.0001\nsamples = 8\nvalue = 0.4625"] ;
176 -> 186 ;
187 [label="X[83] <= 0.5\nmse = 0.0\nsamples = 3\nvalue = 0.4733"] ;
186 -> 187 ;
188 [label="mse = 0.0\nsamples = 1\nvalue = 0.48"] ;
187 -> 188 ;
189 [label="mse = -0.0\nsamples = 2\nvalue = 0.47"] ;
187 -> 189 ;
190 [label="X[333] <= 0.5\nmse = 0.0\nsamples = 5\nvalue = 0.456"] ;
186 -> 190 ;
191 [label="mse = 0.0\nsamples = 2\nvalue = 0.45"] ;
190 -> 191 ;
192 [label="mse = -0.0\nsamples = 3\nvalue = 0.46"] ;
190 -> 192 ;
193 [label="X[250] <= 0.5\nmse = 0.0008\nsamples = 66\nvalue = 0.4873"] ;
125 -> 193 ;
194 [label="X[98] <= 0.5\nmse = 0.0007\nsamples = 40\nvalue = 0.4793"] ;
193 -> 194 ;
195 [label="X[373] <= 0.5\nmse = 0.0004\nsamples = 12\nvalue = 0.4617"] ;
194 -> 195 ;
196 [label="X[78] <= 0.5\nmse = 0.0002\nsamples = 8\nvalue = 0.4738"] ;
195 -> 196 ;
197 [label="X[130] <= 0.5\nmse = 0.0\nsamples = 4\nvalue = 0.485"] ;
196 -> 197 ;
198 [label="mse = 0.0\nsamples = 2\nvalue = 0.49"] ;
197 -> 198 ;
199 [label="mse = -0.0\nsamples = 2\nvalue = 0.48"] ;
197 -> 199 ;
200 [label="X[220] <= 0.5\nmse = 0.0001\nsamples = 4\nvalue = 0.4625"] ;
196 -> 200 ;
201 [label="mse = 0.0\nsamples = 2\nvalue = 0.47"] ;
200 -> 201 ;
202 [label="X[356] <= 0.5\nmse = 0.0\nsamples = 2\nvalue = 0.455"] ;
200 -> 202 ;
203 [label="mse = 0.0\nsamples = 1\nvalue = 0.46"] ;
202 -> 203 ;
204 [label="mse = 0.0\nsamples = 1\nvalue = 0.45"] ;
202 -> 204 ;
205 [label="X[314] <= 0.5\nmse = 0.0001\nsamples = 4\nvalue = 0.4375"] ;
195 -> 205 ;
206 [label="mse = 0.0\nsamples = 1\nvalue = 0.42"] ;
205 -> 206 ;
207 [label="X[99] <= 0.5\nmse = 0.0\nsamples = 3\nvalue = 0.4433"] ;
205 -> 207 ;
208 [label="mse = 0.0\nsamples = 1\nvalue = 0.45"] ;
207 -> 208 ;
209 [label="mse = -0.0\nsamples = 2\nvalue = 0.44"] ;
207 -> 209 ;
210 [label="X[29] <= 0.5\nmse = 0.0006\nsamples = 28\nvalue = 0.4868"] ;
194 -> 210 ;
211 [label="X[53] <= 0.5\nmse = 0.0003\nsamples = 18\nvalue = 0.4972"] ;
210 -> 211 ;
212 [label="X[67] <= 0.5\nmse = 0.0001\nsamples = 9\nvalue = 0.4867"] ;
211 -> 212 ;
213 [label="X[330] <= 0.5\nmse = 0.0\nsamples = 2\nvalue = 0.505"] ;
212 -> 213 ;
214 [label="mse = 0.0\nsamples = 1\nvalue = 0.5"] ;
213 -> 214 ;
215 [label="mse = 0.0\nsamples = 1\nvalue = 0.51"] ;
213 -> 215 ;
216 [label="X[38] <= 0.5\nmse = 0.0\nsamples = 7\nvalue = 0.4814"] ;
212 -> 216 ;
217 [label="X[304] <= 0.5\nmse = 0.0\nsamples = 5\nvalue = 0.478"] ;
216 -> 217 ;
218 [label="mse = 0.0\nsamples = 4\nvalue = 0.48"] ;
217 -> 218 ;
219 [label="mse = -0.0\nsamples = 1\nvalue = 0.47"] ;
217 -> 219 ;
220 [label="mse = -0.0\nsamples = 2\nvalue = 0.49"] ;
216 -> 220 ;
221 [label="X[149] <= 0.5\nmse = 0.0003\nsamples = 9\nvalue = 0.5078"] ;
211 -> 221 ;
222 [label="X[48] <= 0.5\nmse = 0.0001\nsamples = 6\nvalue = 0.5183"] ;
221 -> 222 ;
223 [label="X[37] <= 0.5\nmse = 0.0\nsamples = 3\nvalue = 0.5267"] ;
222 -> 223 ;
224 [label="mse = 0.0\nsamples = 2\nvalue = 0.53"] ;
223 -> 224 ;
225 [label="mse = 0.0\nsamples = 1\nvalue = 0.52"] ;
223 -> 225 ;
226 [label="mse = 0.0\nsamples = 3\nvalue = 0.51"] ;
222 -> 226 ;
227 [label="X[121] <= 0.5\nmse = 0.0\nsamples = 3\nvalue = 0.4867"] ;
221 -> 227 ;
228 [label="mse = 0.0\nsamples = 2\nvalue = 0.49"] ;
227 -> 228 ;
229 [label="mse = -0.0\nsamples = 1\nvalue = 0.48"] ;
227 -> 229 ;
230 [label="X[57] <= 0.5\nmse = 0.0006\nsamples = 10\nvalue = 0.468"] ;
210 -> 230 ;
231 [label="X[54] <= 0.5\nmse = 0.0\nsamples = 2\nvalue = 0.425"] ;
230 -> 231 ;
232 [label="mse = 0.0\nsamples = 1\nvalue = 0.42"] ;
231 -> 232 ;
233 [label="mse = 0.0\nsamples = 1\nvalue = 0.43"] ;
231 -> 233 ;
234 [label="X[305] <= 0.5\nmse = 0.0002\nsamples = 8\nvalue = 0.4788"] ;
230 -> 234 ;
235 [label="X[109] <= 0.5\nmse = 0.0\nsamples = 3\nvalue = 0.4933"] ;
234 -> 235 ;
236 [label="mse = 0.0\nsamples = 1\nvalue = 0.5"] ;
235 -> 236 ;
237 [label="mse = 0.0\nsamples = 2\nvalue = 0.49"] ;
235 -> 237 ;
238 [label="X[55] <= 0.5\nmse = 0.0\nsamples = 5\nvalue = 0.47"] ;
234 -> 238 ;
239 [label="X[192] <= 0.5\nmse = 0.0\nsamples = 4\nvalue = 0.4675"] ;
238 -> 239 ;
240 [label="mse = 0.0\nsamples = 1\nvalue = 0.46"] ;
239 -> 240 ;
241 [label="mse = 0.0\nsamples = 3\nvalue = 0.47"] ;
239 -> 241 ;
242 [label="mse = 0.0\nsamples = 1\nvalue = 0.48"] ;
238 -> 242 ;
243 [label="X[21] <= 0.5\nmse = 0.0006\nsamples = 26\nvalue = 0.4996"] ;
193 -> 243 ;
244 [label="X[8] <= 0.5\nmse = 0.0005\nsamples = 13\nvalue = 0.4869"] ;
243 -> 244 ;
245 [label="X[266] <= 0.5\nmse = 0.0003\nsamples = 3\nvalue = 0.4533"] ;
244 -> 245 ;
246 [label="mse = 0.0\nsamples = 1\nvalue = 0.43"] ;
245 -> 246 ;
247 [label="X[358] <= 0.5\nmse = 0.0\nsamples = 2\nvalue = 0.465"] ;
245 -> 247 ;
248 [label="mse = 0.0\nsamples = 1\nvalue = 0.46"] ;
247 -> 248 ;
249 [label="mse = 0.0\nsamples = 1\nvalue = 0.47"] ;
247 -> 249 ;
250 [label="X[147] <= 0.5\nmse = 0.0001\nsamples = 10\nvalue = 0.497"] ;
244 -> 250 ;
251 [label="X[109] <= 0.5\nmse = 0.0\nsamples = 4\nvalue = 0.49"] ;
250 -> 251 ;
252 [label="X[349] <= 0.5\nmse = 0.0\nsamples = 3\nvalue = 0.4933"] ;
251 -> 252 ;
253 [label="mse = 0.0\nsamples = 1\nvalue = 0.5"] ;
252 -> 253 ;
254 [label="mse = 0.0\nsamples = 2\nvalue = 0.49"] ;
252 -> 254 ;
255 [label="mse = -0.0\nsamples = 1\nvalue = 0.48"] ;
251 -> 255 ;
256 [label="X[209] <= 0.5\nmse = 0.0\nsamples = 6\nvalue = 0.5017"] ;
250 -> 256 ;
257 [label="mse = 0.0\nsamples = 1\nvalue = 0.51"] ;
256 -> 257 ;
258 [label="mse = 0.0\nsamples = 5\nvalue = 0.5"] ;
256 -> 258 ;
259 [label="X[167] <= 0.5\nmse = 0.0004\nsamples = 13\nvalue = 0.5123"] ;
243 -> 259 ;
260 [label="X[163] <= 0.5\nmse = 0.0004\nsamples = 2\nvalue = 0.48"] ;
259 -> 260 ;
261 [label="mse = 0.0\nsamples = 1\nvalue = 0.46"] ;
260 -> 261 ;
262 [label="mse = 0.0\nsamples = 1\nvalue = 0.5"] ;
260 -> 262 ;
263 [label="X[328] <= 0.5\nmse = 0.0002\nsamples = 11\nvalue = 0.5182"] ;
259 -> 263 ;
264 [label="X[166] <= 0.5\nmse = 0.0\nsamples = 3\nvalue = 0.5367"] ;
263 -> 264 ;
265 [label="mse = 0.0\nsamples = 1\nvalue = 0.53"] ;
264 -> 265 ;
266 [label="mse = 0.0\nsamples = 2\nvalue = 0.54"] ;
264 -> 266 ;
267 [label="X[129] <= 0.5\nmse = 0.0001\nsamples = 8\nvalue = 0.5112"] ;
263 -> 267 ;
268 [label="X[34] <= 0.5\nmse = 0.0\nsamples = 7\nvalue = 0.5086"] ;
267 -> 268 ;
269 [label="X[27] <= 0.5\nmse = 0.0\nsamples = 5\nvalue = 0.512"] ;
268 -> 269 ;
270 [label="mse = 0.0\nsamples = 4\nvalue = 0.51"] ;
269 -> 270 ;
271 [label="mse = -0.0\nsamples = 1\nvalue = 0.52"] ;
269 -> 271 ;
272 [label="mse = 0.0\nsamples = 2\nvalue = 0.5"] ;
268 -> 272 ;
273 [label="mse = -0.0\nsamples = 1\nvalue = 0.53"] ;
267 -> 273 ;
274 [label="X[33] <= 0.5\nmse = 0.0007\nsamples = 263\nvalue = 0.4859"] ;
0 -> 274 [labeldistance=2.5, labelangle=-45, headlabel="False"] ;
275 [label="X[364] <= 0.5\nmse = 0.0008\nsamples = 126\nvalue = 0.4804"] ;
274 -> 275 ;
276 [label="X[232] <= 0.5\nmse = 0.0007\nsamples = 59\nvalue = 0.4719"] ;
275 -> 276 ;
277 [label="X[343] <= 0.5\nmse = 0.0006\nsamples = 22\nvalue = 0.4559"] ;
276 -> 277 ;
278 [label="X[327] <= 0.5\nmse = 0.0001\nsamples = 8\nvalue = 0.4362"] ;
277 -> 278 ;
279 [label="X[145] <= 0.5\nmse = 0.0\nsamples = 7\nvalue = 0.44"] ;
278 -> 279 ;
280 [label="X[176] <= 0.5\nmse = 0.0\nsamples = 6\nvalue = 0.4417"] ;
279 -> 280 ;
281 [label="mse = -0.0\nsamples = 5\nvalue = 0.44"] ;
280 -> 281 ;
282 [label="mse = -0.0\nsamples = 1\nvalue = 0.45"] ;
280 -> 282 ;
283 [label="mse = -0.0\nsamples = 1\nvalue = 0.43"] ;
279 -> 283 ;
284 [label="mse = 0.0\nsamples = 1\nvalue = 0.41"] ;
278 -> 284 ;
285 [label="X[383] <= 0.5\nmse = 0.0004\nsamples = 14\nvalue = 0.4671"] ;
277 -> 285 ;
286 [label="X[138] <= 0.5\nmse = 0.0003\nsamples = 8\nvalue = 0.4538"] ;
285 -> 286 ;
287 [label="X[89] <= 0.5\nmse = 0.0001\nsamples = 5\nvalue = 0.442"] ;
286 -> 287 ;
288 [label="mse = 0.0\nsamples = 1\nvalue = 0.42"] ;
287 -> 288 ;
289 [label="X[140] <= 0.5\nmse = 0.0\nsamples = 4\nvalue = 0.4475"] ;
287 -> 289 ;
290 [label="mse = 0.0\nsamples = 3\nvalue = 0.45"] ;
289 -> 290 ;
291 [label="mse = 0.0\nsamples = 1\nvalue = 0.44"] ;
289 -> 291 ;
292 [label="X[243] <= 0.5\nmse = 0.0\nsamples = 3\nvalue = 0.4733"] ;
286 -> 292 ;
293 [label="mse = 0.0\nsamples = 1\nvalue = 0.48"] ;
292 -> 293 ;
294 [label="mse = -0.0\nsamples = 2\nvalue = 0.47"] ;
292 -> 294 ;
295 [label="X[138] <= 0.5\nmse = 0.0001\nsamples = 6\nvalue = 0.485"] ;
285 -> 295 ;
296 [label="X[197] <= 0.5\nmse = 0.0\nsamples = 2\nvalue = 0.495"] ;
295 -> 296 ;
297 [label="mse = 0.0\nsamples = 1\nvalue = 0.5"] ;
296 -> 297 ;
298 [label="mse = 0.0\nsamples = 1\nvalue = 0.49"] ;
296 -> 298 ;
299 [label="mse = 0.0\nsamples = 4\nvalue = 0.48"] ;
295 -> 299 ;
300 [label="X[226] <= 0.5\nmse = 0.0005\nsamples = 37\nvalue = 0.4814"] ;
276 -> 300 ;
301 [label="X[242] <= 0.5\nmse = 0.0006\nsamples = 17\nvalue = 0.4694"] ;
300 -> 301 ;
302 [label="X[220] <= 0.5\nmse = 0.0003\nsamples = 12\nvalue = 0.48"] ;
301 -> 302 ;
303 [label="X[342] <= 0.5\nmse = 0.0002\nsamples = 8\nvalue = 0.4712"] ;
302 -> 303 ;
304 [label="mse = 0.0\nsamples = 1\nvalue = 0.44"] ;
303 -> 304 ;
305 [label="X[199] <= 0.5\nmse = 0.0\nsamples = 7\nvalue = 0.4757"] ;
303 -> 305 ;
306 [label="mse = 0.0\nsamples = 3\nvalue = 0.47"] ;
305 -> 306 ;
307 [label="mse = -0.0\nsamples = 4\nvalue = 0.48"] ;
305 -> 307 ;
308 [label="X[304] <= 0.5\nmse = 0.0002\nsamples = 4\nvalue = 0.4975"] ;
302 -> 308 ;
309 [label="mse = 0.0\nsamples = 1\nvalue = 0.52"] ;
308 -> 309 ;
310 [label="X[80] <= 0.5\nmse = 0.0001\nsamples = 3\nvalue = 0.49"] ;
308 -> 310 ;
311 [label="mse = 0.0\nsamples = 1\nvalue = 0.5"] ;
310 -> 311 ;
312 [label="X[24] <= 0.5\nmse = 0.0\nsamples = 2\nvalue = 0.485"] ;
310 -> 312 ;
313 [label="mse = 0.0\nsamples = 1\nvalue = 0.49"] ;
312 -> 313 ;
314 [label="mse = 0.0\nsamples = 1\nvalue = 0.48"] ;
312 -> 314 ;
315 [label="X[14] <= 0.5\nmse = 0.0003\nsamples = 5\nvalue = 0.444"] ;
301 -> 315 ;
316 [label="X[299] <= 0.5\nmse = 0.0\nsamples = 3\nvalue = 0.4567"] ;
315 -> 316 ;
317 [label="mse = -0.0\nsamples = 2\nvalue = 0.46"] ;
316 -> 317 ;
318 [label="mse = 0.0\nsamples = 1\nvalue = 0.45"] ;
316 -> 318 ;
319 [label="X[84] <= 0.5\nmse = 0.0\nsamples = 2\nvalue = 0.425"] ;
315 -> 319 ;
320 [label="mse = 0.0\nsamples = 1\nvalue = 0.43"] ;
319 -> 320 ;
321 [label="mse = 0.0\nsamples = 1\nvalue = 0.42"] ;
319 -> 321 ;
322 [label="X[335] <= 0.5\nmse = 0.0003\nsamples = 20\nvalue = 0.4915"] ;
300 -> 322 ;
323 [label="X[363] <= 0.5\nmse = 0.0001\nsamples = 8\nvalue = 0.5037"] ;
322 -> 323 ;
324 [label="X[372] <= 0.5\nmse = 0.0\nsamples = 3\nvalue = 0.4933"] ;
323 -> 324 ;
325 [label="mse = 0.0\nsamples = 1\nvalue = 0.5"] ;
324 -> 325 ;
326 [label="mse = 0.0\nsamples = 2\nvalue = 0.49"] ;
324 -> 326 ;
327 [label="mse = 0.0\nsamples = 5\nvalue = 0.51"] ;
323 -> 327 ;
328 [label="X[304] <= 0.5\nmse = 0.0002\nsamples = 12\nvalue = 0.4833"] ;
322 -> 328 ;
329 [label="X[24] <= 0.5\nmse = 0.0001\nsamples = 9\nvalue = 0.49"] ;
328 -> 329 ;
330 [label="X[229] <= 0.5\nmse = 0.0\nsamples = 2\nvalue = 0.505"] ;
329 -> 330 ;
331 [label="mse = 0.0\nsamples = 1\nvalue = 0.51"] ;
330 -> 331 ;
332 [label="mse = 0.0\nsamples = 1\nvalue = 0.5"] ;
330 -> 332 ;
333 [label="X[379] <= 0.5\nmse = 0.0\nsamples = 7\nvalue = 0.4857"] ;
329 -> 333 ;
334 [label="mse = 0.0\nsamples = 4\nvalue = 0.49"] ;
333 -> 334 ;
335 [label="mse = -0.0\nsamples = 3\nvalue = 0.48"] ;
333 -> 335 ;
336 [label="X[298] <= 0.5\nmse = 0.0\nsamples = 3\nvalue = 0.4633"] ;
328 -> 336 ;
337 [label="mse = 0.0\nsamples = 1\nvalue = 0.47"] ;
336 -> 337 ;
338 [label="mse = 0.0\nsamples = 2\nvalue = 0.46"] ;
336 -> 338 ;
339 [label="X[50] <= 0.5\nmse = 0.0007\nsamples = 67\nvalue = 0.4879"] ;
275 -> 339 ;
340 [label="X[138] <= 0.5\nmse = 0.0005\nsamples = 32\nvalue = 0.4762"] ;
339 -> 340 ;
341 [label="X[96] <= 0.5\nmse = 0.0002\nsamples = 18\nvalue = 0.4639"] ;
340 -> 341 ;
342 [label="X[216] <= 0.5\nmse = 0.0002\nsamples = 13\nvalue = 0.4577"] ;
341 -> 342 ;
343 [label="X[76] <= 0.5\nmse = 0.0001\nsamples = 9\nvalue = 0.4633"] ;
342 -> 343 ;
344 [label="X[32] <= 0.5\nmse = 0.0\nsamples = 6\nvalue = 0.4567"] ;
343 -> 344 ;
345 [label="mse = 0.0\nsamples = 4\nvalue = 0.46"] ;
344 -> 345 ;
346 [label="mse = -0.0\nsamples = 2\nvalue = 0.45"] ;
344 -> 346 ;
347 [label="X[162] <= 0.5\nmse = 0.0\nsamples = 3\nvalue = 0.4767"] ;
343 -> 347 ;
348 [label="mse = 0.0\nsamples = 1\nvalue = 0.47"] ;
347 -> 348 ;
349 [label="mse = 0.0\nsamples = 2\nvalue = 0.48"] ;
347 -> 349 ;
350 [label="X[18] <= 0.5\nmse = 0.0\nsamples = 4\nvalue = 0.445"] ;
342 -> 350 ;
351 [label="mse = 0.0\nsamples = 2\nvalue = 0.44"] ;
350 -> 351 ;
352 [label="mse = 0.0\nsamples = 2\nvalue = 0.45"] ;
350 -> 352 ;
353 [label="X[41] <= 0.5\nmse = 0.0\nsamples = 5\nvalue = 0.48"] ;
341 -> 353 ;
354 [label="mse = 0.0\nsamples = 1\nvalue = 0.49"] ;
353 -> 354 ;
355 [label="X[187] <= 0.5\nmse = 0.0\nsamples = 4\nvalue = 0.4775"] ;
353 -> 355 ;
356 [label="mse = 0.0\nsamples = 1\nvalue = 0.47"] ;
355 -> 356 ;
357 [label="mse = 0.0\nsamples = 3\nvalue = 0.48"] ;
355 -> 357 ;
358 [label="X[37] <= 0.5\nmse = 0.0005\nsamples = 14\nvalue = 0.4921"] ;
340 -> 358 ;
359 [label="X[333] <= 0.5\nmse = 0.0002\nsamples = 8\nvalue = 0.4775"] ;
358 -> 359 ;
360 [label="X[112] <= 0.5\nmse = 0.0001\nsamples = 5\nvalue = 0.488"] ;
359 -> 360 ;
361 [label="mse = 0.0\nsamples = 2\nvalue = 0.48"] ;
360 -> 361 ;
362 [label="X[215] <= 0.5\nmse = 0.0\nsamples = 3\nvalue = 0.4933"] ;
360 -> 362 ;
363 [label="mse = 0.0\nsamples = 1\nvalue = 0.5"] ;
362 -> 363 ;
364 [label="mse = 0.0\nsamples = 2\nvalue = 0.49"] ;
362 -> 364 ;
365 [label="X[196] <= 0.5\nmse = 0.0001\nsamples = 3\nvalue = 0.46"] ;
359 -> 365 ;
366 [label="mse = 0.0\nsamples = 1\nvalue = 0.45"] ;
365 -> 366 ;
367 [label="X[330] <= 0.5\nmse = 0.0\nsamples = 2\nvalue = 0.465"] ;
365 -> 367 ;
368 [label="mse = 0.0\nsamples = 1\nvalue = 0.47"] ;
367 -> 368 ;
369 [label="mse = 0.0\nsamples = 1\nvalue = 0.46"] ;
367 -> 369 ;
370 [label="X[68] <= 0.5\nmse = 0.0001\nsamples = 6\nvalue = 0.5117"] ;
358 -> 370 ;
371 [label="X[313] <= 0.5\nmse = 0.0\nsamples = 3\nvalue = 0.5233"] ;
370 -> 371 ;
372 [label="mse = 0.0\nsamples = 2\nvalue = 0.52"] ;
371 -> 372 ;
373 [label="mse = 0.0\nsamples = 1\nvalue = 0.53"] ;
371 -> 373 ;
374 [label="mse = -0.0\nsamples = 3\nvalue = 0.5"] ;
370 -> 374 ;
375 [label="X[151] <= 0.5\nmse = 0.0006\nsamples = 35\nvalue = 0.4986"] ;
339 -> 375 ;
376 [label="X[343] <= 0.5\nmse = 0.0005\nsamples = 20\nvalue = 0.5085"] ;
375 -> 376 ;
377 [label="X[332] <= 0.5\nmse = 0.0002\nsamples = 5\nvalue = 0.534"] ;
376 -> 377 ;
378 [label="X[14] <= 0.5\nmse = 0.0\nsamples = 3\nvalue = 0.5233"] ;
377 -> 378 ;
379 [label="mse = 0.0\nsamples = 1\nvalue = 0.53"] ;
378 -> 379 ;
380 [label="mse = 0.0\nsamples = 2\nvalue = 0.52"] ;
378 -> 380 ;
381 [label="mse = 0.0\nsamples = 2\nvalue = 0.55"] ;
377 -> 381 ;
382 [label="X[332] <= 0.5\nmse = 0.0004\nsamples = 15\nvalue = 0.5"] ;
376 -> 382 ;
383 [label="X[315] <= 0.5\nmse = 0.0002\nsamples = 7\nvalue = 0.4857"] ;
382 -> 383 ;
384 [label="mse = 0.0\nsamples = 3\nvalue = 0.47"] ;
383 -> 384 ;
385 [label="X[146] <= 0.5\nmse = 0.0001\nsamples = 4\nvalue = 0.4975"] ;
383 -> 385 ;
386 [label="X[265] <= 0.5\nmse = 0.0\nsamples = 2\nvalue = 0.505"] ;
385 -> 386 ;
387 [label="mse = 0.0\nsamples = 1\nvalue = 0.5"] ;
386 -> 387 ;
388 [label="mse = 0.0\nsamples = 1\nvalue = 0.51"] ;
386 -> 388 ;
389 [label="mse = 0.0\nsamples = 2\nvalue = 0.49"] ;
385 -> 389 ;
390 [label="X[64] <= 0.5\nmse = 0.0001\nsamples = 8\nvalue = 0.5125"] ;
382 -> 390 ;
391 [label="X[369] <= 0.5\nmse = 0.0\nsamples = 5\nvalue = 0.504"] ;
390 -> 391 ;
392 [label="mse = 0.0\nsamples = 2\nvalue = 0.51"] ;
391 -> 392 ;
393 [label="mse = 0.0\nsamples = 3\nvalue = 0.5"] ;
391 -> 393 ;
394 [label="X[321] <= 0.5\nmse = 0.0\nsamples = 3\nvalue = 0.5267"] ;
390 -> 394 ;
395 [label="mse = 0.0\nsamples = 1\nvalue = 0.52"] ;
394 -> 395 ;
396 [label="mse = 0.0\nsamples = 2\nvalue = 0.53"] ;
394 -> 396 ;
397 [label="X[145] <= 0.5\nmse = 0.0004\nsamples = 15\nvalue = 0.4853"] ;
375 -> 397 ;
398 [label="X[299] <= 0.5\nmse = 0.0001\nsamples = 8\nvalue = 0.4712"] ;
397 -> 398 ;
399 [label="X[78] <= 0.5\nmse = 0.0\nsamples = 2\nvalue = 0.455"] ;
398 -> 399 ;
400 [label="mse = 0.0\nsamples = 1\nvalue = 0.45"] ;
399 -> 400 ;
401 [label="mse = 0.0\nsamples = 1\nvalue = 0.46"] ;
399 -> 401 ;
402 [label="X[210] <= 0.5\nmse = 0.0001\nsamples = 6\nvalue = 0.4767"] ;
398 -> 402 ;
403 [label="mse = 0.0\nsamples = 3\nvalue = 0.47"] ;
402 -> 403 ;
404 [label="X[213] <= 0.5\nmse = 0.0\nsamples = 3\nvalue = 0.4833"] ;
402 -> 404 ;
405 [label="mse = 0.0\nsamples = 1\nvalue = 0.49"] ;
404 -> 405 ;
406 [label="mse = 0.0\nsamples = 2\nvalue = 0.48"] ;
404 -> 406 ;
407 [label="X[378] <= 0.5\nmse = 0.0002\nsamples = 7\nvalue = 0.5014"] ;
397 -> 407 ;
408 [label="X[213] <= 0.5\nmse = 0.0\nsamples = 3\nvalue = 0.5167"] ;
407 -> 408 ;
409 [label="mse = 0.0\nsamples = 2\nvalue = 0.52"] ;
408 -> 409 ;
410 [label="mse = -0.0\nsamples = 1\nvalue = 0.51"] ;
408 -> 410 ;
411 [label="X[316] <= 0.5\nmse = 0.0001\nsamples = 4\nvalue = 0.49"] ;
407 -> 411 ;
412 [label="X[253] <= 0.5\nmse = 0.0\nsamples = 3\nvalue = 0.4867"] ;
411 -> 412 ;
413 [label="mse = 0.0\nsamples = 1\nvalue = 0.48"] ;
412 -> 413 ;
414 [label="mse = -0.0\nsamples = 2\nvalue = 0.49"] ;
412 -> 414 ;
415 [label="mse = 0.0\nsamples = 1\nvalue = 0.5"] ;
411 -> 415 ;
416 [label="X[94] <= 0.5\nmse = 0.0005\nsamples = 137\nvalue = 0.491"] ;
274 -> 416 ;
417 [label="X[78] <= 0.5\nmse = 0.0004\nsamples = 63\nvalue = 0.4843"] ;
416 -> 417 ;
418 [label="X[244] <= 0.5\nmse = 0.0004\nsamples = 34\nvalue = 0.4771"] ;
417 -> 418 ;
419 [label="X[299] <= 0.5\nmse = 0.0004\nsamples = 19\nvalue = 0.4684"] ;
418 -> 419 ;
420 [label="X[28] <= 0.5\nmse = 0.0002\nsamples = 6\nvalue = 0.4483"] ;
419 -> 420 ;
421 [label="X[115] <= 0.5\nmse = 0.0\nsamples = 4\nvalue = 0.44"] ;
420 -> 421 ;
422 [label="mse = 0.0\nsamples = 1\nvalue = 0.45"] ;
421 -> 422 ;
423 [label="X[177] <= 0.5\nmse = 0.0\nsamples = 3\nvalue = 0.4367"] ;
421 -> 423 ;
424 [label="mse = 0.0\nsamples = 1\nvalue = 0.43"] ;
423 -> 424 ;
425 [label="mse = -0.0\nsamples = 2\nvalue = 0.44"] ;
423 -> 425 ;
426 [label="X[242] <= 0.5\nmse = 0.0\nsamples = 2\nvalue = 0.465"] ;
420 -> 426 ;
427 [label="mse = 0.0\nsamples = 1\nvalue = 0.46"] ;
426 -> 427 ;
428 [label="mse = 0.0\nsamples = 1\nvalue = 0.47"] ;
426 -> 428 ;
429 [label="X[197] <= 0.5\nmse = 0.0002\nsamples = 13\nvalue = 0.4777"] ;
419 -> 429 ;
430 [label="X[263] <= 0.5\nmse = 0.0001\nsamples = 8\nvalue = 0.485"] ;
429 -> 430 ;
431 [label="X[152] <= 0.5\nmse = 0.0\nsamples = 5\nvalue = 0.492"] ;
430 -> 431 ;
432 [label="mse = 0.0\nsamples = 1\nvalue = 0.5"] ;
431 -> 432 ;
433 [label="mse = 0.0\nsamples = 4\nvalue = 0.49"] ;
431 -> 433 ;
434 [label="X[375] <= 0.5\nmse = 0.0\nsamples = 3\nvalue = 0.4733"] ;
430 -> 434 ;
435 [label="mse = 0.0\nsamples = 2\nvalue = 0.47"] ;
434 -> 435 ;
436 [label="mse = -0.0\nsamples = 1\nvalue = 0.48"] ;
434 -> 436 ;
437 [label="X[347] <= 0.5\nmse = 0.0\nsamples = 5\nvalue = 0.466"] ;
429 -> 437 ;
438 [label="mse = -0.0\nsamples = 3\nvalue = 0.47"] ;
437 -> 438 ;
439 [label="mse = 0.0\nsamples = 2\nvalue = 0.46"] ;
437 -> 439 ;
440 [label="X[11] <= 0.5\nmse = 0.0002\nsamples = 15\nvalue = 0.488"] ;
418 -> 440 ;
441 [label="X[177] <= 0.5\nmse = 0.0001\nsamples = 8\nvalue = 0.4962"] ;
440 -> 441 ;
442 [label="X[120] <= 0.5\nmse = 0.0\nsamples = 4\nvalue = 0.4875"] ;
441 -> 442 ;
443 [label="mse = 0.0\nsamples = 3\nvalue = 0.49"] ;
442 -> 443 ;
444 [label="mse = -0.0\nsamples = 1\nvalue = 0.48"] ;
442 -> 444 ;
445 [label="X[72] <= 0.5\nmse = 0.0\nsamples = 4\nvalue = 0.505"] ;
441 -> 445 ;
446 [label="mse = 0.0\nsamples = 2\nvalue = 0.51"] ;
445 -> 446 ;
447 [label="mse = 0.0\nsamples = 2\nvalue = 0.5"] ;
445 -> 447 ;
448 [label="X[148] <= 0.5\nmse = 0.0001\nsamples = 7\nvalue = 0.4786"] ;
440 -> 448 ;
449 [label="X[360] <= 0.5\nmse = 0.0\nsamples = 6\nvalue = 0.475"] ;
448 -> 449 ;
450 [label="mse = 0.0\nsamples = 3\nvalue = 0.47"] ;
449 -> 450 ;
451 [label="mse = -0.0\nsamples = 3\nvalue = 0.48"] ;
449 -> 451 ;
452 [label="mse = 0.0\nsamples = 1\nvalue = 0.5"] ;
448 -> 452 ;
453 [label="X[77] <= 0.5\nmse = 0.0004\nsamples = 29\nvalue = 0.4928"] ;
417 -> 453 ;
454 [label="X[12] <= 0.5\nmse = 0.0002\nsamples = 15\nvalue = 0.482"] ;
453 -> 454 ;
455 [label="X[45] <= 0.5\nmse = 0.0001\nsamples = 8\nvalue = 0.4925"] ;
454 -> 455 ;
456 [label="mse = 0.0\nsamples = 1\nvalue = 0.51"] ;
455 -> 456 ;
457 [label="X[266] <= 0.5\nmse = 0.0\nsamples = 7\nvalue = 0.49"] ;
455 -> 457 ;
458 [label="X[29] <= 0.5\nmse = 0.0\nsamples = 6\nvalue = 0.4917"] ;
457 -> 458 ;
459 [label="mse = 0.0\nsamples = 1\nvalue = 0.5"] ;
458 -> 459 ;
460 [label="mse = -0.0\nsamples = 5\nvalue = 0.49"] ;
458 -> 460 ;
461 [label="mse = -0.0\nsamples = 1\nvalue = 0.48"] ;
457 -> 461 ;
462 [label="X[230] <= 0.5\nmse = 0.0001\nsamples = 7\nvalue = 0.47"] ;
454 -> 462 ;
463 [label="X[86] <= 0.5\nmse = 0.0001\nsamples = 6\nvalue = 0.4733"] ;
462 -> 463 ;
464 [label="mse = 0.0\nsamples = 5\nvalue = 0.47"] ;
463 -> 464 ;
465 [label="mse = -0.0\nsamples = 1\nvalue = 0.49"] ;
463 -> 465 ;
466 [label="mse = -0.0\nsamples = 1\nvalue = 0.45"] ;
462 -> 466 ;
467 [label="X[333] <= 0.5\nmse = 0.0002\nsamples = 14\nvalue = 0.5043"] ;
453 -> 467 ;
468 [label="X[356] <= 0.5\nmse = 0.0004\nsamples = 2\nvalue = 0.53"] ;
467 -> 468 ;
469 [label="mse = 0.0\nsamples = 1\nvalue = 0.55"] ;
468 -> 469 ;
470 [label="mse = -0.0\nsamples = 1\nvalue = 0.51"] ;
468 -> 470 ;
471 [label="X[88] <= 0.5\nmse = 0.0001\nsamples = 12\nvalue = 0.5"] ;
467 -> 471 ;
472 [label="mse = 0.0\nsamples = 1\nvalue = 0.48"] ;
471 -> 472 ;
473 [label="X[328] <= 0.5\nmse = 0.0001\nsamples = 11\nvalue = 0.5018"] ;
471 -> 473 ;
474 [label="X[26] <= 0.5\nmse = 0.0\nsamples = 8\nvalue = 0.4988"] ;
473 -> 474 ;
475 [label="X[271] <= 0.5\nmse = 0.0\nsamples = 2\nvalue = 0.495"] ;
474 -> 475 ;
476 [label="mse = 0.0\nsamples = 1\nvalue = 0.49"] ;
475 -> 476 ;
477 [label="mse = 0.0\nsamples = 1\nvalue = 0.5"] ;
475 -> 477 ;
478 [label="mse = 0.0\nsamples = 6\nvalue = 0.5"] ;
474 -> 478 ;
479 [label="X[338] <= 0.5\nmse = 0.0001\nsamples = 3\nvalue = 0.51"] ;
473 -> 479 ;
480 [label="mse = 0.0\nsamples = 1\nvalue = 0.52"] ;
479 -> 480 ;
481 [label="X[52] <= 0.5\nmse = 0.0\nsamples = 2\nvalue = 0.505"] ;
479 -> 481 ;
482 [label="mse = 0.0\nsamples = 1\nvalue = 0.5"] ;
481 -> 482 ;
483 [label="mse = 0.0\nsamples = 1\nvalue = 0.51"] ;
481 -> 483 ;
484 [label="X[71] <= 0.5\nmse = 0.0005\nsamples = 74\nvalue = 0.4968"] ;
416 -> 484 ;
485 [label="X[316] <= 0.5\nmse = 0.0005\nsamples = 39\nvalue = 0.4882"] ;
484 -> 485 ;
486 [label="X[102] <= 0.5\nmse = 0.0006\nsamples = 17\nvalue = 0.4753"] ;
485 -> 486 ;
487 [label="X[218] <= 0.5\nmse = 0.0004\nsamples = 7\nvalue = 0.4529"] ;
486 -> 487 ;
488 [label="X[39] <= 0.5\nmse = 0.0001\nsamples = 6\nvalue = 0.46"] ;
487 -> 488 ;
489 [label="mse = 0.0\nsamples = 2\nvalue = 0.47"] ;
488 -> 489 ;
490 [label="X[320] <= 0.5\nmse = 0.0\nsamples = 4\nvalue = 0.455"] ;
488 -> 490 ;
491 [label="mse = 0.0\nsamples = 2\nvalue = 0.46"] ;
490 -> 491 ;
492 [label="mse = 0.0\nsamples = 2\nvalue = 0.45"] ;
490 -> 492 ;
493 [label="mse = -0.0\nsamples = 1\nvalue = 0.41"] ;
487 -> 493 ;
494 [label="X[120] <= 0.5\nmse = 0.0002\nsamples = 10\nvalue = 0.491"] ;
486 -> 494 ;
495 [label="X[44] <= 0.5\nmse = 0.0\nsamples = 6\nvalue = 0.5"] ;
494 -> 495 ;
496 [label="mse = 0.0\nsamples = 1\nvalue = 0.51"] ;
495 -> 496 ;
497 [label="X[303] <= 0.5\nmse = 0.0\nsamples = 5\nvalue = 0.498"] ;
495 -> 497 ;
498 [label="mse = 0.0\nsamples = 4\nvalue = 0.5"] ;
497 -> 498 ;
499 [label="mse = -0.0\nsamples = 1\nvalue = 0.49"] ;
497 -> 499 ;
500 [label="X[64] <= 0.5\nmse = 0.0001\nsamples = 4\nvalue = 0.4775"] ;
494 -> 500 ;
501 [label="X[300] <= 0.5\nmse = 0.0\nsamples = 2\nvalue = 0.485"] ;
500 -> 501 ;
502 [label="mse = 0.0\nsamples = 1\nvalue = 0.48"] ;
501 -> 502 ;
503 [label="mse = 0.0\nsamples = 1\nvalue = 0.49"] ;
501 -> 503 ;
504 [label="mse = 0.0\nsamples = 2\nvalue = 0.47"] ;
500 -> 504 ;
505 [label="X[133] <= 0.5\nmse = 0.0002\nsamples = 22\nvalue = 0.4982"] ;
485 -> 505 ;
506 [label="X[53] <= 0.5\nmse = 0.0002\nsamples = 14\nvalue = 0.5043"] ;
505 -> 506 ;
507 [label="X[186] <= 0.5\nmse = 0.0001\nsamples = 8\nvalue = 0.4962"] ;
506 -> 507 ;
508 [label="X[7] <= 0.5\nmse = 0.0\nsamples = 7\nvalue = 0.4929"] ;
507 -> 508 ;
509 [label="mse = -0.0\nsamples = 5\nvalue = 0.49"] ;
508 -> 509 ;
510 [label="mse = 0.0\nsamples = 2\nvalue = 0.5"] ;
508 -> 510 ;
511 [label="mse = -0.0\nsamples = 1\nvalue = 0.52"] ;
507 -> 511 ;
512 [label="X[311] <= 0.5\nmse = 0.0\nsamples = 6\nvalue = 0.515"] ;
506 -> 512 ;
513 [label="mse = 0.0\nsamples = 3\nvalue = 0.51"] ;
512 -> 513 ;
514 [label="mse = -0.0\nsamples = 3\nvalue = 0.52"] ;
512 -> 514 ;
515 [label="X[311] <= 0.5\nmse = 0.0001\nsamples = 8\nvalue = 0.4875"] ;
505 -> 515 ;
516 [label="X[266] <= 0.5\nmse = 0.0\nsamples = 5\nvalue = 0.494"] ;
515 -> 516 ;
517 [label="mse = 0.0\nsamples = 3\nvalue = 0.49"] ;
516 -> 517 ;
518 [label="mse = 0.0\nsamples = 2\nvalue = 0.5"] ;
516 -> 518 ;
519 [label="X[318] <= 0.5\nmse = 0.0\nsamples = 3\nvalue = 0.4767"] ;
515 -> 519 ;
520 [label="mse = 0.0\nsamples = 2\nvalue = 0.48"] ;
519 -> 520 ;
521 [label="mse = 0.0\nsamples = 1\nvalue = 0.47"] ;
519 -> 521 ;
522 [label="X[330] <= 0.5\nmse = 0.0004\nsamples = 35\nvalue = 0.5063"] ;
484 -> 522 ;
523 [label="X[127] <= 0.5\nmse = 0.0003\nsamples = 18\nvalue = 0.4967"] ;
522 -> 523 ;
524 [label="X[244] <= 0.5\nmse = 0.0002\nsamples = 10\nvalue = 0.487"] ;
523 -> 524 ;
525 [label="X[259] <= 0.5\nmse = 0.0001\nsamples = 4\nvalue = 0.475"] ;
524 -> 525 ;
526 [label="mse = 0.0\nsamples = 3\nvalue = 0.47"] ;
525 -> 526 ;
527 [label="mse = 0.0\nsamples = 1\nvalue = 0.49"] ;
525 -> 527 ;
528 [label="X[10] <= 0.5\nmse = 0.0001\nsamples = 6\nvalue = 0.495"] ;
524 -> 528 ;
529 [label="mse = 0.0\nsamples = 4\nvalue = 0.49"] ;
528 -> 529 ;
530 [label="X[204] <= 0.5\nmse = 0.0\nsamples = 2\nvalue = 0.505"] ;
528 -> 530 ;
531 [label="mse = 0.0\nsamples = 1\nvalue = 0.5"] ;
530 -> 531 ;
532 [label="mse = 0.0\nsamples = 1\nvalue = 0.51"] ;
530 -> 532 ;
533 [label="X[346] <= 0.5\nmse = 0.0001\nsamples = 8\nvalue = 0.5088"] ;
523 -> 533 ;
534 [label="mse = 0.0\nsamples = 4\nvalue = 0.52"] ;
533 -> 534 ;
535 [label="X[148] <= 0.5\nmse = 0.0\nsamples = 4\nvalue = 0.4975"] ;
533 -> 535 ;
536 [label="mse = 0.0\nsamples = 1\nvalue = 0.49"] ;
535 -> 536 ;
537 [label="mse = 0.0\nsamples = 3\nvalue = 0.5"] ;
535 -> 537 ;
538 [label="X[30] <= 0.5\nmse = 0.0003\nsamples = 17\nvalue = 0.5165"] ;
522 -> 538 ;
539 [label="X[242] <= 0.5\nmse = 0.0001\nsamples = 5\nvalue = 0.496"] ;
538 -> 539 ;
540 [label="X[381] <= 0.5\nmse = 0.0\nsamples = 3\nvalue = 0.5033"] ;
539 -> 540 ;
541 [label="mse = 0.0\nsamples = 2\nvalue = 0.5"] ;
540 -> 541 ;
542 [label="mse = 0.0\nsamples = 1\nvalue = 0.51"] ;
540 -> 542 ;
543 [label="X[144] <= 0.5\nmse = 0.0\nsamples = 2\nvalue = 0.485"] ;
539 -> 543 ;
544 [label="mse = 0.0\nsamples = 1\nvalue = 0.48"] ;
543 -> 544 ;
545 [label="mse = 0.0\nsamples = 1\nvalue = 0.49"] ;
543 -> 545 ;
546 [label="X[106] <= 0.5\nmse = 0.0001\nsamples = 12\nvalue = 0.525"] ;
538 -> 546 ;
547 [label="X[229] <= 0.5\nmse = 0.0\nsamples = 5\nvalue = 0.516"] ;
546 -> 547 ;
548 [label="mse = 0.0\nsamples = 2\nvalue = 0.51"] ;
547 -> 548 ;
549 [label="mse = -0.0\nsamples = 3\nvalue = 0.52"] ;
547 -> 549 ;
550 [label="X[283] <= 0.5\nmse = 0.0\nsamples = 7\nvalue = 0.5314"] ;
546 -> 550 ;
551 [label="mse = 0.0\nsamples = 2\nvalue = 0.54"] ;
550 -> 551 ;
552 [label="X[135] <= 0.5\nmse = 0.0\nsamples = 5\nvalue = 0.528"] ;
550 -> 552 ;
553 [label="mse = -0.0\nsamples = 4\nvalue = 0.53"] ;
552 -> 553 ;
554 [label="mse = -0.0\nsamples = 1\nvalue = 0.52"] ;
552 -> 554 ;
}