digraph Tree {
node [shape=box] ;
0 [label="X[266] <= 0.5\nmse = 0.0026\nsamples = 100\nvalue = 0.4588"] ;
1 [label="X[66] <= 0.5\nmse = 0.0016\nsamples = 55\nvalue = 0.43"] ;
0 -> 1 [labeldistance=2.5, labelangle=45, headlabel="True"] ;
2 [label="X[296] <= 0.5\nmse = 0.0014\nsamples = 45\nvalue = 0.4218"] ;
1 -> 2 ;
3 [label="X[39] <= 0.5\nmse = 0.0011\nsamples = 32\nvalue = 0.4097"] ;
2 -> 3 ;
4 [label="X[55] <= 0.5\nmse = 0.0006\nsamples = 15\nvalue = 0.3907"] ;
3 -> 4 ;
5 [label="X[165] <= 0.5\nmse = 0.0005\nsamples = 7\nvalue = 0.3729"] ;
4 -> 5 ;
6 [label="X[277] <= 0.5\nmse = 0.0001\nsamples = 5\nvalue = 0.36"] ;
5 -> 6 ;
7 [label="X[302] <= 0.5\nmse = 0.0\nsamples = 4\nvalue = 0.365"] ;
6 -> 7 ;
8 [label="mse = 0.0\nsamples = 2\nvalue = 0.36"] ;
7 -> 8 ;
9 [label="mse = -0.0\nsamples = 2\nvalue = 0.37"] ;
7 -> 9 ;
10 [label="mse = 0.0\nsamples = 1\nvalue = 0.34"] ;
6 -> 10 ;
11 [label="X[11] <= 0.5\nmse = 0.0\nsamples = 2\nvalue = 0.405"] ;
5 -> 11 ;
12 [label="mse = 0.0\nsamples = 1\nvalue = 0.41"] ;
11 -> 12 ;
13 [label="mse = -0.0\nsamples = 1\nvalue = 0.4"] ;
11 -> 13 ;
14 [label="X[200] <= 0.5\nmse = 0.0001\nsamples = 8\nvalue = 0.4063"] ;
4 -> 14 ;
15 [label="X[239] <= 0.5\nmse = 0.0\nsamples = 5\nvalue = 0.412"] ;
14 -> 15 ;
16 [label="mse = 0.0\nsamples = 1\nvalue = 0.42"] ;
15 -> 16 ;
17 [label="mse = -0.0\nsamples = 4\nvalue = 0.41"] ;
15 -> 17 ;
18 [label="X[146] <= 0.5\nmse = 0.0\nsamples = 3\nvalue = 0.3967"] ;
14 -> 18 ;
19 [label="mse = 0.0\nsamples = 1\nvalue = 0.39"] ;
18 -> 19 ;
20 [label="mse = 0.0\nsamples = 2\nvalue = 0.4"] ;
18 -> 20 ;
21 [label="X[76] <= 0.5\nmse = 0.001\nsamples = 17\nvalue = 0.4265"] ;
3 -> 21 ;
22 [label="X[80] <= 0.5\nmse = 0.0004\nsamples = 7\nvalue = 0.4014"] ;
21 -> 22 ;
23 [label="X[109] <= 0.5\nmse = 0.0001\nsamples = 3\nvalue = 0.38"] ;
22 -> 23 ;
24 [label="X[51] <= 0.5\nmse = 0.0\nsamples = 2\nvalue = 0.375"] ;
23 -> 24 ;
25 [label="mse = 0.0\nsamples = 1\nvalue = 0.38"] ;
24 -> 25 ;
26 [label="mse = 0.0\nsamples = 1\nvalue = 0.37"] ;
24 -> 26 ;
27 [label="mse = 0.0\nsamples = 1\nvalue = 0.39"] ;
23 -> 27 ;
28 [label="X[46] <= 0.5\nmse = 0.0001\nsamples = 4\nvalue = 0.4175"] ;
22 -> 28 ;
29 [label="mse = 0.0\nsamples = 2\nvalue = 0.41"] ;
28 -> 29 ;
30 [label="X[135] <= 0.5\nmse = 0.0\nsamples = 2\nvalue = 0.425"] ;
28 -> 30 ;
31 [label="mse = 0.0\nsamples = 1\nvalue = 0.42"] ;
30 -> 31 ;
32 [label="mse = 0.0\nsamples = 1\nvalue = 0.43"] ;
30 -> 32 ;
33 [label="X[107] <= 0.5\nmse = 0.0007\nsamples = 10\nvalue = 0.444"] ;
21 -> 33 ;
34 [label="X[90] <= 0.5\nmse = 0.0003\nsamples = 9\nvalue = 0.4511"] ;
33 -> 34 ;
35 [label="mse = 0.0\nsamples = 1\nvalue = 0.49"] ;
34 -> 35 ;
36 [label="X[282] <= 0.5\nmse = 0.0001\nsamples = 8\nvalue = 0.4462"] ;
34 -> 36 ;
37 [label="X[249] <= 0.5\nmse = 0.0\nsamples = 6\nvalue = 0.4417"] ;
36 -> 37 ;
38 [label="mse = 0.0\nsamples = 5\nvalue = 0.44"] ;
37 -> 38 ;
39 [label="mse = -0.0\nsamples = 1\nvalue = 0.45"] ;
37 -> 39 ;
40 [label="mse = 0.0\nsamples = 2\nvalue = 0.46"] ;
36 -> 40 ;
41 [label="mse = 0.0\nsamples = 1\nvalue = 0.38"] ;
33 -> 41 ;
42 [label="X[56] <= 0.5\nmse = 0.0009\nsamples = 13\nvalue = 0.4515"] ;
2 -> 42 ;
43 [label="X[267] <= 0.5\nmse = 0.0002\nsamples = 6\nvalue = 0.425"] ;
42 -> 43 ;
44 [label="X[64] <= 0.5\nmse = 0.0\nsamples = 3\nvalue = 0.4367"] ;
43 -> 44 ;
45 [label="mse = 0.0\nsamples = 1\nvalue = 0.43"] ;
44 -> 45 ;
46 [label="mse = -0.0\nsamples = 2\nvalue = 0.44"] ;
44 -> 46 ;
47 [label="X[197] <= 0.5\nmse = 0.0001\nsamples = 3\nvalue = 0.4133"] ;
43 -> 47 ;
48 [label="mse = 0.0\nsamples = 2\nvalue = 0.42"] ;
47 -> 48 ;
49 [label="mse = 0.0\nsamples = 1\nvalue = 0.4"] ;
47 -> 49 ;
50 [label="X[61] <= 0.5\nmse = 0.0005\nsamples = 7\nvalue = 0.4743"] ;
42 -> 50 ;
51 [label="X[235] <= 0.5\nmse = 0.0\nsamples = 5\nvalue = 0.462"] ;
50 -> 51 ;
52 [label="mse = 0.0\nsamples = 1\nvalue = 0.47"] ;
51 -> 52 ;
53 [label="mse = -0.0\nsamples = 4\nvalue = 0.46"] ;
51 -> 53 ;
54 [label="X[159] <= 0.5\nmse = 0.0002\nsamples = 2\nvalue = 0.505"] ;
50 -> 54 ;
55 [label="mse = 0.0\nsamples = 1\nvalue = 0.52"] ;
54 -> 55 ;
56 [label="mse = -0.0\nsamples = 1\nvalue = 0.49"] ;
54 -> 56 ;
57 [label="X[195] <= 0.5\nmse = 0.0007\nsamples = 10\nvalue = 0.467"] ;
1 -> 57 ;
58 [label="X[313] <= 0.5\nmse = 0.0003\nsamples = 9\nvalue = 0.46"] ;
57 -> 58 ;
59 [label="X[27] <= 0.5\nmse = 0.0002\nsamples = 3\nvalue = 0.4433"] ;
58 -> 59 ;
60 [label="mse = 0.0\nsamples = 1\nvalue = 0.46"] ;
59 -> 60 ;
61 [label="X[262] <= 0.5\nmse = 0.0\nsamples = 2\nvalue = 0.435"] ;
59 -> 61 ;
62 [label="mse = 0.0\nsamples = 1\nvalue = 0.43"] ;
61 -> 62 ;
63 [label="mse = -0.0\nsamples = 1\nvalue = 0.44"] ;
61 -> 63 ;
64 [label="X[258] <= 0.5\nmse = 0.0001\nsamples = 6\nvalue = 0.4683"] ;
58 -> 64 ;
65 [label="X[108] <= 0.5\nmse = 0.0001\nsamples = 5\nvalue = 0.464"] ;
64 -> 65 ;
66 [label="mse = 0.0\nsamples = 3\nvalue = 0.47"] ;
65 -> 66 ;
67 [label="X[86] <= 0.5\nmse = 0.0\nsamples = 2\nvalue = 0.455"] ;
65 -> 67 ;
68 [label="mse = 0.0\nsamples = 1\nvalue = 0.46"] ;
67 -> 68 ;
69 [label="mse = 0.0\nsamples = 1\nvalue = 0.45"] ;
67 -> 69 ;
70 [label="mse = -0.0\nsamples = 1\nvalue = 0.49"] ;
64 -> 70 ;
71 [label="mse = -0.0\nsamples = 1\nvalue = 0.53"] ;
57 -> 71 ;
72 [label="X[110] <= 0.5\nmse = 0.0016\nsamples = 45\nvalue = 0.494"] ;
0 -> 72 [labeldistance=2.5, labelangle=-45, headlabel="False"] ;
73 [label="X[99] <= 0.5\nmse = 0.0009\nsamples = 29\nvalue = 0.4797"] ;
72 -> 73 ;
74 [label="X[29] <= 0.5\nmse = 0.0007\nsamples = 20\nvalue = 0.4685"] ;
73 -> 74 ;
75 [label="X[204] <= 0.5\nmse = 0.0009\nsamples = 2\nvalue = 0.42"] ;
74 -> 75 ;
76 [label="mse = 0.0\nsamples = 1\nvalue = 0.39"] ;
75 -> 76 ;
77 [label="mse = -0.0\nsamples = 1\nvalue = 0.45"] ;
75 -> 77 ;
78 [label="X[3] <= 0.5\nmse = 0.0004\nsamples = 18\nvalue = 0.4739"] ;
74 -> 78 ;
79 [label="X[116] <= 0.5\nmse = 0.0003\nsamples = 12\nvalue = 0.465"] ;
78 -> 79 ;
80 [label="X[106] <= 0.5\nmse = 0.0001\nsamples = 9\nvalue = 0.4578"] ;
79 -> 80 ;
81 [label="X[98] <= 0.5\nmse = 0.0\nsamples = 6\nvalue = 0.4633"] ;
80 -> 81 ;
82 [label="mse = -0.0\nsamples = 4\nvalue = 0.46"] ;
81 -> 82 ;
83 [label="mse = 0.0\nsamples = 2\nvalue = 0.47"] ;
81 -> 83 ;
84 [label="X[222] <= 0.5\nmse = 0.0\nsamples = 3\nvalue = 0.4467"] ;
80 -> 84 ;
85 [label="mse = 0.0\nsamples = 1\nvalue = 0.44"] ;
84 -> 85 ;
86 [label="mse = -0.0\nsamples = 2\nvalue = 0.45"] ;
84 -> 86 ;
87 [label="X[95] <= 0.5\nmse = 0.0002\nsamples = 3\nvalue = 0.4867"] ;
79 -> 87 ;
88 [label="X[274] <= 0.5\nmse = 0.0\nsamples = 2\nvalue = 0.495"] ;
87 -> 88 ;
89 [label="mse = 0.0\nsamples = 1\nvalue = 0.49"] ;
88 -> 89 ;
90 [label="mse = 0.0\nsamples = 1\nvalue = 0.5"] ;
88 -> 90 ;
91 [label="mse = 0.0\nsamples = 1\nvalue = 0.47"] ;
87 -> 91 ;
92 [label="X[66] <= 0.5\nmse = 0.0002\nsamples = 6\nvalue = 0.4917"] ;
78 -> 92 ;
93 [label="X[133] <= 0.5\nmse = 0.0001\nsamples = 4\nvalue = 0.5"] ;
92 -> 93 ;
94 [label="mse = 0.0\nsamples = 1\nvalue = 0.51"] ;
93 -> 94 ;
95 [label="X[177] <= 0.5\nmse = 0.0\nsamples = 3\nvalue = 0.4967"] ;
93 -> 95 ;
96 [label="mse = 0.0\nsamples = 2\nvalue = 0.5"] ;
95 -> 96 ;
97 [label="mse = 0.0\nsamples = 1\nvalue = 0.49"] ;
95 -> 97 ;
98 [label="X[80] <= 0.5\nmse = 0.0\nsamples = 2\nvalue = 0.475"] ;
92 -> 98 ;
99 [label="mse = 0.0\nsamples = 1\nvalue = 0.48"] ;
98 -> 99 ;
100 [label="mse = 0.0\nsamples = 1\nvalue = 0.47"] ;
98 -> 100 ;
101 [label="X[88] <= 0.5\nmse = 0.0005\nsamples = 9\nvalue = 0.5044"] ;
73 -> 101 ;
102 [label="X[19] <= 0.5\nmse = 0.0001\nsamples = 5\nvalue = 0.486"] ;
101 -> 102 ;
103 [label="X[310] <= 0.5\nmse = 0.0\nsamples = 2\nvalue = 0.475"] ;
102 -> 103 ;
104 [label="mse = 0.0\nsamples = 1\nvalue = 0.47"] ;
103 -> 104 ;
105 [label="mse = 0.0\nsamples = 1\nvalue = 0.48"] ;
103 -> 105 ;
106 [label="X[259] <= 0.5\nmse = 0.0\nsamples = 3\nvalue = 0.4933"] ;
102 -> 106 ;
107 [label="mse = 0.0\nsamples = 2\nvalue = 0.49"] ;
106 -> 107 ;
108 [label="mse = 0.0\nsamples = 1\nvalue = 0.5"] ;
106 -> 108 ;
109 [label="X[129] <= 0.5\nmse = 0.0001\nsamples = 4\nvalue = 0.5275"] ;
101 -> 109 ;
110 [label="mse = 0.0\nsamples = 2\nvalue = 0.52"] ;
109 -> 110 ;
111 [label="X[2] <= 0.5\nmse = 0.0\nsamples = 2\nvalue = 0.535"] ;
109 -> 111 ;
112 [label="mse = 0.0\nsamples = 1\nvalue = 0.53"] ;
111 -> 112 ;
113 [label="mse = -0.0\nsamples = 1\nvalue = 0.54"] ;
111 -> 113 ;
114 [label="X[89] <= 0.5\nmse = 0.0018\nsamples = 16\nvalue = 0.52"] ;
72 -> 114 ;
115 [label="X[151] <= 0.5\nmse = 0.0005\nsamples = 9\nvalue = 0.5467"] ;
114 -> 115 ;
116 [label="X[230] <= 0.5\nmse = 0.0001\nsamples = 4\nvalue = 0.525"] ;
115 -> 116 ;
117 [label="X[201] <= 0.5\nmse = 0.0\nsamples = 2\nvalue = 0.535"] ;
116 -> 117 ;
118 [label="mse = 0.0\nsamples = 1\nvalue = 0.54"] ;
117 -> 118 ;
119 [label="mse = -0.0\nsamples = 1\nvalue = 0.53"] ;
117 -> 119 ;
120 [label="X[79] <= 0.5\nmse = 0.0\nsamples = 2\nvalue = 0.515"] ;
116 -> 120 ;
121 [label="mse = 0.0\nsamples = 1\nvalue = 0.51"] ;
120 -> 121 ;
122 [label="mse = -0.0\nsamples = 1\nvalue = 0.52"] ;
120 -> 122 ;
123 [label="X[97] <= 0.5\nmse = 0.0002\nsamples = 5\nvalue = 0.564"] ;
115 -> 123 ;
124 [label="X[215] <= 0.5\nmse = 0.0\nsamples = 4\nvalue = 0.5575"] ;
123 -> 124 ;
125 [label="mse = 0.0\nsamples = 1\nvalue = 0.55"] ;
124 -> 125 ;
126 [label="mse = -0.0\nsamples = 3\nvalue = 0.56"] ;
124 -> 126 ;
127 [label="mse = -0.0\nsamples = 1\nvalue = 0.59"] ;
123 -> 127 ;
128 [label="X[34] <= 0.5\nmse = 0.0013\nsamples = 7\nvalue = 0.4857"] ;
114 -> 128 ;
129 [label="X[159] <= 0.5\nmse = 0.0004\nsamples = 5\nvalue = 0.466"] ;
128 -> 129 ;
130 [label="X[181] <= 0.5\nmse = 0.0001\nsamples = 3\nvalue = 0.45"] ;
129 -> 130 ;
131 [label="mse = 0.0\nsamples = 1\nvalue = 0.46"] ;
130 -> 131 ;
132 [label="X[231] <= 0.5\nmse = 0.0\nsamples = 2\nvalue = 0.445"] ;
130 -> 132 ;
133 [label="mse = 0.0\nsamples = 1\nvalue = 0.45"] ;
132 -> 133 ;
134 [label="mse = 0.0\nsamples = 1\nvalue = 0.44"] ;
132 -> 134 ;
135 [label="mse = -0.0\nsamples = 2\nvalue = 0.49"] ;
129 -> 135 ;
136 [label="X[218] <= 0.5\nmse = 0.0002\nsamples = 2\nvalue = 0.535"] ;
128 -> 136 ;
137 [label="mse = 0.0\nsamples = 1\nvalue = 0.52"] ;
136 -> 137 ;
138 [label="mse = 0.0\nsamples = 1\nvalue = 0.55"] ;
136 -> 138 ;
}