digraph Tree {
node [shape=box] ;
0 [label="X[14] <= 0.5\nmse = 0.0118\nsamples = 500\nvalue = 0.2226"] ;
1 [label="X[104] <= 0.5\nmse = 0.0116\nsamples = 283\nvalue = 0.2626"] ;
0 -> 1 [labeldistance=2.5, labelangle=45, headlabel="True"] ;
2 [label="X[52] <= 0.5\nmse = 0.0088\nsamples = 142\nvalue = 0.313"] ;
1 -> 2 ;
3 [label="X[51] <= 0.5\nmse = 0.0066\nsamples = 69\nvalue = 0.2699"] ;
2 -> 3 ;
4 [label="X[123] <= 0.5\nmse = 0.0041\nsamples = 32\nvalue = 0.2294"] ;
3 -> 4 ;
5 [label="X[16] <= 0.5\nmse = 0.0023\nsamples = 18\nvalue = 0.1983"] ;
4 -> 5 ;
6 [label="X[135] <= 0.5\nmse = 0.0017\nsamples = 6\nvalue = 0.24"] ;
5 -> 6 ;
7 [label="mse = 0.0\nsamples = 2\nvalue = 0.19"] ;
6 -> 7 ;
8 [label="X[305] <= 0.5\nmse = 0.0006\nsamples = 4\nvalue = 0.265"] ;
6 -> 8 ;
9 [label="mse = 0.0\nsamples = 2\nvalue = 0.29"] ;
8 -> 9 ;
10 [label="mse = -0.0\nsamples = 2\nvalue = 0.24"] ;
8 -> 10 ;
11 [label="X[237] <= 0.5\nmse = 0.0013\nsamples = 12\nvalue = 0.1775"] ;
5 -> 11 ;
12 [label="mse = 0.0\nsamples = 2\nvalue = 0.24"] ;
11 -> 12 ;
13 [label="X[113] <= 0.5\nmse = 0.0006\nsamples = 10\nvalue = 0.165"] ;
11 -> 13 ;
14 [label="mse = 0.0\nsamples = 5\nvalue = 0.14"] ;
13 -> 14 ;
15 [label="mse = 0.0\nsamples = 5\nvalue = 0.19"] ;
13 -> 15 ;
16 [label="X[28] <= 0.5\nmse = 0.0037\nsamples = 14\nvalue = 0.2693"] ;
4 -> 16 ;
17 [label="X[155] <= 0.5\nmse = 0.0015\nsamples = 6\nvalue = 0.215"] ;
16 -> 17 ;
18 [label="mse = 0.0\nsamples = 4\nvalue = 0.24"] ;
17 -> 18 ;
19 [label="X[138] <= 0.5\nmse = 0.0006\nsamples = 2\nvalue = 0.165"] ;
17 -> 19 ;
20 [label="mse = 0.0\nsamples = 1\nvalue = 0.19"] ;
19 -> 20 ;
21 [label="mse = -0.0\nsamples = 1\nvalue = 0.14"] ;
19 -> 21 ;
22 [label="X[40] <= 0.5\nmse = 0.0015\nsamples = 8\nvalue = 0.31"] ;
16 -> 22 ;
23 [label="X[224] <= 0.5\nmse = 0.0005\nsamples = 4\nvalue = 0.3425"] ;
22 -> 23 ;
24 [label="mse = 0.0\nsamples = 3\nvalue = 0.33"] ;
23 -> 24 ;
25 [label="mse = 0.0\nsamples = 1\nvalue = 0.38"] ;
23 -> 25 ;
26 [label="X[66] <= 0.5\nmse = 0.0005\nsamples = 4\nvalue = 0.2775"] ;
22 -> 26 ;
27 [label="mse = -0.0\nsamples = 3\nvalue = 0.29"] ;
26 -> 27 ;
28 [label="mse = 0.0\nsamples = 1\nvalue = 0.24"] ;
26 -> 28 ;
29 [label="X[26] <= 0.5\nmse = 0.006\nsamples = 37\nvalue = 0.3049"] ;
3 -> 29 ;
30 [label="X[197] <= 0.5\nmse = 0.0041\nsamples = 32\nvalue = 0.2881"] ;
29 -> 30 ;
31 [label="X[107] <= 0.5\nmse = 0.0024\nsamples = 14\nvalue = 0.2529"] ;
30 -> 31 ;
32 [label="X[24] <= 0.5\nmse = 0.0017\nsamples = 3\nvalue = 0.19"] ;
31 -> 32 ;
33 [label="mse = 0.0\nsamples = 1\nvalue = 0.14"] ;
32 -> 33 ;
34 [label="X[265] <= 0.5\nmse = 0.0006\nsamples = 2\nvalue = 0.215"] ;
32 -> 34 ;
35 [label="mse = 0.0\nsamples = 1\nvalue = 0.19"] ;
34 -> 35 ;
36 [label="mse = 0.0\nsamples = 1\nvalue = 0.24"] ;
34 -> 36 ;
37 [label="X[139] <= 0.5\nmse = 0.0013\nsamples = 11\nvalue = 0.27"] ;
31 -> 37 ;
38 [label="X[38] <= 0.5\nmse = 0.0004\nsamples = 4\nvalue = 0.31"] ;
37 -> 38 ;
39 [label="mse = 0.0\nsamples = 2\nvalue = 0.33"] ;
38 -> 39 ;
40 [label="mse = 0.0\nsamples = 2\nvalue = 0.29"] ;
38 -> 40 ;
41 [label="X[20] <= 0.5\nmse = 0.0003\nsamples = 7\nvalue = 0.2471"] ;
37 -> 41 ;
42 [label="mse = -0.0\nsamples = 6\nvalue = 0.24"] ;
41 -> 42 ;
43 [label="mse = -0.0\nsamples = 1\nvalue = 0.29"] ;
41 -> 43 ;
44 [label="X[118] <= 0.5\nmse = 0.0037\nsamples = 18\nvalue = 0.3156"] ;
30 -> 44 ;
45 [label="X[257] <= 0.5\nmse = 0.0017\nsamples = 8\nvalue = 0.27"] ;
44 -> 45 ;
46 [label="X[244] <= 0.5\nmse = 0.0006\nsamples = 3\nvalue = 0.2233"] ;
45 -> 46 ;
47 [label="mse = 0.0\nsamples = 1\nvalue = 0.19"] ;
46 -> 47 ;
48 [label="mse = 0.0\nsamples = 2\nvalue = 0.24"] ;
46 -> 48 ;
49 [label="X[263] <= 0.5\nmse = 0.0003\nsamples = 5\nvalue = 0.298"] ;
45 -> 49 ;
50 [label="mse = 0.0\nsamples = 4\nvalue = 0.29"] ;
49 -> 50 ;
51 [label="mse = -0.0\nsamples = 1\nvalue = 0.33"] ;
49 -> 51 ;
52 [label="X[215] <= 0.5\nmse = 0.0023\nsamples = 10\nvalue = 0.352"] ;
44 -> 52 ;
53 [label="X[164] <= 0.5\nmse = 0.0006\nsamples = 4\nvalue = 0.405"] ;
52 -> 53 ;
54 [label="mse = 0.0\nsamples = 2\nvalue = 0.43"] ;
53 -> 54 ;
55 [label="mse = -0.0\nsamples = 2\nvalue = 0.38"] ;
53 -> 55 ;
56 [label="X[102] <= 0.5\nmse = 0.0004\nsamples = 6\nvalue = 0.3167"] ;
52 -> 56 ;
57 [label="mse = 0.0\nsamples = 2\nvalue = 0.29"] ;
56 -> 57 ;
58 [label="mse = -0.0\nsamples = 4\nvalue = 0.33"] ;
56 -> 58 ;
59 [label="X[115] <= 0.5\nmse = 0.0051\nsamples = 5\nvalue = 0.412"] ;
29 -> 59 ;
60 [label="X[269] <= 0.5\nmse = 0.002\nsamples = 2\nvalue = 0.335"] ;
59 -> 60 ;
61 [label="mse = 0.0\nsamples = 1\nvalue = 0.29"] ;
60 -> 61 ;
62 [label="mse = 0.0\nsamples = 1\nvalue = 0.38"] ;
60 -> 62 ;
63 [label="X[145] <= 0.5\nmse = 0.0006\nsamples = 3\nvalue = 0.4633"] ;
59 -> 63 ;
64 [label="mse = 0.0\nsamples = 2\nvalue = 0.48"] ;
63 -> 64 ;
65 [label="mse = 0.0\nsamples = 1\nvalue = 0.43"] ;
63 -> 65 ;
66 [label="X[200] <= 0.5\nmse = 0.0074\nsamples = 73\nvalue = 0.3538"] ;
2 -> 66 ;
67 [label="X[84] <= 0.5\nmse = 0.0084\nsamples = 19\nvalue = 0.4105"] ;
66 -> 67 ;
68 [label="X[96] <= 0.5\nmse = 0.0042\nsamples = 11\nvalue = 0.3555"] ;
67 -> 68 ;
69 [label="X[255] <= 0.5\nmse = 0.001\nsamples = 4\nvalue = 0.2875"] ;
68 -> 69 ;
70 [label="mse = 0.0\nsamples = 1\nvalue = 0.24"] ;
69 -> 70 ;
71 [label="X[163] <= 0.5\nmse = 0.0004\nsamples = 3\nvalue = 0.3033"] ;
69 -> 71 ;
72 [label="mse = 0.0\nsamples = 2\nvalue = 0.29"] ;
71 -> 72 ;
73 [label="mse = -0.0\nsamples = 1\nvalue = 0.33"] ;
71 -> 73 ;
74 [label="X[82] <= 0.5\nmse = 0.0019\nsamples = 7\nvalue = 0.3943"] ;
68 -> 74 ;
75 [label="X[233] <= 0.5\nmse = 0.0006\nsamples = 2\nvalue = 0.455"] ;
74 -> 75 ;
76 [label="mse = 0.0\nsamples = 1\nvalue = 0.48"] ;
75 -> 76 ;
77 [label="mse = 0.0\nsamples = 1\nvalue = 0.43"] ;
75 -> 77 ;
78 [label="X[325] <= 0.5\nmse = 0.0004\nsamples = 5\nvalue = 0.37"] ;
74 -> 78 ;
79 [label="mse = 0.0\nsamples = 1\nvalue = 0.33"] ;
78 -> 79 ;
80 [label="mse = 0.0\nsamples = 4\nvalue = 0.38"] ;
78 -> 80 ;
81 [label="X[131] <= 0.5\nmse = 0.0043\nsamples = 8\nvalue = 0.4862"] ;
67 -> 81 ;
82 [label="mse = 0.0\nsamples = 2\nvalue = 0.38"] ;
81 -> 82 ;
83 [label="X[38] <= 0.5\nmse = 0.0007\nsamples = 6\nvalue = 0.5217"] ;
81 -> 83 ;
84 [label="mse = 0.0\nsamples = 1\nvalue = 0.57"] ;
83 -> 84 ;
85 [label="X[234] <= 0.5\nmse = 0.0003\nsamples = 5\nvalue = 0.512"] ;
83 -> 85 ;
86 [label="mse = 0.0\nsamples = 4\nvalue = 0.52"] ;
85 -> 86 ;
87 [label="mse = -0.0\nsamples = 1\nvalue = 0.48"] ;
85 -> 87 ;
88 [label="X[13] <= 0.5\nmse = 0.0055\nsamples = 54\nvalue = 0.3339"] ;
66 -> 88 ;
89 [label="X[322] <= 0.5\nmse = 0.0042\nsamples = 26\nvalue = 0.3669"] ;
88 -> 89 ;
90 [label="X[276] <= 0.5\nmse = 0.0029\nsamples = 15\nvalue = 0.334"] ;
89 -> 90 ;
91 [label="mse = 0.0\nsamples = 2\nvalue = 0.43"] ;
90 -> 91 ;
92 [label="X[180] <= 0.5\nmse = 0.0017\nsamples = 13\nvalue = 0.3192"] ;
90 -> 92 ;
93 [label="X[255] <= 0.5\nmse = 0.0007\nsamples = 6\nvalue = 0.2883"] ;
92 -> 93 ;
94 [label="mse = 0.0\nsamples = 1\nvalue = 0.24"] ;
93 -> 94 ;
95 [label="X[234] <= 0.5\nmse = 0.0003\nsamples = 5\nvalue = 0.298"] ;
93 -> 95 ;
96 [label="mse = 0.0\nsamples = 4\nvalue = 0.29"] ;
95 -> 96 ;
97 [label="mse = 0.0\nsamples = 1\nvalue = 0.33"] ;
95 -> 97 ;
98 [label="X[121] <= 0.5\nmse = 0.0011\nsamples = 7\nvalue = 0.3457"] ;
92 -> 98 ;
99 [label="X[297] <= 0.5\nmse = 0.0004\nsamples = 3\nvalue = 0.3167"] ;
98 -> 99 ;
100 [label="mse = 0.0\nsamples = 1\nvalue = 0.29"] ;
99 -> 100 ;
101 [label="mse = 0.0\nsamples = 2\nvalue = 0.33"] ;
99 -> 101 ;
102 [label="X[27] <= 0.5\nmse = 0.0005\nsamples = 4\nvalue = 0.3675"] ;
98 -> 102 ;
103 [label="mse = -0.0\nsamples = 3\nvalue = 0.38"] ;
102 -> 103 ;
104 [label="mse = -0.0\nsamples = 1\nvalue = 0.33"] ;
102 -> 104 ;
105 [label="X[11] <= 0.5\nmse = 0.0024\nsamples = 11\nvalue = 0.4118"] ;
89 -> 105 ;
106 [label="X[102] <= 0.5\nmse = 0.0006\nsamples = 3\nvalue = 0.3467"] ;
105 -> 106 ;
107 [label="mse = 0.0\nsamples = 2\nvalue = 0.33"] ;
106 -> 107 ;
108 [label="mse = 0.0\nsamples = 1\nvalue = 0.38"] ;
106 -> 108 ;
109 [label="X[15] <= 0.5\nmse = 0.0009\nsamples = 8\nvalue = 0.4362"] ;
105 -> 109 ;
110 [label="mse = 0.0\nsamples = 2\nvalue = 0.48"] ;
109 -> 110 ;
111 [label="X[173] <= 0.5\nmse = 0.0003\nsamples = 6\nvalue = 0.4217"] ;
109 -> 111 ;
112 [label="mse = -0.0\nsamples = 5\nvalue = 0.43"] ;
111 -> 112 ;
113 [label="mse = 0.0\nsamples = 1\nvalue = 0.38"] ;
111 -> 113 ;
114 [label="X[298] <= 0.5\nmse = 0.0048\nsamples = 28\nvalue = 0.3032"] ;
88 -> 114 ;
115 [label="X[111] <= 0.5\nmse = 0.0032\nsamples = 14\nvalue = 0.3429"] ;
114 -> 115 ;
116 [label="X[198] <= 0.5\nmse = 0.0013\nsamples = 8\nvalue = 0.38"] ;
115 -> 116 ;
117 [label="mse = 0.0\nsamples = 2\nvalue = 0.33"] ;
116 -> 117 ;
118 [label="X[276] <= 0.5\nmse = 0.0006\nsamples = 6\nvalue = 0.3967"] ;
116 -> 118 ;
119 [label="mse = 0.0\nsamples = 2\nvalue = 0.43"] ;
118 -> 119 ;
120 [label="mse = -0.0\nsamples = 4\nvalue = 0.38"] ;
118 -> 120 ;
121 [label="X[41] <= 0.5\nmse = 0.0016\nsamples = 6\nvalue = 0.2933"] ;
115 -> 121 ;
122 [label="X[195] <= 0.5\nmse = 0.0003\nsamples = 4\nvalue = 0.32"] ;
121 -> 122 ;
123 [label="mse = 0.0\nsamples = 1\nvalue = 0.29"] ;
122 -> 123 ;
124 [label="mse = -0.0\nsamples = 3\nvalue = 0.33"] ;
122 -> 124 ;
125 [label="mse = 0.0\nsamples = 2\nvalue = 0.24"] ;
121 -> 125 ;
126 [label="X[258] <= 0.5\nmse = 0.0032\nsamples = 14\nvalue = 0.2636"] ;
114 -> 126 ;
127 [label="X[192] <= 0.5\nmse = 0.0013\nsamples = 7\nvalue = 0.2186"] ;
126 -> 127 ;
128 [label="mse = 0.0\nsamples = 4\nvalue = 0.19"] ;
127 -> 128 ;
129 [label="X[224] <= 0.5\nmse = 0.0006\nsamples = 3\nvalue = 0.2567"] ;
127 -> 129 ;
130 [label="mse = 0.0\nsamples = 1\nvalue = 0.29"] ;
129 -> 130 ;
131 [label="mse = -0.0\nsamples = 2\nvalue = 0.24"] ;
129 -> 131 ;
132 [label="X[111] <= 0.5\nmse = 0.001\nsamples = 7\nvalue = 0.3086"] ;
126 -> 132 ;
133 [label="mse = -0.0\nsamples = 5\nvalue = 0.29"] ;
132 -> 133 ;
134 [label="X[51] <= 0.5\nmse = 0.0006\nsamples = 2\nvalue = 0.355"] ;
132 -> 134 ;
135 [label="mse = 0.0\nsamples = 1\nvalue = 0.38"] ;
134 -> 135 ;
136 [label="mse = 0.0\nsamples = 1\nvalue = 0.33"] ;
134 -> 136 ;
137 [label="X[52] <= 0.5\nmse = 0.0093\nsamples = 141\nvalue = 0.2118"] ;
1 -> 137 ;
138 [label="X[123] <= 0.5\nmse = 0.0056\nsamples = 76\nvalue = 0.1699"] ;
137 -> 138 ;
139 [label="X[51] <= 0.5\nmse = 0.0015\nsamples = 35\nvalue = 0.1303"] ;
138 -> 139 ;
140 [label="X[206] <= 0.5\nmse = 0.0012\nsamples = 23\nvalue = 0.1178"] ;
139 -> 140 ;
141 [label="mse = 0.0\nsamples = 1\nvalue = 0.24"] ;
140 -> 141 ;
142 [label="X[77] <= 0.5\nmse = 0.0005\nsamples = 22\nvalue = 0.1123"] ;
140 -> 142 ;
143 [label="X[113] <= 0.5\nmse = 0.0004\nsamples = 11\nvalue = 0.0991"] ;
142 -> 143 ;
144 [label="X[292] <= 0.5\nmse = 0.0002\nsamples = 10\nvalue = 0.095"] ;
143 -> 144 ;
145 [label="mse = 0.0\nsamples = 1\nvalue = 0.05"] ;
144 -> 145 ;
146 [label="mse = 0.0\nsamples = 9\nvalue = 0.1"] ;
144 -> 146 ;
147 [label="mse = 0.0\nsamples = 1\nvalue = 0.14"] ;
143 -> 147 ;
148 [label="X[190] <= 0.5\nmse = 0.0004\nsamples = 11\nvalue = 0.1255"] ;
142 -> 148 ;
149 [label="X[35] <= 0.5\nmse = 0.0003\nsamples = 5\nvalue = 0.108"] ;
148 -> 149 ;
150 [label="mse = 0.0\nsamples = 4\nvalue = 0.1"] ;
149 -> 150 ;
151 [label="mse = -0.0\nsamples = 1\nvalue = 0.14"] ;
149 -> 151 ;
152 [label="mse = -0.0\nsamples = 6\nvalue = 0.14"] ;
148 -> 152 ;
153 [label="X[54] <= 0.5\nmse = 0.0011\nsamples = 12\nvalue = 0.1542"] ;
139 -> 153 ;
154 [label="X[145] <= 0.5\nmse = 0.0004\nsamples = 6\nvalue = 0.1267"] ;
153 -> 154 ;
155 [label="mse = 0.0\nsamples = 2\nvalue = 0.1"] ;
154 -> 155 ;
156 [label="mse = 0.0\nsamples = 4\nvalue = 0.14"] ;
154 -> 156 ;
157 [label="X[196] <= 0.5\nmse = 0.0003\nsamples = 6\nvalue = 0.1817"] ;
153 -> 157 ;
158 [label="mse = 0.0\nsamples = 5\nvalue = 0.19"] ;
157 -> 158 ;
159 [label="mse = 0.0\nsamples = 1\nvalue = 0.14"] ;
157 -> 159 ;
160 [label="X[18] <= 0.5\nmse = 0.0067\nsamples = 41\nvalue = 0.2037"] ;
138 -> 160 ;
161 [label="X[175] <= 0.5\nmse = 0.0061\nsamples = 24\nvalue = 0.2425"] ;
160 -> 161 ;
162 [label="X[168] <= 0.5\nmse = 0.002\nsamples = 8\nvalue = 0.3225"] ;
161 -> 162 ;
163 [label="X[67] <= 0.5\nmse = 0.0004\nsamples = 7\nvalue = 0.3071"] ;
162 -> 163 ;
164 [label="mse = 0.0\nsamples = 4\nvalue = 0.29"] ;
163 -> 164 ;
165 [label="mse = -0.0\nsamples = 3\nvalue = 0.33"] ;
163 -> 165 ;
166 [label="mse = -0.0\nsamples = 1\nvalue = 0.43"] ;
162 -> 166 ;
167 [label="X[66] <= 0.5\nmse = 0.0033\nsamples = 16\nvalue = 0.2025"] ;
161 -> 167 ;
168 [label="X[311] <= 0.5\nmse = 0.0012\nsamples = 9\nvalue = 0.1622"] ;
167 -> 168 ;
169 [label="mse = -0.0\nsamples = 6\nvalue = 0.14"] ;
168 -> 169 ;
170 [label="X[265] <= 0.5\nmse = 0.0006\nsamples = 3\nvalue = 0.2067"] ;
168 -> 170 ;
171 [label="mse = 0.0\nsamples = 2\nvalue = 0.19"] ;
170 -> 171 ;
172 [label="mse = 0.0\nsamples = 1\nvalue = 0.24"] ;
170 -> 172 ;
173 [label="X[101] <= 0.5\nmse = 0.0012\nsamples = 7\nvalue = 0.2543"] ;
167 -> 173 ;
174 [label="X[97] <= 0.5\nmse = 0.0005\nsamples = 4\nvalue = 0.2275"] ;
173 -> 174 ;
175 [label="mse = 0.0\nsamples = 3\nvalue = 0.24"] ;
174 -> 175 ;
176 [label="mse = -0.0\nsamples = 1\nvalue = 0.19"] ;
174 -> 176 ;
177 [label="mse = -0.0\nsamples = 3\nvalue = 0.29"] ;
173 -> 177 ;
178 [label="X[246] <= 0.5\nmse = 0.0025\nsamples = 17\nvalue = 0.1488"] ;
160 -> 178 ;
179 [label="X[291] <= 0.5\nmse = 0.0019\nsamples = 8\nvalue = 0.185"] ;
178 -> 179 ;
180 [label="X[209] <= 0.5\nmse = 0.0004\nsamples = 2\nvalue = 0.12"] ;
179 -> 180 ;
181 [label="mse = 0.0\nsamples = 1\nvalue = 0.1"] ;
180 -> 181 ;
182 [label="mse = 0.0\nsamples = 1\nvalue = 0.14"] ;
180 -> 182 ;
183 [label="X[105] <= 0.5\nmse = 0.0006\nsamples = 6\nvalue = 0.2067"] ;
179 -> 183 ;
184 [label="mse = 0.0\nsamples = 2\nvalue = 0.24"] ;
183 -> 184 ;
185 [label="mse = 0.0\nsamples = 4\nvalue = 0.19"] ;
183 -> 185 ;
186 [label="X[68] <= 0.5\nmse = 0.0009\nsamples = 9\nvalue = 0.1167"] ;
178 -> 186 ;
187 [label="X[256] <= 0.5\nmse = 0.0005\nsamples = 4\nvalue = 0.0875"] ;
186 -> 187 ;
188 [label="mse = 0.0\nsamples = 1\nvalue = 0.05"] ;
187 -> 188 ;
189 [label="mse = -0.0\nsamples = 3\nvalue = 0.1"] ;
187 -> 189 ;
190 [label="mse = 0.0\nsamples = 5\nvalue = 0.14"] ;
186 -> 190 ;
191 [label="X[51] <= 0.5\nmse = 0.0091\nsamples = 65\nvalue = 0.2608"] ;
137 -> 191 ;
192 [label="X[122] <= 0.5\nmse = 0.0089\nsamples = 32\nvalue = 0.2191"] ;
191 -> 192 ;
193 [label="X[87] <= 0.5\nmse = 0.0028\nsamples = 13\nvalue = 0.1538"] ;
192 -> 193 ;
194 [label="X[275] <= 0.5\nmse = 0.0012\nsamples = 6\nvalue = 0.1983"] ;
193 -> 194 ;
195 [label="X[114] <= 0.5\nmse = 0.0005\nsamples = 4\nvalue = 0.1775"] ;
194 -> 195 ;
196 [label="mse = 0.0\nsamples = 1\nvalue = 0.14"] ;
195 -> 196 ;
197 [label="mse = 0.0\nsamples = 3\nvalue = 0.19"] ;
195 -> 197 ;
198 [label="mse = 0.0\nsamples = 2\nvalue = 0.24"] ;
194 -> 198 ;
199 [label="X[102] <= 0.5\nmse = 0.001\nsamples = 7\nvalue = 0.1157"] ;
193 -> 199 ;
200 [label="mse = 0.0\nsamples = 4\nvalue = 0.14"] ;
199 -> 200 ;
201 [label="X[184] <= 0.5\nmse = 0.0006\nsamples = 3\nvalue = 0.0833"] ;
199 -> 201 ;
202 [label="mse = 0.0\nsamples = 1\nvalue = 0.05"] ;
201 -> 202 ;
203 [label="mse = 0.0\nsamples = 2\nvalue = 0.1"] ;
201 -> 203 ;
204 [label="X[322] <= 0.5\nmse = 0.0081\nsamples = 19\nvalue = 0.2637"] ;
192 -> 204 ;
205 [label="X[198] <= 0.5\nmse = 0.0019\nsamples = 8\nvalue = 0.19"] ;
204 -> 205 ;
206 [label="mse = 0.0\nsamples = 3\nvalue = 0.14"] ;
205 -> 206 ;
207 [label="X[138] <= 0.5\nmse = 0.0006\nsamples = 5\nvalue = 0.22"] ;
205 -> 207 ;
208 [label="mse = 0.0\nsamples = 2\nvalue = 0.19"] ;
207 -> 208 ;
209 [label="mse = 0.0\nsamples = 3\nvalue = 0.24"] ;
207 -> 209 ;
210 [label="X[134] <= 0.5\nmse = 0.0059\nsamples = 11\nvalue = 0.3173"] ;
204 -> 210 ;
211 [label="X[311] <= 0.5\nmse = 0.0039\nsamples = 3\nvalue = 0.4133"] ;
210 -> 211 ;
212 [label="X[324] <= 0.5\nmse = 0.0006\nsamples = 2\nvalue = 0.455"] ;
211 -> 212 ;
213 [label="mse = 0.0\nsamples = 1\nvalue = 0.48"] ;
212 -> 213 ;
214 [label="mse = 0.0\nsamples = 1\nvalue = 0.43"] ;
212 -> 214 ;
215 [label="mse = -0.0\nsamples = 1\nvalue = 0.33"] ;
211 -> 215 ;
216 [label="X[273] <= 0.5\nmse = 0.0019\nsamples = 8\nvalue = 0.2812"] ;
210 -> 216 ;
217 [label="X[142] <= 0.5\nmse = 0.0006\nsamples = 2\nvalue = 0.215"] ;
216 -> 217 ;
218 [label="mse = 0.0\nsamples = 1\nvalue = 0.24"] ;
217 -> 218 ;
219 [label="mse = 0.0\nsamples = 1\nvalue = 0.19"] ;
217 -> 219 ;
220 [label="X[274] <= 0.5\nmse = 0.0004\nsamples = 6\nvalue = 0.3033"] ;
216 -> 220 ;
221 [label="mse = 0.0\nsamples = 2\nvalue = 0.33"] ;
220 -> 221 ;
222 [label="mse = -0.0\nsamples = 4\nvalue = 0.29"] ;
220 -> 222 ;
223 [label="X[44] <= 0.5\nmse = 0.0061\nsamples = 33\nvalue = 0.3012"] ;
191 -> 223 ;
224 [label="X[153] <= 0.5\nmse = 0.003\nsamples = 16\nvalue = 0.3388"] ;
223 -> 224 ;
225 [label="X[168] <= 0.5\nmse = 0.0025\nsamples = 6\nvalue = 0.2933"] ;
224 -> 225 ;
226 [label="X[11] <= 0.5\nmse = 0.0004\nsamples = 5\nvalue = 0.314"] ;
225 -> 226 ;
227 [label="mse = 0.0\nsamples = 2\nvalue = 0.29"] ;
226 -> 227 ;
228 [label="mse = -0.0\nsamples = 3\nvalue = 0.33"] ;
226 -> 228 ;
229 [label="mse = 0.0\nsamples = 1\nvalue = 0.19"] ;
225 -> 229 ;
230 [label="X[168] <= 0.5\nmse = 0.0014\nsamples = 10\nvalue = 0.366"] ;
224 -> 230 ;
231 [label="X[326] <= 0.5\nmse = 0.0006\nsamples = 8\nvalue = 0.38"] ;
230 -> 231 ;
232 [label="X[13] <= 0.5\nmse = 0.0003\nsamples = 7\nvalue = 0.3729"] ;
231 -> 232 ;
233 [label="mse = 0.0\nsamples = 6\nvalue = 0.38"] ;
232 -> 233 ;
234 [label="mse = -0.0\nsamples = 1\nvalue = 0.33"] ;
232 -> 234 ;
235 [label="mse = 0.0\nsamples = 1\nvalue = 0.43"] ;
231 -> 235 ;
236 [label="X[198] <= 0.5\nmse = 0.0004\nsamples = 2\nvalue = 0.31"] ;
230 -> 236 ;
237 [label="mse = 0.0\nsamples = 1\nvalue = 0.29"] ;
236 -> 237 ;
238 [label="mse = 0.0\nsamples = 1\nvalue = 0.33"] ;
236 -> 238 ;
239 [label="X[277] <= 0.5\nmse = 0.0064\nsamples = 17\nvalue = 0.2659"] ;
223 -> 239 ;
240 [label="X[19] <= 0.5\nmse = 0.0026\nsamples = 9\nvalue = 0.2167"] ;
239 -> 240 ;
241 [label="X[137] <= 0.5\nmse = 0.0015\nsamples = 4\nvalue = 0.2625"] ;
240 -> 241 ;
242 [label="mse = 0.0\nsamples = 3\nvalue = 0.24"] ;
241 -> 242 ;
243 [label="mse = -0.0\nsamples = 1\nvalue = 0.33"] ;
241 -> 243 ;
244 [label="X[259] <= 0.5\nmse = 0.0004\nsamples = 5\nvalue = 0.18"] ;
240 -> 244 ;
245 [label="mse = 0.0\nsamples = 1\nvalue = 0.14"] ;
244 -> 245 ;
246 [label="mse = 0.0\nsamples = 4\nvalue = 0.19"] ;
244 -> 246 ;
247 [label="X[105] <= 0.5\nmse = 0.0048\nsamples = 8\nvalue = 0.3213"] ;
239 -> 247 ;
248 [label="mse = 0.0\nsamples = 3\nvalue = 0.24"] ;
247 -> 248 ;
249 [label="X[115] <= 0.5\nmse = 0.0014\nsamples = 5\nvalue = 0.37"] ;
247 -> 249 ;
250 [label="mse = 0.0\nsamples = 2\nvalue = 0.33"] ;
249 -> 250 ;
251 [label="X[184] <= 0.5\nmse = 0.0006\nsamples = 3\nvalue = 0.3967"] ;
249 -> 251 ;
252 [label="mse = 0.0\nsamples = 1\nvalue = 0.43"] ;
251 -> 252 ;
253 [label="mse = 0.0\nsamples = 2\nvalue = 0.38"] ;
251 -> 253 ;
254 [label="X[52] <= 0.5\nmse = 0.0073\nsamples = 217\nvalue = 0.1706"] ;
0 -> 254 [labeldistance=2.5, labelangle=-45, headlabel="False"] ;
255 [label="X[51] <= 0.5\nmse = 0.004\nsamples = 104\nvalue = 0.1295"] ;
254 -> 255 ;
256 [label="X[104] <= 0.5\nmse = 0.003\nsamples = 54\nvalue = 0.1013"] ;
255 -> 256 ;
257 [label="X[281] <= 0.5\nmse = 0.0024\nsamples = 29\nvalue = 0.1276"] ;
256 -> 257 ;
258 [label="X[136] <= 0.5\nmse = 0.0016\nsamples = 13\nvalue = 0.0977"] ;
257 -> 258 ;
259 [label="X[35] <= 0.5\nmse = 0.0004\nsamples = 5\nvalue = 0.06"] ;
258 -> 259 ;
260 [label="mse = 0.0\nsamples = 4\nvalue = 0.05"] ;
259 -> 260 ;
261 [label="mse = 0.0\nsamples = 1\nvalue = 0.1"] ;
259 -> 261 ;
262 [label="X[280] <= 0.5\nmse = 0.001\nsamples = 8\nvalue = 0.1212"] ;
258 -> 262 ;
263 [label="mse = 0.0\nsamples = 5\nvalue = 0.1"] ;
262 -> 263 ;
264 [label="X[67] <= 0.5\nmse = 0.0006\nsamples = 3\nvalue = 0.1567"] ;
262 -> 264 ;
265 [label="mse = 0.0\nsamples = 2\nvalue = 0.14"] ;
264 -> 265 ;
266 [label="mse = 0.0\nsamples = 1\nvalue = 0.19"] ;
264 -> 266 ;
267 [label="X[74] <= 0.5\nmse = 0.0017\nsamples = 16\nvalue = 0.1519"] ;
257 -> 267 ;
268 [label="X[265] <= 0.5\nmse = 0.0009\nsamples = 8\nvalue = 0.1262"] ;
267 -> 268 ;
269 [label="X[177] <= 0.5\nmse = 0.0005\nsamples = 4\nvalue = 0.1525"] ;
268 -> 269 ;
270 [label="mse = 0.0\nsamples = 1\nvalue = 0.19"] ;
269 -> 270 ;
271 [label="mse = -0.0\nsamples = 3\nvalue = 0.14"] ;
269 -> 271 ;
272 [label="mse = 0.0\nsamples = 4\nvalue = 0.1"] ;
268 -> 272 ;
273 [label="X[175] <= 0.5\nmse = 0.0011\nsamples = 8\nvalue = 0.1775"] ;
267 -> 273 ;
274 [label="mse = 0.0\nsamples = 3\nvalue = 0.14"] ;
273 -> 274 ;
275 [label="X[80] <= 0.5\nmse = 0.0004\nsamples = 5\nvalue = 0.2"] ;
273 -> 275 ;
276 [label="mse = 0.0\nsamples = 1\nvalue = 0.24"] ;
275 -> 276 ;
277 [label="mse = 0.0\nsamples = 4\nvalue = 0.19"] ;
275 -> 277 ;
278 [label="X[82] <= 0.5\nmse = 0.002\nsamples = 25\nvalue = 0.0708"] ;
256 -> 278 ;
279 [label="X[41] <= 0.5\nmse = 0.0019\nsamples = 11\nvalue = 0.0973"] ;
278 -> 279 ;
280 [label="X[247] <= 0.5\nmse = 0.0006\nsamples = 6\nvalue = 0.0667"] ;
279 -> 280 ;
281 [label="mse = -0.0\nsamples = 4\nvalue = 0.05"] ;
280 -> 281 ;
282 [label="mse = 0.0\nsamples = 2\nvalue = 0.1"] ;
280 -> 282 ;
283 [label="X[315] <= 0.5\nmse = 0.0011\nsamples = 5\nvalue = 0.134"] ;
279 -> 283 ;
284 [label="mse = 0.0\nsamples = 1\nvalue = 0.19"] ;
283 -> 284 ;
285 [label="X[137] <= 0.5\nmse = 0.0004\nsamples = 4\nvalue = 0.12"] ;
283 -> 285 ;
286 [label="mse = 0.0\nsamples = 2\nvalue = 0.14"] ;
285 -> 286 ;
287 [label="mse = 0.0\nsamples = 2\nvalue = 0.1"] ;
285 -> 287 ;
288 [label="X[313] <= 0.5\nmse = 0.0011\nsamples = 14\nvalue = 0.05"] ;
278 -> 288 ;
289 [label="X[251] <= 0.5\nmse = 0.0006\nsamples = 5\nvalue = 0.08"] ;
288 -> 289 ;
290 [label="mse = 0.0\nsamples = 2\nvalue = 0.05"] ;
289 -> 290 ;
291 [label="mse = 0.0\nsamples = 3\nvalue = 0.1"] ;
289 -> 291 ;
292 [label="X[269] <= 0.5\nmse = 0.0006\nsamples = 9\nvalue = 0.0333"] ;
288 -> 292 ;
293 [label="mse = 0.0\nsamples = 5\nvalue = 0.05"] ;
292 -> 293 ;
294 [label="X[95] <= 0.5\nmse = 0.0005\nsamples = 4\nvalue = 0.0125"] ;
292 -> 294 ;
295 [label="mse = 0.0\nsamples = 1\nvalue = 0.05"] ;
294 -> 295 ;
296 [label="mse = 0.0\nsamples = 3\nvalue = 0.0"] ;
294 -> 296 ;
297 [label="X[234] <= 0.5\nmse = 0.0033\nsamples = 50\nvalue = 0.16"] ;
255 -> 297 ;
298 [label="X[287] <= 0.5\nmse = 0.003\nsamples = 35\nvalue = 0.1769"] ;
297 -> 298 ;
299 [label="X[5] <= 0.5\nmse = 0.0025\nsamples = 18\nvalue = 0.1506"] ;
298 -> 299 ;
300 [label="X[312] <= 0.5\nmse = 0.0012\nsamples = 11\nvalue = 0.1255"] ;
299 -> 300 ;
301 [label="X[211] <= 0.5\nmse = 0.0006\nsamples = 3\nvalue = 0.0833"] ;
300 -> 301 ;
302 [label="mse = 0.0\nsamples = 1\nvalue = 0.05"] ;
301 -> 302 ;
303 [label="mse = 0.0\nsamples = 2\nvalue = 0.1"] ;
301 -> 303 ;
304 [label="X[48] <= 0.5\nmse = 0.0005\nsamples = 8\nvalue = 0.1413"] ;
300 -> 304 ;
305 [label="mse = 0.0\nsamples = 1\nvalue = 0.19"] ;
304 -> 305 ;
306 [label="X[259] <= 0.5\nmse = 0.0002\nsamples = 7\nvalue = 0.1343"] ;
304 -> 306 ;
307 [label="mse = 0.0\nsamples = 1\nvalue = 0.1"] ;
306 -> 307 ;
308 [label="mse = 0.0\nsamples = 6\nvalue = 0.14"] ;
306 -> 308 ;
309 [label="X[89] <= 0.5\nmse = 0.0021\nsamples = 7\nvalue = 0.19"] ;
299 -> 309 ;
310 [label="mse = 0.0\nsamples = 3\nvalue = 0.14"] ;
309 -> 310 ;
311 [label="X[256] <= 0.5\nmse = 0.0005\nsamples = 4\nvalue = 0.2275"] ;
309 -> 311 ;
312 [label="mse = 0.0\nsamples = 1\nvalue = 0.19"] ;
311 -> 312 ;
313 [label="mse = -0.0\nsamples = 3\nvalue = 0.24"] ;
311 -> 313 ;
314 [label="X[70] <= 0.5\nmse = 0.002\nsamples = 17\nvalue = 0.2047"] ;
298 -> 314 ;
315 [label="X[118] <= 0.5\nmse = 0.0007\nsamples = 10\nvalue = 0.235"] ;
314 -> 315 ;
316 [label="mse = 0.0\nsamples = 2\nvalue = 0.19"] ;
315 -> 316 ;
317 [label="X[204] <= 0.5\nmse = 0.0003\nsamples = 8\nvalue = 0.2462"] ;
315 -> 317 ;
318 [label="mse = 0.0\nsamples = 1\nvalue = 0.29"] ;
317 -> 318 ;
319 [label="mse = -0.0\nsamples = 7\nvalue = 0.24"] ;
317 -> 319 ;
320 [label="X[249] <= 0.5\nmse = 0.0006\nsamples = 7\nvalue = 0.1614"] ;
314 -> 320 ;
321 [label="mse = -0.0\nsamples = 3\nvalue = 0.19"] ;
320 -> 321 ;
322 [label="mse = 0.0\nsamples = 4\nvalue = 0.14"] ;
320 -> 322 ;
323 [label="X[329] <= 0.5\nmse = 0.0019\nsamples = 15\nvalue = 0.1207"] ;
297 -> 323 ;
324 [label="X[176] <= 0.5\nmse = 0.0014\nsamples = 7\nvalue = 0.09"] ;
323 -> 324 ;
325 [label="mse = -0.0\nsamples = 3\nvalue = 0.05"] ;
324 -> 325 ;
326 [label="X[254] <= 0.5\nmse = 0.0004\nsamples = 4\nvalue = 0.12"] ;
324 -> 326 ;
327 [label="mse = 0.0\nsamples = 2\nvalue = 0.1"] ;
326 -> 327 ;
328 [label="mse = 0.0\nsamples = 2\nvalue = 0.14"] ;
326 -> 328 ;
329 [label="X[218] <= 0.5\nmse = 0.0008\nsamples = 8\nvalue = 0.1475"] ;
323 -> 329 ;
330 [label="mse = 0.0\nsamples = 2\nvalue = 0.19"] ;
329 -> 330 ;
331 [label="X[296] <= 0.5\nmse = 0.0002\nsamples = 6\nvalue = 0.1333"] ;
329 -> 331 ;
332 [label="mse = 0.0\nsamples = 1\nvalue = 0.1"] ;
331 -> 332 ;
333 [label="mse = -0.0\nsamples = 5\nvalue = 0.14"] ;
331 -> 333 ;
334 [label="X[9] <= 0.5\nmse = 0.0073\nsamples = 113\nvalue = 0.2083"] ;
254 -> 334 ;
335 [label="X[51] <= 0.5\nmse = 0.0041\nsamples = 52\nvalue = 0.1563"] ;
334 -> 335 ;
336 [label="X[122] <= 0.5\nmse = 0.0033\nsamples = 31\nvalue = 0.1271"] ;
335 -> 336 ;
337 [label="X[272] <= 0.5\nmse = 0.0018\nsamples = 22\nvalue = 0.1055"] ;
336 -> 337 ;
338 [label="X[305] <= 0.5\nmse = 0.0006\nsamples = 5\nvalue = 0.16"] ;
337 -> 338 ;
339 [label="mse = -0.0\nsamples = 3\nvalue = 0.14"] ;
338 -> 339 ;
340 [label="mse = 0.0\nsamples = 2\nvalue = 0.19"] ;
338 -> 340 ;
341 [label="X[277] <= 0.5\nmse = 0.0011\nsamples = 17\nvalue = 0.0894"] ;
337 -> 341 ;
342 [label="X[183] <= 0.5\nmse = 0.0006\nsamples = 12\nvalue = 0.075"] ;
341 -> 342 ;
343 [label="mse = 0.0\nsamples = 4\nvalue = 0.1"] ;
342 -> 343 ;
344 [label="X[231] <= 0.5\nmse = 0.0005\nsamples = 8\nvalue = 0.0625"] ;
342 -> 344 ;
345 [label="mse = -0.0\nsamples = 5\nvalue = 0.05"] ;
344 -> 345 ;
346 [label="X[259] <= 0.5\nmse = 0.0006\nsamples = 3\nvalue = 0.0833"] ;
344 -> 346 ;
347 [label="mse = 0.0\nsamples = 1\nvalue = 0.05"] ;
346 -> 347 ;
348 [label="mse = 0.0\nsamples = 2\nvalue = 0.1"] ;
346 -> 348 ;
349 [label="X[258] <= 0.5\nmse = 0.0004\nsamples = 5\nvalue = 0.124"] ;
341 -> 349 ;
350 [label="mse = -0.0\nsamples = 3\nvalue = 0.14"] ;
349 -> 350 ;
351 [label="mse = 0.0\nsamples = 2\nvalue = 0.1"] ;
349 -> 351 ;
352 [label="X[115] <= 0.5\nmse = 0.003\nsamples = 9\nvalue = 0.18"] ;
336 -> 352 ;
353 [label="X[105] <= 0.5\nmse = 0.0011\nsamples = 7\nvalue = 0.1557"] ;
352 -> 353 ;
354 [label="mse = -0.0\nsamples = 3\nvalue = 0.19"] ;
353 -> 354 ;
355 [label="X[275] <= 0.5\nmse = 0.0003\nsamples = 4\nvalue = 0.13"] ;
353 -> 355 ;
356 [label="mse = 0.0\nsamples = 1\nvalue = 0.1"] ;
355 -> 356 ;
357 [label="mse = 0.0\nsamples = 3\nvalue = 0.14"] ;
355 -> 357 ;
358 [label="X[164] <= 0.5\nmse = 0.0006\nsamples = 2\nvalue = 0.265"] ;
352 -> 358 ;
359 [label="mse = 0.0\nsamples = 1\nvalue = 0.24"] ;
358 -> 359 ;
360 [label="mse = -0.0\nsamples = 1\nvalue = 0.29"] ;
358 -> 360 ;
361 [label="X[232] <= 0.5\nmse = 0.0021\nsamples = 21\nvalue = 0.1995"] ;
335 -> 361 ;
362 [label="X[214] <= 0.5\nmse = 0.0008\nsamples = 11\nvalue = 0.2309"] ;
361 -> 362 ;
363 [label="X[246] <= 0.5\nmse = 0.0003\nsamples = 8\nvalue = 0.2462"] ;
362 -> 363 ;
364 [label="mse = -0.0\nsamples = 7\nvalue = 0.24"] ;
363 -> 364 ;
365 [label="mse = -0.0\nsamples = 1\nvalue = 0.29"] ;
363 -> 365 ;
366 [label="mse = 0.0\nsamples = 3\nvalue = 0.19"] ;
362 -> 366 ;
367 [label="X[190] <= 0.5\nmse = 0.0011\nsamples = 10\nvalue = 0.165"] ;
361 -> 367 ;
368 [label="mse = -0.0\nsamples = 6\nvalue = 0.14"] ;
367 -> 368 ;
369 [label="X[120] <= 0.5\nmse = 0.0005\nsamples = 4\nvalue = 0.2025"] ;
367 -> 369 ;
370 [label="mse = 0.0\nsamples = 1\nvalue = 0.24"] ;
369 -> 370 ;
371 [label="mse = -0.0\nsamples = 3\nvalue = 0.19"] ;
369 -> 371 ;
372 [label="X[75] <= 0.5\nmse = 0.0058\nsamples = 61\nvalue = 0.2526"] ;
334 -> 372 ;
373 [label="X[83] <= 0.5\nmse = 0.0039\nsamples = 33\nvalue = 0.2864"] ;
372 -> 373 ;
374 [label="X[250] <= 0.5\nmse = 0.0017\nsamples = 17\nvalue = 0.3147"] ;
373 -> 374 ;
375 [label="X[175] <= 0.5\nmse = 0.0013\nsamples = 7\nvalue = 0.3514"] ;
374 -> 375 ;
376 [label="mse = -0.0\nsamples = 5\nvalue = 0.33"] ;
375 -> 376 ;
377 [label="X[42] <= 0.5\nmse = 0.0006\nsamples = 2\nvalue = 0.405"] ;
375 -> 377 ;
378 [label="mse = 0.0\nsamples = 1\nvalue = 0.43"] ;
377 -> 378 ;
379 [label="mse = -0.0\nsamples = 1\nvalue = 0.38"] ;
377 -> 379 ;
380 [label="X[257] <= 0.5\nmse = 0.0004\nsamples = 10\nvalue = 0.289"] ;
374 -> 380 ;
381 [label="X[253] <= 0.5\nmse = 0.0002\nsamples = 9\nvalue = 0.2944"] ;
380 -> 381 ;
382 [label="mse = 0.0\nsamples = 1\nvalue = 0.33"] ;
381 -> 382 ;
383 [label="mse = -0.0\nsamples = 8\nvalue = 0.29"] ;
381 -> 383 ;
384 [label="mse = -0.0\nsamples = 1\nvalue = 0.24"] ;
380 -> 384 ;
385 [label="X[150] <= 0.5\nmse = 0.0044\nsamples = 16\nvalue = 0.2562"] ;
373 -> 385 ;
386 [label="X[144] <= 0.5\nmse = 0.0038\nsamples = 8\nvalue = 0.3037"] ;
385 -> 386 ;
387 [label="X[160] <= 0.5\nmse = 0.0006\nsamples = 4\nvalue = 0.355"] ;
386 -> 387 ;
388 [label="mse = 0.0\nsamples = 2\nvalue = 0.33"] ;
387 -> 388 ;
389 [label="mse = 0.0\nsamples = 2\nvalue = 0.38"] ;
387 -> 389 ;
390 [label="X[12] <= 0.5\nmse = 0.0017\nsamples = 4\nvalue = 0.2525"] ;
386 -> 390 ;
391 [label="X[202] <= 0.5\nmse = 0.0006\nsamples = 2\nvalue = 0.215"] ;
390 -> 391 ;
392 [label="mse = 0.0\nsamples = 1\nvalue = 0.24"] ;
391 -> 392 ;
393 [label="mse = 0.0\nsamples = 1\nvalue = 0.19"] ;
391 -> 393 ;
394 [label="mse = -0.0\nsamples = 2\nvalue = 0.29"] ;
390 -> 394 ;
395 [label="X[273] <= 0.5\nmse = 0.0006\nsamples = 8\nvalue = 0.2087"] ;
385 -> 395 ;
396 [label="mse = 0.0\nsamples = 5\nvalue = 0.19"] ;
395 -> 396 ;
397 [label="mse = 0.0\nsamples = 3\nvalue = 0.24"] ;
395 -> 397 ;
398 [label="X[153] <= 0.5\nmse = 0.0052\nsamples = 28\nvalue = 0.2129"] ;
372 -> 398 ;
399 [label="X[268] <= 0.5\nmse = 0.0044\nsamples = 12\nvalue = 0.2667"] ;
398 -> 399 ;
400 [label="X[44] <= 0.5\nmse = 0.0011\nsamples = 6\nvalue = 0.3183"] ;
399 -> 400 ;
401 [label="mse = 0.0\nsamples = 3\nvalue = 0.29"] ;
400 -> 401 ;
402 [label="X[135] <= 0.5\nmse = 0.0006\nsamples = 3\nvalue = 0.3467"] ;
400 -> 402 ;
403 [label="mse = 0.0\nsamples = 1\nvalue = 0.38"] ;
402 -> 403 ;
404 [label="mse = 0.0\nsamples = 2\nvalue = 0.33"] ;
402 -> 404 ;
405 [label="X[329] <= 0.5\nmse = 0.0023\nsamples = 6\nvalue = 0.215"] ;
399 -> 405 ;
406 [label="X[145] <= 0.5\nmse = 0.0006\nsamples = 3\nvalue = 0.2567"] ;
405 -> 406 ;
407 [label="mse = 0.0\nsamples = 1\nvalue = 0.29"] ;
406 -> 407 ;
408 [label="mse = -0.0\nsamples = 2\nvalue = 0.24"] ;
406 -> 408 ;
409 [label="X[311] <= 0.5\nmse = 0.0006\nsamples = 3\nvalue = 0.1733"] ;
405 -> 409 ;
410 [label="mse = 0.0\nsamples = 1\nvalue = 0.14"] ;
409 -> 410 ;
411 [label="mse = -0.0\nsamples = 2\nvalue = 0.19"] ;
409 -> 411 ;
412 [label="X[150] <= 0.5\nmse = 0.002\nsamples = 16\nvalue = 0.1725"] ;
398 -> 412 ;
413 [label="X[24] <= 0.5\nmse = 0.0011\nsamples = 11\nvalue = 0.1509"] ;
412 -> 413 ;
414 [label="X[125] <= 0.5\nmse = 0.0004\nsamples = 5\nvalue = 0.124"] ;
413 -> 414 ;
415 [label="mse = 0.0\nsamples = 3\nvalue = 0.14"] ;
414 -> 415 ;
416 [label="mse = 0.0\nsamples = 2\nvalue = 0.1"] ;
414 -> 416 ;
417 [label="X[244] <= 0.5\nmse = 0.0006\nsamples = 6\nvalue = 0.1733"] ;
413 -> 417 ;
418 [label="mse = 0.0\nsamples = 4\nvalue = 0.19"] ;
417 -> 418 ;
419 [label="mse = -0.0\nsamples = 2\nvalue = 0.14"] ;
417 -> 419 ;
420 [label="X[284] <= 0.5\nmse = 0.0006\nsamples = 5\nvalue = 0.22"] ;
412 -> 420 ;
421 [label="mse = -0.0\nsamples = 3\nvalue = 0.24"] ;
420 -> 421 ;
422 [label="mse = 0.0\nsamples = 2\nvalue = 0.19"] ;
420 -> 422 ;
}