digraph Tree {
node [shape=box] ;
0 [label="X[14] <= 0.5\nmse = 0.0115\nsamples = 500\nvalue = 0.2266"] ;
1 [label="X[104] <= 0.5\nmse = 0.0104\nsamples = 283\nvalue = 0.2695"] ;
0 -> 1 [labeldistance=2.5, labelangle=45, headlabel="True"] ;
2 [label="X[75] <= 0.5\nmse = 0.0071\nsamples = 142\nvalue = 0.3239"] ;
1 -> 2 ;
3 [label="X[52] <= 0.5\nmse = 0.0068\nsamples = 77\nvalue = 0.3486"] ;
2 -> 3 ;
4 [label="X[226] <= 0.5\nmse = 0.0055\nsamples = 32\nvalue = 0.3066"] ;
3 -> 4 ;
5 [label="X[35] <= 0.5\nmse = 0.0024\nsamples = 18\nvalue = 0.3494"] ;
4 -> 5 ;
6 [label="X[145] <= 0.5\nmse = 0.001\nsamples = 8\nvalue = 0.3113"] ;
5 -> 6 ;
7 [label="X[65] <= 0.5\nmse = 0.0003\nsamples = 7\nvalue = 0.3014"] ;
6 -> 7 ;
8 [label="mse = 0.0\nsamples = 2\nvalue = 0.33"] ;
7 -> 8 ;
9 [label="mse = 0.0\nsamples = 5\nvalue = 0.29"] ;
7 -> 9 ;
10 [label="mse = -0.0\nsamples = 1\nvalue = 0.38"] ;
6 -> 10 ;
11 [label="X[161] <= 0.5\nmse = 0.0015\nsamples = 10\nvalue = 0.38"] ;
5 -> 11 ;
12 [label="X[325] <= 0.5\nmse = 0.0006\nsamples = 7\nvalue = 0.4014"] ;
11 -> 12 ;
13 [label="mse = 0.0\nsamples = 3\nvalue = 0.43"] ;
12 -> 13 ;
14 [label="mse = -0.0\nsamples = 4\nvalue = 0.38"] ;
12 -> 14 ;
15 [label="mse = 0.0\nsamples = 3\nvalue = 0.33"] ;
11 -> 15 ;
16 [label="X[45] <= 0.5\nmse = 0.004\nsamples = 14\nvalue = 0.2514"] ;
4 -> 16 ;
17 [label="X[83] <= 0.5\nmse = 0.0024\nsamples = 8\nvalue = 0.2912"] ;
16 -> 17 ;
18 [label="X[7] <= 0.5\nmse = 0.0004\nsamples = 6\nvalue = 0.3167"] ;
17 -> 18 ;
19 [label="mse = 0.0\nsamples = 2\nvalue = 0.29"] ;
18 -> 19 ;
20 [label="mse = -0.0\nsamples = 4\nvalue = 0.33"] ;
18 -> 20 ;
21 [label="X[56] <= 0.5\nmse = 0.0006\nsamples = 2\nvalue = 0.215"] ;
17 -> 21 ;
22 [label="mse = 0.0\nsamples = 1\nvalue = 0.19"] ;
21 -> 22 ;
23 [label="mse = 0.0\nsamples = 1\nvalue = 0.24"] ;
21 -> 23 ;
24 [label="X[177] <= 0.5\nmse = 0.0012\nsamples = 6\nvalue = 0.1983"] ;
16 -> 24 ;
25 [label="mse = 0.0\nsamples = 2\nvalue = 0.24"] ;
24 -> 25 ;
26 [label="X[171] <= 0.5\nmse = 0.0005\nsamples = 4\nvalue = 0.1775"] ;
24 -> 26 ;
27 [label="mse = 0.0\nsamples = 3\nvalue = 0.19"] ;
26 -> 27 ;
28 [label="mse = 0.0\nsamples = 1\nvalue = 0.14"] ;
26 -> 28 ;
29 [label="X[51] <= 0.5\nmse = 0.0056\nsamples = 45\nvalue = 0.3784"] ;
3 -> 29 ;
30 [label="X[5] <= 0.5\nmse = 0.0042\nsamples = 25\nvalue = 0.3428"] ;
29 -> 30 ;
31 [label="X[29] <= 0.5\nmse = 0.0021\nsamples = 13\nvalue = 0.3108"] ;
30 -> 31 ;
32 [label="X[261] <= 0.5\nmse = 0.0005\nsamples = 7\nvalue = 0.3443"] ;
31 -> 32 ;
33 [label="mse = 0.0\nsamples = 2\nvalue = 0.38"] ;
32 -> 33 ;
34 [label="mse = -0.0\nsamples = 5\nvalue = 0.33"] ;
32 -> 34 ;
35 [label="X[136] <= 0.5\nmse = 0.0012\nsamples = 6\nvalue = 0.2717"] ;
31 -> 35 ;
36 [label="X[202] <= 0.5\nmse = 0.0004\nsamples = 3\nvalue = 0.3033"] ;
35 -> 36 ;
37 [label="mse = 0.0\nsamples = 2\nvalue = 0.29"] ;
36 -> 37 ;
38 [label="mse = -0.0\nsamples = 1\nvalue = 0.33"] ;
36 -> 38 ;
39 [label="mse = -0.0\nsamples = 3\nvalue = 0.24"] ;
35 -> 39 ;
40 [label="X[13] <= 0.5\nmse = 0.0041\nsamples = 12\nvalue = 0.3775"] ;
30 -> 40 ;
41 [label="mse = 0.0\nsamples = 2\nvalue = 0.48"] ;
40 -> 41 ;
42 [label="X[66] <= 0.5\nmse = 0.0023\nsamples = 10\nvalue = 0.357"] ;
40 -> 42 ;
43 [label="X[161] <= 0.5\nmse = 0.0006\nsamples = 4\nvalue = 0.405"] ;
42 -> 43 ;
44 [label="mse = 0.0\nsamples = 2\nvalue = 0.38"] ;
43 -> 44 ;
45 [label="mse = 0.0\nsamples = 2\nvalue = 0.43"] ;
43 -> 45 ;
46 [label="X[171] <= 0.5\nmse = 0.0009\nsamples = 6\nvalue = 0.325"] ;
42 -> 46 ;
47 [label="X[36] <= 0.5\nmse = 0.0005\nsamples = 4\nvalue = 0.3425"] ;
46 -> 47 ;
48 [label="mse = 0.0\nsamples = 1\nvalue = 0.38"] ;
47 -> 48 ;
49 [label="mse = -0.0\nsamples = 3\nvalue = 0.33"] ;
47 -> 49 ;
50 [label="mse = -0.0\nsamples = 2\nvalue = 0.29"] ;
46 -> 50 ;
51 [label="X[76] <= 0.5\nmse = 0.0038\nsamples = 20\nvalue = 0.423"] ;
29 -> 51 ;
52 [label="X[12] <= 0.5\nmse = 0.0029\nsamples = 10\nvalue = 0.466"] ;
51 -> 52 ;
53 [label="X[322] <= 0.5\nmse = 0.0006\nsamples = 4\nvalue = 0.405"] ;
52 -> 53 ;
54 [label="mse = 0.0\nsamples = 2\nvalue = 0.43"] ;
53 -> 54 ;
55 [label="mse = -0.0\nsamples = 2\nvalue = 0.38"] ;
53 -> 55 ;
56 [label="X[161] <= 0.5\nmse = 0.0004\nsamples = 6\nvalue = 0.5067"] ;
52 -> 56 ;
57 [label="mse = 0.0\nsamples = 2\nvalue = 0.48"] ;
56 -> 57 ;
58 [label="mse = -0.0\nsamples = 4\nvalue = 0.52"] ;
56 -> 58 ;
59 [label="X[84] <= 0.5\nmse = 0.001\nsamples = 10\nvalue = 0.38"] ;
51 -> 59 ;
60 [label="X[19] <= 0.5\nmse = 0.0005\nsamples = 8\nvalue = 0.3675"] ;
59 -> 60 ;
61 [label="mse = 0.0\nsamples = 2\nvalue = 0.33"] ;
60 -> 61 ;
62 [label="mse = 0.0\nsamples = 6\nvalue = 0.38"] ;
60 -> 62 ;
63 [label="mse = -0.0\nsamples = 2\nvalue = 0.43"] ;
59 -> 63 ;
64 [label="X[77] <= 0.5\nmse = 0.006\nsamples = 65\nvalue = 0.2948"] ;
2 -> 64 ;
65 [label="X[5] <= 0.5\nmse = 0.0041\nsamples = 29\nvalue = 0.2566"] ;
64 -> 65 ;
66 [label="X[50] <= 0.5\nmse = 0.0017\nsamples = 17\nvalue = 0.2224"] ;
65 -> 66 ;
67 [label="mse = 0.0\nsamples = 2\nvalue = 0.14"] ;
66 -> 67 ;
68 [label="X[35] <= 0.5\nmse = 0.001\nsamples = 15\nvalue = 0.2333"] ;
66 -> 68 ;
69 [label="X[101] <= 0.5\nmse = 0.0005\nsamples = 7\nvalue = 0.2543"] ;
68 -> 69 ;
70 [label="mse = 0.0\nsamples = 5\nvalue = 0.24"] ;
69 -> 70 ;
71 [label="mse = -0.0\nsamples = 2\nvalue = 0.29"] ;
69 -> 71 ;
72 [label="X[311] <= 0.5\nmse = 0.0006\nsamples = 8\nvalue = 0.215"] ;
68 -> 72 ;
73 [label="mse = 0.0\nsamples = 4\nvalue = 0.24"] ;
72 -> 73 ;
74 [label="mse = -0.0\nsamples = 4\nvalue = 0.19"] ;
72 -> 74 ;
75 [label="X[97] <= 0.5\nmse = 0.0035\nsamples = 12\nvalue = 0.305"] ;
65 -> 75 ;
76 [label="X[79] <= 0.5\nmse = 0.0009\nsamples = 7\nvalue = 0.3386"] ;
75 -> 76 ;
77 [label="mse = 0.0\nsamples = 2\nvalue = 0.38"] ;
76 -> 77 ;
78 [label="X[90] <= 0.5\nmse = 0.0003\nsamples = 5\nvalue = 0.322"] ;
76 -> 78 ;
79 [label="mse = 0.0\nsamples = 4\nvalue = 0.33"] ;
78 -> 79 ;
80 [label="mse = -0.0\nsamples = 1\nvalue = 0.29"] ;
78 -> 80 ;
81 [label="X[81] <= 0.5\nmse = 0.0033\nsamples = 5\nvalue = 0.258"] ;
75 -> 81 ;
82 [label="X[78] <= 0.5\nmse = 0.0004\nsamples = 3\nvalue = 0.3033"] ;
81 -> 82 ;
83 [label="mse = 0.0\nsamples = 2\nvalue = 0.29"] ;
82 -> 83 ;
84 [label="mse = -0.0\nsamples = 1\nvalue = 0.33"] ;
82 -> 84 ;
85 [label="mse = 0.0\nsamples = 2\nvalue = 0.19"] ;
81 -> 85 ;
86 [label="X[43] <= 0.5\nmse = 0.0053\nsamples = 36\nvalue = 0.3256"] ;
64 -> 86 ;
87 [label="X[265] <= 0.5\nmse = 0.0047\nsamples = 20\nvalue = 0.3545"] ;
86 -> 87 ;
88 [label="X[56] <= 0.5\nmse = 0.0025\nsamples = 10\nvalue = 0.395"] ;
87 -> 88 ;
89 [label="X[224] <= 0.5\nmse = 0.0005\nsamples = 7\nvalue = 0.3657"] ;
88 -> 89 ;
90 [label="mse = 0.0\nsamples = 5\nvalue = 0.38"] ;
89 -> 90 ;
91 [label="mse = -0.0\nsamples = 2\nvalue = 0.33"] ;
89 -> 91 ;
92 [label="X[155] <= 0.5\nmse = 0.0006\nsamples = 3\nvalue = 0.4633"] ;
88 -> 92 ;
93 [label="mse = 0.0\nsamples = 2\nvalue = 0.48"] ;
92 -> 93 ;
94 [label="mse = 0.0\nsamples = 1\nvalue = 0.43"] ;
92 -> 94 ;
95 [label="X[244] <= 0.5\nmse = 0.0036\nsamples = 10\nvalue = 0.314"] ;
87 -> 95 ;
96 [label="X[145] <= 0.5\nmse = 0.0006\nsamples = 5\nvalue = 0.36"] ;
95 -> 96 ;
97 [label="mse = -0.0\nsamples = 3\nvalue = 0.38"] ;
96 -> 97 ;
98 [label="mse = -0.0\nsamples = 2\nvalue = 0.33"] ;
96 -> 98 ;
99 [label="X[9] <= 0.5\nmse = 0.0023\nsamples = 5\nvalue = 0.268"] ;
95 -> 99 ;
100 [label="X[329] <= 0.5\nmse = 0.0006\nsamples = 2\nvalue = 0.215"] ;
99 -> 100 ;
101 [label="mse = 0.0\nsamples = 1\nvalue = 0.19"] ;
100 -> 101 ;
102 [label="mse = 0.0\nsamples = 1\nvalue = 0.24"] ;
100 -> 102 ;
103 [label="X[118] <= 0.5\nmse = 0.0004\nsamples = 3\nvalue = 0.3033"] ;
99 -> 103 ;
104 [label="mse = 0.0\nsamples = 2\nvalue = 0.29"] ;
103 -> 104 ;
105 [label="mse = -0.0\nsamples = 1\nvalue = 0.33"] ;
103 -> 105 ;
106 [label="X[26] <= 0.5\nmse = 0.0038\nsamples = 16\nvalue = 0.2894"] ;
86 -> 106 ;
107 [label="X[190] <= 0.5\nmse = 0.0024\nsamples = 15\nvalue = 0.2993"] ;
106 -> 107 ;
108 [label="X[23] <= 0.5\nmse = 0.0014\nsamples = 5\nvalue = 0.25"] ;
107 -> 108 ;
109 [label="X[254] <= 0.5\nmse = 0.0006\nsamples = 3\nvalue = 0.2233"] ;
108 -> 109 ;
110 [label="mse = 0.0\nsamples = 1\nvalue = 0.19"] ;
109 -> 110 ;
111 [label="mse = 0.0\nsamples = 2\nvalue = 0.24"] ;
109 -> 111 ;
112 [label="mse = -0.0\nsamples = 2\nvalue = 0.29"] ;
108 -> 112 ;
113 [label="X[109] <= 0.5\nmse = 0.0011\nsamples = 10\nvalue = 0.324"] ;
107 -> 113 ;
114 [label="X[310] <= 0.5\nmse = 0.0003\nsamples = 5\nvalue = 0.298"] ;
113 -> 114 ;
115 [label="mse = 0.0\nsamples = 4\nvalue = 0.29"] ;
114 -> 115 ;
116 [label="mse = 0.0\nsamples = 1\nvalue = 0.33"] ;
114 -> 116 ;
117 [label="X[325] <= 0.5\nmse = 0.0006\nsamples = 5\nvalue = 0.35"] ;
113 -> 117 ;
118 [label="mse = 0.0\nsamples = 2\nvalue = 0.38"] ;
117 -> 118 ;
119 [label="mse = 0.0\nsamples = 3\nvalue = 0.33"] ;
117 -> 119 ;
120 [label="mse = -0.0\nsamples = 1\nvalue = 0.14"] ;
106 -> 120 ;
121 [label="X[51] <= 0.5\nmse = 0.0077\nsamples = 141\nvalue = 0.2146"] ;
1 -> 121 ;
122 [label="X[105] <= 0.5\nmse = 0.005\nsamples = 69\nvalue = 0.1806"] ;
121 -> 122 ;
123 [label="X[52] <= 0.5\nmse = 0.0038\nsamples = 27\nvalue = 0.1441"] ;
122 -> 123 ;
124 [label="X[25] <= 0.5\nmse = 0.0024\nsamples = 13\nvalue = 0.1115"] ;
123 -> 124 ;
125 [label="X[243] <= 0.5\nmse = 0.0018\nsamples = 6\nvalue = 0.15"] ;
124 -> 125 ;
126 [label="X[235] <= 0.5\nmse = 0.0003\nsamples = 5\nvalue = 0.132"] ;
125 -> 126 ;
127 [label="mse = 0.0\nsamples = 4\nvalue = 0.14"] ;
126 -> 127 ;
128 [label="mse = 0.0\nsamples = 1\nvalue = 0.1"] ;
126 -> 128 ;
129 [label="mse = 0.0\nsamples = 1\nvalue = 0.24"] ;
125 -> 129 ;
130 [label="X[258] <= 0.5\nmse = 0.0006\nsamples = 7\nvalue = 0.0786"] ;
124 -> 130 ;
131 [label="mse = -0.0\nsamples = 3\nvalue = 0.05"] ;
130 -> 131 ;
132 [label="mse = 0.0\nsamples = 4\nvalue = 0.1"] ;
130 -> 132 ;
133 [label="X[273] <= 0.5\nmse = 0.0031\nsamples = 14\nvalue = 0.1743"] ;
123 -> 133 ;
134 [label="X[139] <= 0.5\nmse = 0.0018\nsamples = 8\nvalue = 0.2087"] ;
133 -> 134 ;
135 [label="X[190] <= 0.5\nmse = 0.0004\nsamples = 5\nvalue = 0.18"] ;
134 -> 135 ;
136 [label="mse = 0.0\nsamples = 4\nvalue = 0.19"] ;
135 -> 136 ;
137 [label="mse = 0.0\nsamples = 1\nvalue = 0.14"] ;
135 -> 137 ;
138 [label="X[147] <= 0.5\nmse = 0.0006\nsamples = 3\nvalue = 0.2567"] ;
134 -> 138 ;
139 [label="mse = 0.0\nsamples = 1\nvalue = 0.29"] ;
138 -> 139 ;
140 [label="mse = -0.0\nsamples = 2\nvalue = 0.24"] ;
138 -> 140 ;
141 [label="X[278] <= 0.5\nmse = 0.0011\nsamples = 6\nvalue = 0.1283"] ;
133 -> 141 ;
142 [label="X[117] <= 0.5\nmse = 0.0006\nsamples = 3\nvalue = 0.1567"] ;
141 -> 142 ;
143 [label="mse = 0.0\nsamples = 2\nvalue = 0.14"] ;
142 -> 143 ;
144 [label="mse = 0.0\nsamples = 1\nvalue = 0.19"] ;
142 -> 144 ;
145 [label="mse = 0.0\nsamples = 3\nvalue = 0.1"] ;
141 -> 145 ;
146 [label="X[16] <= 0.5\nmse = 0.0044\nsamples = 42\nvalue = 0.204"] ;
122 -> 146 ;
147 [label="X[121] <= 0.5\nmse = 0.0066\nsamples = 9\nvalue = 0.2567"] ;
146 -> 147 ;
148 [label="X[36] <= 0.5\nmse = 0.0035\nsamples = 3\nvalue = 0.16"] ;
147 -> 148 ;
149 [label="mse = 0.0\nsamples = 1\nvalue = 0.24"] ;
148 -> 149 ;
150 [label="X[153] <= 0.5\nmse = 0.0004\nsamples = 2\nvalue = 0.12"] ;
148 -> 150 ;
151 [label="mse = 0.0\nsamples = 1\nvalue = 0.1"] ;
150 -> 151 ;
152 [label="mse = 0.0\nsamples = 1\nvalue = 0.14"] ;
150 -> 152 ;
153 [label="X[163] <= 0.5\nmse = 0.0011\nsamples = 6\nvalue = 0.305"] ;
147 -> 153 ;
154 [label="mse = 0.0\nsamples = 1\nvalue = 0.38"] ;
153 -> 154 ;
155 [label="mse = -0.0\nsamples = 5\nvalue = 0.29"] ;
153 -> 155 ;
156 [label="X[52] <= 0.5\nmse = 0.0029\nsamples = 33\nvalue = 0.1897"] ;
146 -> 156 ;
157 [label="X[249] <= 0.5\nmse = 0.0022\nsamples = 18\nvalue = 0.1617"] ;
156 -> 157 ;
158 [label="X[12] <= 0.5\nmse = 0.0008\nsamples = 9\nvalue = 0.1278"] ;
157 -> 158 ;
159 [label="X[299] <= 0.5\nmse = 0.0004\nsamples = 5\nvalue = 0.15"] ;
158 -> 159 ;
160 [label="mse = 0.0\nsamples = 4\nvalue = 0.14"] ;
159 -> 160 ;
161 [label="mse = -0.0\nsamples = 1\nvalue = 0.19"] ;
159 -> 161 ;
162 [label="mse = 0.0\nsamples = 4\nvalue = 0.1"] ;
158 -> 162 ;
163 [label="X[7] <= 0.5\nmse = 0.0014\nsamples = 9\nvalue = 0.1956"] ;
157 -> 163 ;
164 [label="mse = 0.0\nsamples = 2\nvalue = 0.14"] ;
163 -> 164 ;
165 [label="X[243] <= 0.5\nmse = 0.0006\nsamples = 7\nvalue = 0.2114"] ;
163 -> 165 ;
166 [label="mse = 0.0\nsamples = 3\nvalue = 0.24"] ;
165 -> 166 ;
167 [label="mse = 0.0\nsamples = 4\nvalue = 0.19"] ;
165 -> 167 ;
168 [label="X[29] <= 0.5\nmse = 0.0016\nsamples = 15\nvalue = 0.2233"] ;
156 -> 168 ;
169 [label="X[83] <= 0.5\nmse = 0.0012\nsamples = 7\nvalue = 0.2543"] ;
168 -> 169 ;
170 [label="mse = 0.0\nsamples = 3\nvalue = 0.29"] ;
169 -> 170 ;
171 [label="X[126] <= 0.5\nmse = 0.0005\nsamples = 4\nvalue = 0.2275"] ;
169 -> 171 ;
172 [label="mse = 0.0\nsamples = 1\nvalue = 0.19"] ;
171 -> 172 ;
173 [label="mse = -0.0\nsamples = 3\nvalue = 0.24"] ;
171 -> 173 ;
174 [label="X[260] <= 0.5\nmse = 0.0003\nsamples = 8\nvalue = 0.1962"] ;
168 -> 174 ;
175 [label="mse = 0.0\nsamples = 1\nvalue = 0.24"] ;
174 -> 175 ;
176 [label="mse = 0.0\nsamples = 7\nvalue = 0.19"] ;
174 -> 176 ;
177 [label="X[75] <= 0.5\nmse = 0.0081\nsamples = 72\nvalue = 0.2472"] ;
121 -> 177 ;
178 [label="X[206] <= 0.5\nmse = 0.0076\nsamples = 28\nvalue = 0.2889"] ;
177 -> 178 ;
179 [label="X[180] <= 0.5\nmse = 0.0065\nsamples = 3\nvalue = 0.41"] ;
178 -> 179 ;
180 [label="mse = 0.0\nsamples = 1\nvalue = 0.52"] ;
179 -> 180 ;
181 [label="X[47] <= 0.5\nmse = 0.0006\nsamples = 2\nvalue = 0.355"] ;
179 -> 181 ;
182 [label="mse = 0.0\nsamples = 1\nvalue = 0.38"] ;
181 -> 182 ;
183 [label="mse = 0.0\nsamples = 1\nvalue = 0.33"] ;
181 -> 183 ;
184 [label="X[160] <= 0.5\nmse = 0.0058\nsamples = 25\nvalue = 0.2744"] ;
178 -> 184 ;
185 [label="X[321] <= 0.5\nmse = 0.0037\nsamples = 10\nvalue = 0.224"] ;
184 -> 185 ;
186 [label="X[155] <= 0.5\nmse = 0.0011\nsamples = 8\nvalue = 0.2025"] ;
185 -> 186 ;
187 [label="mse = 0.0\nsamples = 3\nvalue = 0.24"] ;
186 -> 187 ;
188 [label="X[150] <= 0.5\nmse = 0.0004\nsamples = 5\nvalue = 0.18"] ;
186 -> 188 ;
189 [label="mse = -0.0\nsamples = 4\nvalue = 0.19"] ;
188 -> 189 ;
190 [label="mse = 0.0\nsamples = 1\nvalue = 0.14"] ;
188 -> 190 ;
191 [label="X[20] <= 0.5\nmse = 0.0049\nsamples = 2\nvalue = 0.31"] ;
185 -> 191 ;
192 [label="mse = 0.0\nsamples = 1\nvalue = 0.24"] ;
191 -> 192 ;
193 [label="mse = 0.0\nsamples = 1\nvalue = 0.38"] ;
191 -> 193 ;
194 [label="X[87] <= 0.5\nmse = 0.0044\nsamples = 15\nvalue = 0.308"] ;
184 -> 194 ;
195 [label="X[301] <= 0.5\nmse = 0.0029\nsamples = 9\nvalue = 0.2711"] ;
194 -> 195 ;
196 [label="X[208] <= 0.5\nmse = 0.0004\nsamples = 5\nvalue = 0.23"] ;
195 -> 196 ;
197 [label="mse = 0.0\nsamples = 1\nvalue = 0.19"] ;
196 -> 197 ;
198 [label="mse = 0.0\nsamples = 4\nvalue = 0.24"] ;
196 -> 198 ;
199 [label="X[7] <= 0.5\nmse = 0.0014\nsamples = 4\nvalue = 0.3225"] ;
195 -> 199 ;
200 [label="mse = 0.0\nsamples = 1\nvalue = 0.38"] ;
199 -> 200 ;
201 [label="X[137] <= 0.5\nmse = 0.0004\nsamples = 3\nvalue = 0.3033"] ;
199 -> 201 ;
202 [label="mse = 0.0\nsamples = 2\nvalue = 0.29"] ;
201 -> 202 ;
203 [label="mse = -0.0\nsamples = 1\nvalue = 0.33"] ;
201 -> 203 ;
204 [label="X[277] <= 0.5\nmse = 0.0014\nsamples = 6\nvalue = 0.3633"] ;
194 -> 204 ;
205 [label="mse = 0.0\nsamples = 3\nvalue = 0.33"] ;
204 -> 205 ;
206 [label="X[118] <= 0.5\nmse = 0.0006\nsamples = 3\nvalue = 0.3967"] ;
204 -> 206 ;
207 [label="mse = 0.0\nsamples = 1\nvalue = 0.43"] ;
206 -> 207 ;
208 [label="mse = 0.0\nsamples = 2\nvalue = 0.38"] ;
206 -> 208 ;
209 [label="X[121] <= 0.5\nmse = 0.0066\nsamples = 44\nvalue = 0.2207"] ;
177 -> 209 ;
210 [label="X[326] <= 0.5\nmse = 0.005\nsamples = 18\nvalue = 0.17"] ;
209 -> 210 ;
211 [label="X[206] <= 0.5\nmse = 0.0037\nsamples = 17\nvalue = 0.1606"] ;
210 -> 211 ;
212 [label="X[53] <= 0.5\nmse = 0.0006\nsamples = 2\nvalue = 0.265"] ;
211 -> 212 ;
213 [label="mse = 0.0\nsamples = 1\nvalue = 0.29"] ;
212 -> 213 ;
214 [label="mse = -0.0\nsamples = 1\nvalue = 0.24"] ;
212 -> 214 ;
215 [label="X[176] <= 0.5\nmse = 0.0024\nsamples = 15\nvalue = 0.1467"] ;
211 -> 215 ;
216 [label="X[15] <= 0.5\nmse = 0.0014\nsamples = 10\nvalue = 0.171"] ;
215 -> 216 ;
217 [label="X[229] <= 0.5\nmse = 0.0004\nsamples = 3\nvalue = 0.1267"] ;
216 -> 217 ;
218 [label="mse = 0.0\nsamples = 1\nvalue = 0.1"] ;
217 -> 218 ;
219 [label="mse = 0.0\nsamples = 2\nvalue = 0.14"] ;
217 -> 219 ;
220 [label="X[153] <= 0.5\nmse = 0.0007\nsamples = 7\nvalue = 0.19"] ;
216 -> 220 ;
221 [label="mse = 0.0\nsamples = 1\nvalue = 0.14"] ;
220 -> 221 ;
222 [label="X[34] <= 0.5\nmse = 0.0003\nsamples = 6\nvalue = 0.1983"] ;
220 -> 222 ;
223 [label="mse = 0.0\nsamples = 5\nvalue = 0.19"] ;
222 -> 223 ;
224 [label="mse = 0.0\nsamples = 1\nvalue = 0.24"] ;
222 -> 224 ;
225 [label="X[260] <= 0.5\nmse = 0.0008\nsamples = 5\nvalue = 0.098"] ;
215 -> 225 ;
226 [label="mse = 0.0\nsamples = 1\nvalue = 0.05"] ;
225 -> 226 ;
227 [label="X[94] <= 0.5\nmse = 0.0003\nsamples = 4\nvalue = 0.11"] ;
225 -> 227 ;
228 [label="mse = 0.0\nsamples = 1\nvalue = 0.14"] ;
227 -> 228 ;
229 [label="mse = -0.0\nsamples = 3\nvalue = 0.1"] ;
227 -> 229 ;
230 [label="mse = 0.0\nsamples = 1\nvalue = 0.33"] ;
210 -> 230 ;
231 [label="X[268] <= 0.5\nmse = 0.0046\nsamples = 26\nvalue = 0.2558"] ;
209 -> 231 ;
232 [label="X[238] <= 0.5\nmse = 0.0026\nsamples = 17\nvalue = 0.2224"] ;
231 -> 232 ;
233 [label="X[137] <= 0.5\nmse = 0.001\nsamples = 8\nvalue = 0.2575"] ;
232 -> 233 ;
234 [label="mse = -0.0\nsamples = 6\nvalue = 0.24"] ;
233 -> 234 ;
235 [label="X[36] <= 0.5\nmse = 0.0004\nsamples = 2\nvalue = 0.31"] ;
233 -> 235 ;
236 [label="mse = 0.0\nsamples = 1\nvalue = 0.33"] ;
235 -> 236 ;
237 [label="mse = 0.0\nsamples = 1\nvalue = 0.29"] ;
235 -> 237 ;
238 [label="X[76] <= 0.5\nmse = 0.002\nsamples = 9\nvalue = 0.1911"] ;
232 -> 238 ;
239 [label="X[209] <= 0.5\nmse = 0.0014\nsamples = 3\nvalue = 0.1433"] ;
238 -> 239 ;
240 [label="mse = 0.0\nsamples = 1\nvalue = 0.19"] ;
239 -> 240 ;
241 [label="X[108] <= 0.5\nmse = 0.0004\nsamples = 2\nvalue = 0.12"] ;
239 -> 241 ;
242 [label="mse = 0.0\nsamples = 1\nvalue = 0.1"] ;
241 -> 242 ;
243 [label="mse = 0.0\nsamples = 1\nvalue = 0.14"] ;
241 -> 243 ;
244 [label="X[173] <= 0.5\nmse = 0.0006\nsamples = 6\nvalue = 0.215"] ;
238 -> 244 ;
245 [label="mse = 0.0\nsamples = 3\nvalue = 0.24"] ;
244 -> 245 ;
246 [label="mse = 0.0\nsamples = 3\nvalue = 0.19"] ;
244 -> 246 ;
247 [label="X[84] <= 0.5\nmse = 0.0023\nsamples = 9\nvalue = 0.3189"] ;
231 -> 247 ;
248 [label="X[146] <= 0.5\nmse = 0.0013\nsamples = 5\nvalue = 0.352"] ;
247 -> 248 ;
249 [label="mse = 0.0\nsamples = 3\nvalue = 0.38"] ;
248 -> 249 ;
250 [label="X[5] <= 0.5\nmse = 0.0004\nsamples = 2\nvalue = 0.31"] ;
248 -> 250 ;
251 [label="mse = 0.0\nsamples = 1\nvalue = 0.29"] ;
250 -> 251 ;
252 [label="mse = 0.0\nsamples = 1\nvalue = 0.33"] ;
250 -> 252 ;
253 [label="X[254] <= 0.5\nmse = 0.0005\nsamples = 4\nvalue = 0.2775"] ;
247 -> 253 ;
254 [label="mse = 0.0\nsamples = 1\nvalue = 0.24"] ;
253 -> 254 ;
255 [label="mse = 0.0\nsamples = 3\nvalue = 0.29"] ;
253 -> 255 ;
256 [label="X[52] <= 0.5\nmse = 0.0073\nsamples = 217\nvalue = 0.1708"] ;
0 -> 256 [labeldistance=2.5, labelangle=-45, headlabel="False"] ;
257 [label="X[104] <= 0.5\nmse = 0.0036\nsamples = 109\nvalue = 0.1295"] ;
256 -> 257 ;
258 [label="X[100] <= 0.5\nmse = 0.0029\nsamples = 61\nvalue = 0.1516"] ;
257 -> 258 ;
259 [label="X[143] <= 0.5\nmse = 0.001\nsamples = 13\nvalue = 0.1108"] ;
258 -> 259 ;
260 [label="mse = 0.0\nsamples = 2\nvalue = 0.05"] ;
259 -> 260 ;
261 [label="X[45] <= 0.5\nmse = 0.0004\nsamples = 11\nvalue = 0.1218"] ;
259 -> 261 ;
262 [label="X[197] <= 0.5\nmse = 0.0002\nsamples = 6\nvalue = 0.1067"] ;
261 -> 262 ;
263 [label="mse = 0.0\nsamples = 1\nvalue = 0.14"] ;
262 -> 263 ;
264 [label="mse = -0.0\nsamples = 5\nvalue = 0.1"] ;
262 -> 264 ;
265 [label="mse = -0.0\nsamples = 5\nvalue = 0.14"] ;
261 -> 265 ;
266 [label="X[298] <= 0.5\nmse = 0.0028\nsamples = 48\nvalue = 0.1627"] ;
258 -> 266 ;
267 [label="X[4] <= 0.5\nmse = 0.0021\nsamples = 23\nvalue = 0.1374"] ;
266 -> 267 ;
268 [label="X[313] <= 0.5\nmse = 0.002\nsamples = 6\nvalue = 0.1817"] ;
267 -> 268 ;
269 [label="mse = 0.0\nsamples = 3\nvalue = 0.14"] ;
268 -> 269 ;
270 [label="X[276] <= 0.5\nmse = 0.0006\nsamples = 3\nvalue = 0.2233"] ;
268 -> 270 ;
271 [label="mse = 0.0\nsamples = 1\nvalue = 0.19"] ;
270 -> 271 ;
272 [label="mse = 0.0\nsamples = 2\nvalue = 0.24"] ;
270 -> 272 ;
273 [label="X[208] <= 0.5\nmse = 0.0012\nsamples = 17\nvalue = 0.1218"] ;
267 -> 273 ;
274 [label="X[294] <= 0.5\nmse = 0.001\nsamples = 6\nvalue = 0.15"] ;
273 -> 274 ;
275 [label="X[30] <= 0.5\nmse = 0.0003\nsamples = 4\nvalue = 0.13"] ;
274 -> 275 ;
276 [label="mse = 0.0\nsamples = 1\nvalue = 0.1"] ;
275 -> 276 ;
277 [label="mse = 0.0\nsamples = 3\nvalue = 0.14"] ;
275 -> 277 ;
278 [label="mse = 0.0\nsamples = 2\nvalue = 0.19"] ;
274 -> 278 ;
279 [label="X[152] <= 0.5\nmse = 0.0006\nsamples = 11\nvalue = 0.1064"] ;
273 -> 279 ;
280 [label="X[195] <= 0.5\nmse = 0.0003\nsamples = 4\nvalue = 0.13"] ;
279 -> 280 ;
281 [label="mse = 0.0\nsamples = 1\nvalue = 0.1"] ;
280 -> 281 ;
282 [label="mse = 0.0\nsamples = 3\nvalue = 0.14"] ;
280 -> 282 ;
283 [label="X[148] <= 0.5\nmse = 0.0003\nsamples = 7\nvalue = 0.0929"] ;
279 -> 283 ;
284 [label="mse = 0.0\nsamples = 1\nvalue = 0.05"] ;
283 -> 284 ;
285 [label="mse = 0.0\nsamples = 6\nvalue = 0.1"] ;
283 -> 285 ;
286 [label="X[327] <= 0.5\nmse = 0.0024\nsamples = 25\nvalue = 0.186"] ;
266 -> 286 ;
287 [label="X[45] <= 0.5\nmse = 0.0024\nsamples = 10\nvalue = 0.219"] ;
286 -> 287 ;
288 [label="X[187] <= 0.5\nmse = 0.002\nsamples = 2\nvalue = 0.285"] ;
287 -> 288 ;
289 [label="mse = 0.0\nsamples = 1\nvalue = 0.33"] ;
288 -> 289 ;
290 [label="mse = -0.0\nsamples = 1\nvalue = 0.24"] ;
288 -> 290 ;
291 [label="X[198] <= 0.5\nmse = 0.0011\nsamples = 8\nvalue = 0.2025"] ;
287 -> 291 ;
292 [label="X[255] <= 0.5\nmse = 0.0004\nsamples = 5\nvalue = 0.18"] ;
291 -> 292 ;
293 [label="mse = 0.0\nsamples = 1\nvalue = 0.14"] ;
292 -> 293 ;
294 [label="mse = 0.0\nsamples = 4\nvalue = 0.19"] ;
292 -> 294 ;
295 [label="mse = 0.0\nsamples = 3\nvalue = 0.24"] ;
291 -> 295 ;
296 [label="X[127] <= 0.5\nmse = 0.0012\nsamples = 15\nvalue = 0.164"] ;
286 -> 296 ;
297 [label="X[303] <= 0.5\nmse = 0.0004\nsamples = 5\nvalue = 0.2"] ;
296 -> 297 ;
298 [label="mse = 0.0\nsamples = 1\nvalue = 0.24"] ;
297 -> 298 ;
299 [label="mse = 0.0\nsamples = 4\nvalue = 0.19"] ;
297 -> 299 ;
300 [label="X[125] <= 0.5\nmse = 0.0006\nsamples = 10\nvalue = 0.146"] ;
296 -> 300 ;
301 [label="X[224] <= 0.5\nmse = 0.0006\nsamples = 3\nvalue = 0.1733"] ;
300 -> 301 ;
302 [label="mse = 0.0\nsamples = 2\nvalue = 0.19"] ;
301 -> 302 ;
303 [label="mse = -0.0\nsamples = 1\nvalue = 0.14"] ;
301 -> 303 ;
304 [label="X[175] <= 0.5\nmse = 0.0002\nsamples = 7\nvalue = 0.1343"] ;
300 -> 304 ;
305 [label="mse = 0.0\nsamples = 1\nvalue = 0.1"] ;
304 -> 305 ;
306 [label="mse = 0.0\nsamples = 6\nvalue = 0.14"] ;
304 -> 306 ;
307 [label="X[220] <= 0.5\nmse = 0.0031\nsamples = 48\nvalue = 0.1015"] ;
257 -> 307 ;
308 [label="X[18] <= 0.5\nmse = 0.0027\nsamples = 30\nvalue = 0.1213"] ;
307 -> 308 ;
309 [label="X[153] <= 0.5\nmse = 0.0021\nsamples = 13\nvalue = 0.1538"] ;
308 -> 309 ;
310 [label="X[117] <= 0.5\nmse = 0.0004\nsamples = 7\nvalue = 0.1229"] ;
309 -> 310 ;
311 [label="mse = -0.0\nsamples = 4\nvalue = 0.14"] ;
310 -> 311 ;
312 [label="mse = 0.0\nsamples = 3\nvalue = 0.1"] ;
310 -> 312 ;
313 [label="X[44] <= 0.5\nmse = 0.0017\nsamples = 6\nvalue = 0.19"] ;
309 -> 313 ;
314 [label="X[298] <= 0.5\nmse = 0.0006\nsamples = 4\nvalue = 0.215"] ;
313 -> 314 ;
315 [label="mse = 0.0\nsamples = 2\nvalue = 0.24"] ;
314 -> 315 ;
316 [label="mse = 0.0\nsamples = 2\nvalue = 0.19"] ;
314 -> 316 ;
317 [label="mse = 0.0\nsamples = 2\nvalue = 0.14"] ;
313 -> 317 ;
318 [label="X[49] <= 0.5\nmse = 0.0017\nsamples = 17\nvalue = 0.0965"] ;
308 -> 318 ;
319 [label="X[75] <= 0.5\nmse = 0.0014\nsamples = 5\nvalue = 0.06"] ;
318 -> 319 ;
320 [label="X[265] <= 0.5\nmse = 0.0006\nsamples = 3\nvalue = 0.0333"] ;
319 -> 320 ;
321 [label="mse = 0.0\nsamples = 1\nvalue = 0.0"] ;
320 -> 321 ;
322 [label="mse = 0.0\nsamples = 2\nvalue = 0.05"] ;
320 -> 322 ;
323 [label="mse = 0.0\nsamples = 2\nvalue = 0.1"] ;
319 -> 323 ;
324 [label="X[124] <= 0.5\nmse = 0.0011\nsamples = 12\nvalue = 0.1117"] ;
318 -> 324 ;
325 [label="X[126] <= 0.5\nmse = 0.0006\nsamples = 5\nvalue = 0.08"] ;
324 -> 325 ;
326 [label="mse = 0.0\nsamples = 2\nvalue = 0.05"] ;
325 -> 326 ;
327 [label="mse = -0.0\nsamples = 3\nvalue = 0.1"] ;
325 -> 327 ;
328 [label="X[97] <= 0.5\nmse = 0.0002\nsamples = 7\nvalue = 0.1343"] ;
324 -> 328 ;
329 [label="mse = 0.0\nsamples = 1\nvalue = 0.1"] ;
328 -> 329 ;
330 [label="mse = 0.0\nsamples = 6\nvalue = 0.14"] ;
328 -> 330 ;
331 [label="X[45] <= 0.5\nmse = 0.0021\nsamples = 18\nvalue = 0.0683"] ;
307 -> 331 ;
332 [label="X[254] <= 0.5\nmse = 0.0006\nsamples = 7\nvalue = 0.0286"] ;
331 -> 332 ;
333 [label="mse = 0.0\nsamples = 4\nvalue = 0.05"] ;
332 -> 333 ;
334 [label="mse = 0.0\nsamples = 3\nvalue = 0.0"] ;
332 -> 334 ;
335 [label="X[46] <= 0.5\nmse = 0.0014\nsamples = 11\nvalue = 0.0936"] ;
331 -> 335 ;
336 [label="X[260] <= 0.5\nmse = 0.0003\nsamples = 9\nvalue = 0.1089"] ;
335 -> 336 ;
337 [label="mse = 0.0\nsamples = 2\nvalue = 0.14"] ;
336 -> 337 ;
338 [label="mse = 0.0\nsamples = 7\nvalue = 0.1"] ;
336 -> 338 ;
339 [label="X[171] <= 0.5\nmse = 0.0006\nsamples = 2\nvalue = 0.025"] ;
335 -> 339 ;
340 [label="mse = 0.0\nsamples = 1\nvalue = 0.0"] ;
339 -> 340 ;
341 [label="mse = 0.0\nsamples = 1\nvalue = 0.05"] ;
339 -> 341 ;
342 [label="X[75] <= 0.5\nmse = 0.0076\nsamples = 108\nvalue = 0.2124"] ;
256 -> 342 ;
343 [label="X[51] <= 0.5\nmse = 0.0062\nsamples = 51\nvalue = 0.251"] ;
342 -> 343 ;
344 [label="X[270] <= 0.5\nmse = 0.0053\nsamples = 24\nvalue = 0.2096"] ;
343 -> 344 ;
345 [label="X[122] <= 0.5\nmse = 0.0038\nsamples = 10\nvalue = 0.259"] ;
344 -> 345 ;
346 [label="X[207] <= 0.5\nmse = 0.0006\nsamples = 2\nvalue = 0.165"] ;
345 -> 346 ;
347 [label="mse = 0.0\nsamples = 1\nvalue = 0.19"] ;
346 -> 347 ;
348 [label="mse = -0.0\nsamples = 1\nvalue = 0.14"] ;
346 -> 348 ;
349 [label="X[205] <= 0.5\nmse = 0.0019\nsamples = 8\nvalue = 0.2825"] ;
345 -> 349 ;
350 [label="mse = 0.0\nsamples = 1\nvalue = 0.38"] ;
349 -> 350 ;
351 [label="X[199] <= 0.5\nmse = 0.0006\nsamples = 7\nvalue = 0.2686"] ;
349 -> 351 ;
352 [label="mse = -0.0\nsamples = 4\nvalue = 0.29"] ;
351 -> 352 ;
353 [label="mse = 0.0\nsamples = 3\nvalue = 0.24"] ;
351 -> 353 ;
354 [label="X[175] <= 0.5\nmse = 0.0034\nsamples = 14\nvalue = 0.1743"] ;
344 -> 354 ;
355 [label="X[73] <= 0.5\nmse = 0.0022\nsamples = 5\nvalue = 0.116"] ;
354 -> 355 ;
356 [label="X[151] <= 0.5\nmse = 0.0006\nsamples = 3\nvalue = 0.0833"] ;
355 -> 356 ;
357 [label="mse = 0.0\nsamples = 1\nvalue = 0.05"] ;
356 -> 357 ;
358 [label="mse = 0.0\nsamples = 2\nvalue = 0.1"] ;
356 -> 358 ;
359 [label="X[19] <= 0.5\nmse = 0.0006\nsamples = 2\nvalue = 0.165"] ;
355 -> 359 ;
360 [label="mse = 0.0\nsamples = 1\nvalue = 0.14"] ;
359 -> 360 ;
361 [label="mse = -0.0\nsamples = 1\nvalue = 0.19"] ;
359 -> 361 ;
362 [label="X[117] <= 0.5\nmse = 0.0011\nsamples = 9\nvalue = 0.2067"] ;
354 -> 362 ;
363 [label="X[5] <= 0.5\nmse = 0.0004\nsamples = 5\nvalue = 0.23"] ;
362 -> 363 ;
364 [label="mse = 0.0\nsamples = 1\nvalue = 0.19"] ;
363 -> 364 ;
365 [label="mse = -0.0\nsamples = 4\nvalue = 0.24"] ;
363 -> 365 ;
366 [label="X[182] <= 0.5\nmse = 0.0005\nsamples = 4\nvalue = 0.1775"] ;
362 -> 366 ;
367 [label="mse = -0.0\nsamples = 3\nvalue = 0.19"] ;
366 -> 367 ;
368 [label="mse = 0.0\nsamples = 1\nvalue = 0.14"] ;
366 -> 368 ;
369 [label="X[234] <= 0.5\nmse = 0.004\nsamples = 27\nvalue = 0.2878"] ;
343 -> 369 ;
370 [label="X[117] <= 0.5\nmse = 0.0026\nsamples = 21\nvalue = 0.3067"] ;
369 -> 370 ;
371 [label="X[196] <= 0.5\nmse = 0.0018\nsamples = 10\nvalue = 0.273"] ;
370 -> 371 ;
372 [label="X[126] <= 0.5\nmse = 0.0004\nsamples = 6\nvalue = 0.3033"] ;
371 -> 372 ;
373 [label="mse = 0.0\nsamples = 2\nvalue = 0.33"] ;
372 -> 373 ;
374 [label="mse = -0.0\nsamples = 4\nvalue = 0.29"] ;
372 -> 374 ;
375 [label="X[291] <= 0.5\nmse = 0.0005\nsamples = 4\nvalue = 0.2275"] ;
371 -> 375 ;
376 [label="mse = 0.0\nsamples = 3\nvalue = 0.24"] ;
375 -> 376 ;
377 [label="mse = -0.0\nsamples = 1\nvalue = 0.19"] ;
375 -> 377 ;
378 [label="X[77] <= 0.5\nmse = 0.0013\nsamples = 11\nvalue = 0.3373"] ;
370 -> 378 ;
379 [label="X[327] <= 0.5\nmse = 0.0004\nsamples = 7\nvalue = 0.3129"] ;
378 -> 379 ;
380 [label="mse = 0.0\nsamples = 3\nvalue = 0.29"] ;
379 -> 380 ;
381 [label="mse = -0.0\nsamples = 4\nvalue = 0.33"] ;
379 -> 381 ;
382 [label="mse = 0.0\nsamples = 4\nvalue = 0.38"] ;
378 -> 382 ;
383 [label="X[113] <= 0.5\nmse = 0.0035\nsamples = 6\nvalue = 0.2217"] ;
369 -> 383 ;
384 [label="X[84] <= 0.5\nmse = 0.0014\nsamples = 5\nvalue = 0.2"] ;
383 -> 384 ;
385 [label="mse = 0.0\nsamples = 2\nvalue = 0.24"] ;
384 -> 385 ;
386 [label="X[33] <= 0.5\nmse = 0.0006\nsamples = 3\nvalue = 0.1733"] ;
384 -> 386 ;
387 [label="mse = 0.0\nsamples = 2\nvalue = 0.19"] ;
386 -> 387 ;
388 [label="mse = 0.0\nsamples = 1\nvalue = 0.14"] ;
386 -> 388 ;
389 [label="mse = -0.0\nsamples = 1\nvalue = 0.33"] ;
383 -> 389 ;
390 [label="X[122] <= 0.5\nmse = 0.0065\nsamples = 57\nvalue = 0.1779"] ;
342 -> 390 ;
391 [label="X[51] <= 0.5\nmse = 0.0035\nsamples = 25\nvalue = 0.1212"] ;
390 -> 391 ;
392 [label="X[36] <= 0.5\nmse = 0.0026\nsamples = 16\nvalue = 0.0944"] ;
391 -> 392 ;
393 [label="X[278] <= 0.5\nmse = 0.001\nsamples = 7\nvalue = 0.0571"] ;
392 -> 393 ;
394 [label="X[200] <= 0.5\nmse = 0.0004\nsamples = 5\nvalue = 0.04"] ;
393 -> 394 ;
395 [label="mse = 0.0\nsamples = 1\nvalue = 0.0"] ;
394 -> 395 ;
396 [label="mse = 0.0\nsamples = 4\nvalue = 0.05"] ;
394 -> 396 ;
397 [label="mse = -0.0\nsamples = 2\nvalue = 0.1"] ;
393 -> 397 ;
398 [label="X[281] <= 0.5\nmse = 0.0019\nsamples = 9\nvalue = 0.1233"] ;
392 -> 398 ;
399 [label="X[48] <= 0.5\nmse = 0.0004\nsamples = 5\nvalue = 0.09"] ;
398 -> 399 ;
400 [label="mse = 0.0\nsamples = 1\nvalue = 0.05"] ;
399 -> 400 ;
401 [label="mse = 0.0\nsamples = 4\nvalue = 0.1"] ;
399 -> 401 ;
402 [label="X[174] <= 0.5\nmse = 0.0006\nsamples = 4\nvalue = 0.165"] ;
398 -> 402 ;
403 [label="mse = 0.0\nsamples = 2\nvalue = 0.14"] ;
402 -> 403 ;
404 [label="mse = -0.0\nsamples = 2\nvalue = 0.19"] ;
402 -> 404 ;
405 [label="X[141] <= 0.5\nmse = 0.0016\nsamples = 9\nvalue = 0.1689"] ;
391 -> 405 ;
406 [label="X[250] <= 0.5\nmse = 0.0004\nsamples = 5\nvalue = 0.2"] ;
405 -> 406 ;
407 [label="mse = 0.0\nsamples = 4\nvalue = 0.19"] ;
406 -> 407 ;
408 [label="mse = -0.0\nsamples = 1\nvalue = 0.24"] ;
406 -> 408 ;
409 [label="X[299] <= 0.5\nmse = 0.0003\nsamples = 4\nvalue = 0.13"] ;
405 -> 409 ;
410 [label="mse = 0.0\nsamples = 1\nvalue = 0.1"] ;
409 -> 410 ;
411 [label="mse = 0.0\nsamples = 3\nvalue = 0.14"] ;
409 -> 411 ;
412 [label="X[215] <= 0.5\nmse = 0.0043\nsamples = 32\nvalue = 0.2222"] ;
390 -> 412 ;
413 [label="X[90] <= 0.5\nmse = 0.0034\nsamples = 14\nvalue = 0.2593"] ;
412 -> 413 ;
414 [label="X[230] <= 0.5\nmse = 0.0013\nsamples = 7\nvalue = 0.2186"] ;
413 -> 414 ;
415 [label="X[108] <= 0.5\nmse = 0.0006\nsamples = 3\nvalue = 0.2567"] ;
414 -> 415 ;
416 [label="mse = 0.0\nsamples = 1\nvalue = 0.29"] ;
415 -> 416 ;
417 [label="mse = -0.0\nsamples = 2\nvalue = 0.24"] ;
415 -> 417 ;
418 [label="mse = 0.0\nsamples = 4\nvalue = 0.19"] ;
414 -> 418 ;
419 [label="X[177] <= 0.5\nmse = 0.0022\nsamples = 7\nvalue = 0.3"] ;
413 -> 419 ;
420 [label="X[265] <= 0.5\nmse = 0.0006\nsamples = 4\nvalue = 0.265"] ;
419 -> 420 ;
421 [label="mse = 0.0\nsamples = 2\nvalue = 0.24"] ;
420 -> 421 ;
422 [label="mse = -0.0\nsamples = 2\nvalue = 0.29"] ;
420 -> 422 ;
423 [label="X[161] <= 0.5\nmse = 0.0006\nsamples = 3\nvalue = 0.3467"] ;
419 -> 423 ;
424 [label="mse = 0.0\nsamples = 1\nvalue = 0.38"] ;
423 -> 424 ;
425 [label="mse = 0.0\nsamples = 2\nvalue = 0.33"] ;
423 -> 425 ;
426 [label="X[18] <= 0.5\nmse = 0.0031\nsamples = 18\nvalue = 0.1933"] ;
412 -> 426 ;
427 [label="X[46] <= 0.5\nmse = 0.0024\nsamples = 11\nvalue = 0.2218"] ;
426 -> 427 ;
428 [label="X[113] <= 0.5\nmse = 0.0006\nsamples = 5\nvalue = 0.27"] ;
427 -> 428 ;
429 [label="mse = 0.0\nsamples = 2\nvalue = 0.24"] ;
428 -> 429 ;
430 [label="mse = -0.0\nsamples = 3\nvalue = 0.29"] ;
428 -> 430 ;
431 [label="X[274] <= 0.5\nmse = 0.0003\nsamples = 6\nvalue = 0.1817"] ;
427 -> 431 ;
432 [label="mse = 0.0\nsamples = 5\nvalue = 0.19"] ;
431 -> 432 ;
433 [label="mse = 0.0\nsamples = 1\nvalue = 0.14"] ;
431 -> 433 ;
434 [label="X[115] <= 0.5\nmse = 0.0009\nsamples = 7\nvalue = 0.1486"] ;
426 -> 434 ;
435 [label="mse = 0.0\nsamples = 2\nvalue = 0.19"] ;
434 -> 435 ;
436 [label="X[167] <= 0.5\nmse = 0.0003\nsamples = 5\nvalue = 0.132"] ;
434 -> 436 ;
437 [label="mse = 0.0\nsamples = 4\nvalue = 0.14"] ;
436 -> 437 ;
438 [label="mse = 0.0\nsamples = 1\nvalue = 0.1"] ;
436 -> 438 ;
}