digraph Tree {
node [shape=box] ;
0 [label="X[6] <= 0.5\nmse = 0.0294\nsamples = 500\nvalue = 0.4173"] ;
1 [label="X[9] <= 0.5\nmse = 0.0249\nsamples = 226\nvalue = 0.2838"] ;
0 -> 1 [labeldistance=2.5, labelangle=45, headlabel="True"] ;
2 [label="X[1] <= 0.5\nmse = 0.0056\nsamples = 111\nvalue = 0.1424"] ;
1 -> 2 ;
3 [label="X[3] <= 0.5\nmse = 0.0023\nsamples = 70\nvalue = 0.0939"] ;
2 -> 3 ;
4 [label="X[4] <= 0.5\nmse = 0.0016\nsamples = 23\nvalue = 0.0417"] ;
3 -> 4 ;
5 [label="mse = 0.0\nsamples = 11\nvalue = 0.0"] ;
4 -> 5 ;
6 [label="mse = 0.0\nsamples = 12\nvalue = 0.08"] ;
4 -> 6 ;
7 [label="X[4] <= 0.5\nmse = 0.0006\nsamples = 47\nvalue = 0.1194"] ;
3 -> 7 ;
8 [label="mse = -0.0\nsamples = 17\nvalue = 0.09"] ;
7 -> 8 ;
9 [label="X[5] <= 0.5\nmse = 0.0002\nsamples = 30\nvalue = 0.136"] ;
7 -> 9 ;
10 [label="mse = -0.0\nsamples = 14\nvalue = 0.12"] ;
9 -> 10 ;
11 [label="mse = 0.0\nsamples = 16\nvalue = 0.15"] ;
9 -> 11 ;
12 [label="X[5] <= 0.5\nmse = 0.0004\nsamples = 41\nvalue = 0.2254"] ;
2 -> 12 ;
13 [label="mse = -0.0\nsamples = 26\nvalue = 0.24"] ;
12 -> 13 ;
14 [label="mse = 0.0\nsamples = 15\nvalue = 0.2"] ;
12 -> 14 ;
15 [label="X[1] <= 0.5\nmse = 0.0057\nsamples = 115\nvalue = 0.4203"] ;
1 -> 15 ;
16 [label="X[3] <= 0.5\nmse = 0.0024\nsamples = 77\nvalue = 0.3761"] ;
15 -> 16 ;
17 [label="X[4] <= 0.5\nmse = 0.0016\nsamples = 31\nvalue = 0.3287"] ;
16 -> 17 ;
18 [label="mse = 0.0\nsamples = 16\nvalue = 0.29"] ;
17 -> 18 ;
19 [label="mse = -0.0\nsamples = 15\nvalue = 0.37"] ;
17 -> 19 ;
20 [label="X[4] <= 0.5\nmse = 0.0004\nsamples = 46\nvalue = 0.408"] ;
16 -> 20 ;
21 [label="mse = 0.0\nsamples = 13\nvalue = 0.38"] ;
20 -> 21 ;
22 [label="X[5] <= 0.5\nmse = 0.0001\nsamples = 33\nvalue = 0.4191"] ;
20 -> 22 ;
23 [label="mse = -0.0\nsamples = 18\nvalue = 0.41"] ;
22 -> 23 ;
24 [label="mse = 0.0\nsamples = 15\nvalue = 0.43"] ;
22 -> 24 ;
25 [label="X[5] <= 0.5\nmse = 0.0003\nsamples = 38\nvalue = 0.51"] ;
15 -> 25 ;
26 [label="X[3] <= 0.5\nmse = 0.0\nsamples = 22\nvalue = 0.5245"] ;
25 -> 26 ;
27 [label="mse = 0.0\nsamples = 12\nvalue = 0.52"] ;
26 -> 27 ;
28 [label="mse = 0.0\nsamples = 10\nvalue = 0.53"] ;
26 -> 28 ;
29 [label="mse = 0.0\nsamples = 16\nvalue = 0.49"] ;
25 -> 29 ;
30 [label="X[1] <= 0.5\nmse = 0.0063\nsamples = 274\nvalue = 0.5274"] ;
0 -> 30 [labeldistance=2.5, labelangle=-45, headlabel="False"] ;
31 [label="X[3] <= 0.5\nmse = 0.0026\nsamples = 159\nvalue = 0.4701"] ;
30 -> 31 ;
32 [label="X[4] <= 0.5\nmse = 0.0022\nsamples = 62\nvalue = 0.4273"] ;
31 -> 32 ;
33 [label="X[8] <= 0.5\nmse = 0.0004\nsamples = 27\nvalue = 0.3778"] ;
32 -> 33 ;
34 [label="mse = -0.0\nsamples = 15\nvalue = 0.36"] ;
33 -> 34 ;
35 [label="mse = -0.0\nsamples = 12\nvalue = 0.4"] ;
33 -> 35 ;
36 [label="X[9] <= 0.5\nmse = 0.0002\nsamples = 35\nvalue = 0.4654"] ;
32 -> 36 ;
37 [label="mse = -0.0\nsamples = 18\nvalue = 0.48"] ;
36 -> 37 ;
38 [label="mse = 0.0\nsamples = 17\nvalue = 0.45"] ;
36 -> 38 ;
39 [label="X[4] <= 0.5\nmse = 0.0009\nsamples = 97\nvalue = 0.4975"] ;
31 -> 39 ;
40 [label="X[8] <= 0.5\nmse = 0.0004\nsamples = 34\nvalue = 0.4676"] ;
39 -> 40 ;
41 [label="mse = 0.0\nsamples = 19\nvalue = 0.45"] ;
40 -> 41 ;
42 [label="mse = -0.0\nsamples = 15\nvalue = 0.49"] ;
40 -> 42 ;
43 [label="X[8] <= 0.5\nmse = 0.0004\nsamples = 63\nvalue = 0.5137"] ;
39 -> 43 ;
44 [label="X[5] <= 0.5\nmse = 0.0002\nsamples = 25\nvalue = 0.4944"] ;
43 -> 44 ;
45 [label="mse = -0.0\nsamples = 13\nvalue = 0.48"] ;
44 -> 45 ;
46 [label="mse = 0.0\nsamples = 12\nvalue = 0.51"] ;
44 -> 46 ;
47 [label="X[5] <= 0.5\nmse = 0.0001\nsamples = 38\nvalue = 0.5263"] ;
43 -> 47 ;
48 [label="mse = 0.0\nsamples = 26\nvalue = 0.52"] ;
47 -> 48 ;
49 [label="mse = 0.0\nsamples = 12\nvalue = 0.54"] ;
47 -> 49 ;
50 [label="X[9] <= 0.5\nmse = 0.0006\nsamples = 115\nvalue = 0.6065"] ;
30 -> 50 ;
51 [label="X[5] <= 0.5\nmse = 0.0003\nsamples = 45\nvalue = 0.6293"] ;
50 -> 51 ;
52 [label="mse = -0.0\nsamples = 33\nvalue = 0.64"] ;
51 -> 52 ;
53 [label="mse = -0.0\nsamples = 12\nvalue = 0.6"] ;
51 -> 53 ;
54 [label="X[5] <= 0.5\nmse = 0.0002\nsamples = 70\nvalue = 0.5919"] ;
50 -> 54 ;
55 [label="mse = -0.0\nsamples = 51\nvalue = 0.6"] ;
54 -> 55 ;
56 [label="mse = -0.0\nsamples = 19\nvalue = 0.57"] ;
54 -> 56 ;
}