digraph Tree {
node [shape=box] ;
0 [label="X[2] <= 0.5\nmse = 0.0266\nsamples = 500\nvalue = 0.5229"] ;
1 [label="X[4] <= 0.5\nmse = 0.027\nsamples = 298\nvalue = 0.5862"] ;
0 -> 1 [labeldistance=2.5, labelangle=45, headlabel="True"] ;
2 [label="X[3] <= 0.5\nmse = 0.0238\nsamples = 129\nvalue = 0.6919"] ;
1 -> 2 ;
3 [label="X[6] <= 0.5\nmse = 0.0099\nsamples = 66\nvalue = 0.7992"] ;
2 -> 3 ;
4 [label="X[8] <= 0.5\nmse = 0.0155\nsamples = 29\nvalue = 0.8621"] ;
3 -> 4 ;
5 [label="mse = 0.0\nsamples = 13\nvalue = 1.0"] ;
4 -> 5 ;
6 [label="mse = 0.0\nsamples = 16\nvalue = 0.75"] ;
4 -> 6 ;
7 [label="mse = 0.0\nsamples = 37\nvalue = 0.75"] ;
3 -> 7 ;
8 [label="X[9] <= 0.5\nmse = 0.0135\nsamples = 63\nvalue = 0.5794"] ;
2 -> 8 ;
9 [label="X[7] <= 0.5\nmse = 0.0139\nsamples = 30\nvalue = 0.6667"] ;
8 -> 9 ;
10 [label="mse = 0.0\nsamples = 20\nvalue = 0.75"] ;
9 -> 10 ;
11 [label="mse = 0.0\nsamples = 10\nvalue = 0.5"] ;
9 -> 11 ;
12 [label="mse = 0.0\nsamples = 33\nvalue = 0.5"] ;
8 -> 12 ;
13 [label="X[6] <= 0.5\nmse = 0.0145\nsamples = 169\nvalue = 0.5056"] ;
1 -> 13 ;
14 [label="X[9] <= 0.5\nmse = 0.0207\nsamples = 63\nvalue = 0.5913"] ;
13 -> 14 ;
15 [label="X[3] <= 0.5\nmse = 0.0039\nsamples = 36\nvalue = 0.7031"] ;
14 -> 15 ;
16 [label="mse = 0.0\nsamples = 12\nvalue = 0.75"] ;
15 -> 16 ;
17 [label="X[5] <= 0.5\nmse = 0.0042\nsamples = 24\nvalue = 0.6796"] ;
15 -> 17 ;
18 [label="mse = 0.0\nsamples = 11\nvalue = 0.75"] ;
17 -> 18 ;
19 [label="mse = 0.0\nsamples = 13\nvalue = 0.62"] ;
17 -> 19 ;
20 [label="X[3] <= 0.5\nmse = 0.0042\nsamples = 27\nvalue = 0.4422"] ;
14 -> 20 ;
21 [label="mse = 0.0\nsamples = 10\nvalue = 0.5"] ;
20 -> 21 ;
22 [label="X[5] <= 0.5\nmse = 0.0035\nsamples = 17\nvalue = 0.4082"] ;
20 -> 22 ;
23 [label="mse = 0.0\nsamples = 5\nvalue = 0.5"] ;
22 -> 23 ;
24 [label="mse = -0.0\nsamples = 12\nvalue = 0.37"] ;
22 -> 24 ;
25 [label="X[3] <= 0.5\nmse = 0.0038\nsamples = 106\nvalue = 0.4546"] ;
13 -> 25 ;
26 [label="mse = 0.0\nsamples = 39\nvalue = 0.5"] ;
25 -> 26 ;
27 [label="X[5] <= 0.5\nmse = 0.0042\nsamples = 67\nvalue = 0.4282"] ;
25 -> 27 ;
28 [label="mse = 0.0\nsamples = 30\nvalue = 0.5"] ;
27 -> 28 ;
29 [label="mse = 0.0\nsamples = 37\nvalue = 0.37"] ;
27 -> 29 ;
30 [label="X[9] <= 0.5\nmse = 0.0113\nsamples = 202\nvalue = 0.4294"] ;
0 -> 30 [labeldistance=2.5, labelangle=-45, headlabel="False"] ;
31 [label="X[6] <= 0.5\nmse = 0.0156\nsamples = 91\nvalue = 0.5019"] ;
30 -> 31 ;
32 [label="mse = -0.0\nsamples = 48\nvalue = 0.62"] ;
31 -> 32 ;
33 [label="mse = 0.0\nsamples = 43\nvalue = 0.37"] ;
31 -> 33 ;
34 [label="mse = -0.0\nsamples = 111\nvalue = 0.37"] ;
30 -> 34 ;
}