digraph Tree {
node [shape=box] ;
0 [label="X[7] <= 0.5\nmse = 0.0274\nsamples = 500\nvalue = 0.4093"] ;
1 [label="X[9] <= 0.5\nmse = 0.0107\nsamples = 239\nvalue = 0.268"] ;
0 -> 1 [labeldistance=2.5, labelangle=45, headlabel="True"] ;
2 [label="X[3] <= 0.5\nmse = 0.0059\nsamples = 115\nvalue = 0.1967"] ;
1 -> 2 ;
3 [label="X[1] <= 0.5\nmse = 0.0076\nsamples = 60\nvalue = 0.1625"] ;
2 -> 3 ;
4 [label="X[4] <= 0.5\nmse = 0.0056\nsamples = 25\nvalue = 0.078"] ;
3 -> 4 ;
5 [label="mse = 0.0\nsamples = 12\nvalue = 0.0"] ;
4 -> 5 ;
6 [label="mse = 0.0\nsamples = 13\nvalue = 0.15"] ;
4 -> 6 ;
7 [label="X[4] <= 0.5\nmse = 0.0002\nsamples = 35\nvalue = 0.2229"] ;
3 -> 7 ;
8 [label="mse = 0.0\nsamples = 20\nvalue = 0.21"] ;
7 -> 8 ;
9 [label="mse = -0.0\nsamples = 15\nvalue = 0.24"] ;
7 -> 9 ;
10 [label="X[1] <= 0.5\nmse = 0.0014\nsamples = 55\nvalue = 0.234"] ;
2 -> 10 ;
11 [label="X[4] <= 0.5\nmse = 0.0013\nsamples = 43\nvalue = 0.224"] ;
10 -> 11 ;
12 [label="mse = 0.0\nsamples = 10\nvalue = 0.18"] ;
11 -> 12 ;
13 [label="X[5] <= 0.5\nmse = 0.0009\nsamples = 33\nvalue = 0.2373"] ;
11 -> 13 ;
14 [label="mse = -0.0\nsamples = 18\nvalue = 0.21"] ;
13 -> 14 ;
15 [label="mse = 0.0\nsamples = 15\nvalue = 0.27"] ;
13 -> 15 ;
16 [label="mse = 0.0\nsamples = 12\nvalue = 0.27"] ;
10 -> 16 ;
17 [label="X[3] <= 0.5\nmse = 0.0061\nsamples = 124\nvalue = 0.3341"] ;
1 -> 17 ;
18 [label="X[1] <= 0.5\nmse = 0.0081\nsamples = 50\nvalue = 0.2804"] ;
17 -> 18 ;
19 [label="X[4] <= 0.5\nmse = 0.0062\nsamples = 29\nvalue = 0.2238"] ;
18 -> 19 ;
20 [label="mse = 0.0\nsamples = 12\nvalue = 0.13"] ;
19 -> 20 ;
21 [label="mse = -0.0\nsamples = 17\nvalue = 0.29"] ;
19 -> 21 ;
22 [label="X[4] <= 0.5\nmse = 0.0001\nsamples = 21\nvalue = 0.3586"] ;
18 -> 22 ;
23 [label="mse = 0.0\nsamples = 12\nvalue = 0.35"] ;
22 -> 23 ;
24 [label="mse = -0.0\nsamples = 9\nvalue = 0.37"] ;
22 -> 24 ;
25 [label="X[0] <= 0.5\nmse = 0.0014\nsamples = 74\nvalue = 0.3704"] ;
17 -> 25 ;
26 [label="X[4] <= 0.5\nmse = 0.0015\nsamples = 52\nvalue = 0.3579"] ;
25 -> 26 ;
27 [label="mse = 0.0\nsamples = 15\nvalue = 0.31"] ;
26 -> 27 ;
28 [label="X[5] <= 0.5\nmse = 0.0008\nsamples = 37\nvalue = 0.3773"] ;
26 -> 28 ;
29 [label="mse = 0.0\nsamples = 14\nvalue = 0.34"] ;
28 -> 29 ;
30 [label="mse = -0.0\nsamples = 23\nvalue = 0.4"] ;
28 -> 30 ;
31 [label="mse = 0.0\nsamples = 22\nvalue = 0.4"] ;
25 -> 31 ;
32 [label="X[8] <= 0.5\nmse = 0.0076\nsamples = 261\nvalue = 0.5387"] ;
0 -> 32 [labeldistance=2.5, labelangle=-45, headlabel="False"] ;
33 [label="X[2] <= 0.5\nmse = 0.0055\nsamples = 138\nvalue = 0.5754"] ;
32 -> 33 ;
34 [label="X[3] <= 0.5\nmse = 0.0064\nsamples = 95\nvalue = 0.5545"] ;
33 -> 34 ;
35 [label="X[5] <= 0.5\nmse = 0.0056\nsamples = 32\nvalue = 0.4697"] ;
34 -> 35 ;
36 [label="mse = 0.0\nsamples = 15\nvalue = 0.39"] ;
35 -> 36 ;
37 [label="mse = 0.0\nsamples = 17\nvalue = 0.54"] ;
35 -> 37 ;
38 [label="X[4] <= 0.5\nmse = 0.0013\nsamples = 63\nvalue = 0.5976"] ;
34 -> 38 ;
39 [label="mse = -0.0\nsamples = 22\nvalue = 0.56"] ;
38 -> 39 ;
40 [label="X[5] <= 0.5\nmse = 0.0009\nsamples = 41\nvalue = 0.6178"] ;
38 -> 40 ;
41 [label="mse = -0.0\nsamples = 22\nvalue = 0.59"] ;
40 -> 41 ;
42 [label="mse = 0.0\nsamples = 19\nvalue = 0.65"] ;
40 -> 42 ;
43 [label="X[5] <= 0.5\nmse = 0.0004\nsamples = 43\nvalue = 0.6216"] ;
33 -> 43 ;
44 [label="X[3] <= 0.5\nmse = 0.0001\nsamples = 25\nvalue = 0.6372"] ;
43 -> 44 ;
45 [label="mse = -0.0\nsamples = 16\nvalue = 0.63"] ;
44 -> 45 ;
46 [label="mse = -0.0\nsamples = 9\nvalue = 0.65"] ;
44 -> 46 ;
47 [label="mse = -0.0\nsamples = 18\nvalue = 0.6"] ;
43 -> 47 ;
48 [label="X[3] <= 0.5\nmse = 0.0067\nsamples = 123\nvalue = 0.4976"] ;
32 -> 48 ;
49 [label="X[2] <= 0.5\nmse = 0.0088\nsamples = 57\nvalue = 0.4511"] ;
48 -> 49 ;
50 [label="X[4] <= 0.5\nmse = 0.0056\nsamples = 32\nvalue = 0.385"] ;
49 -> 50 ;
51 [label="mse = 0.0\nsamples = 16\nvalue = 0.31"] ;
50 -> 51 ;
52 [label="mse = -0.0\nsamples = 16\nvalue = 0.46"] ;
50 -> 52 ;
53 [label="X[4] <= 0.5\nmse = 0.0002\nsamples = 25\nvalue = 0.5356"] ;
49 -> 53 ;
54 [label="mse = 0.0\nsamples = 12\nvalue = 0.52"] ;
53 -> 54 ;
55 [label="mse = 0.0\nsamples = 13\nvalue = 0.55"] ;
53 -> 55 ;
56 [label="X[1] <= 0.5\nmse = 0.0014\nsamples = 66\nvalue = 0.5377"] ;
48 -> 56 ;
57 [label="X[4] <= 0.5\nmse = 0.0014\nsamples = 48\nvalue = 0.5256"] ;
56 -> 57 ;
58 [label="mse = -0.0\nsamples = 15\nvalue = 0.49"] ;
57 -> 58 ;
59 [label="X[5] <= 0.5\nmse = 0.0012\nsamples = 33\nvalue = 0.5418"] ;
57 -> 59 ;
60 [label="mse = -0.0\nsamples = 18\nvalue = 0.51"] ;
59 -> 60 ;
61 [label="mse = 0.0\nsamples = 15\nvalue = 0.58"] ;
59 -> 61 ;
62 [label="mse = -0.0\nsamples = 18\nvalue = 0.57"] ;
56 -> 62 ;
}