digraph Tree {
node [shape=box] ;
0 [label="X[7] <= 0.5\nmse = 0.033\nsamples = 500\nvalue = 0.4116"] ;
1 [label="X[8] <= 0.5\nmse = 0.0272\nsamples = 267\nvalue = 0.2947"] ;
0 -> 1 [labeldistance=2.5, labelangle=45, headlabel="True"] ;
2 [label="X[5] <= 0.5\nmse = 0.0055\nsamples = 140\nvalue = 0.1543"] ;
1 -> 2 ;
3 [label="X[1] <= 0.5\nmse = 0.0056\nsamples = 69\nvalue = 0.1096"] ;
2 -> 3 ;
4 [label="X[4] <= 0.5\nmse = 0.0029\nsamples = 44\nvalue = 0.065"] ;
3 -> 4 ;
5 [label="mse = 0.0\nsamples = 18\nvalue = 0.0"] ;
4 -> 5 ;
6 [label="mse = 0.0\nsamples = 26\nvalue = 0.11"] ;
4 -> 6 ;
7 [label="X[3] <= 0.5\nmse = 0.0006\nsamples = 25\nvalue = 0.188"] ;
3 -> 7 ;
8 [label="mse = 0.0\nsamples = 16\nvalue = 0.17"] ;
7 -> 8 ;
9 [label="mse = 0.0\nsamples = 9\nvalue = 0.22"] ;
7 -> 9 ;
10 [label="X[0] <= 0.5\nmse = 0.0016\nsamples = 71\nvalue = 0.1977"] ;
2 -> 10 ;
11 [label="X[3] <= 0.5\nmse = 0.0011\nsamples = 55\nvalue = 0.1825"] ;
10 -> 11 ;
12 [label="mse = -0.0\nsamples = 19\nvalue = 0.14"] ;
11 -> 12 ;
13 [label="X[4] <= 0.5\nmse = 0.0002\nsamples = 36\nvalue = 0.205"] ;
11 -> 13 ;
14 [label="mse = 0.0\nsamples = 18\nvalue = 0.19"] ;
13 -> 14 ;
15 [label="mse = -0.0\nsamples = 18\nvalue = 0.22"] ;
13 -> 15 ;
16 [label="mse = -0.0\nsamples = 16\nvalue = 0.25"] ;
10 -> 16 ;
17 [label="X[1] <= 0.5\nmse = 0.0053\nsamples = 127\nvalue = 0.4495"] ;
1 -> 17 ;
18 [label="X[5] <= 0.5\nmse = 0.0059\nsamples = 74\nvalue = 0.4174"] ;
17 -> 18 ;
19 [label="X[3] <= 0.5\nmse = 0.003\nsamples = 27\nvalue = 0.333"] ;
18 -> 19 ;
20 [label="mse = -0.0\nsamples = 14\nvalue = 0.28"] ;
19 -> 20 ;
21 [label="mse = 0.0\nsamples = 13\nvalue = 0.39"] ;
19 -> 21 ;
22 [label="X[3] <= 0.5\nmse = 0.0011\nsamples = 47\nvalue = 0.466"] ;
18 -> 22 ;
23 [label="mse = -0.0\nsamples = 14\nvalue = 0.42"] ;
22 -> 23 ;
24 [label="X[4] <= 0.5\nmse = 0.0002\nsamples = 33\nvalue = 0.4855"] ;
22 -> 24 ;
25 [label="mse = 0.0\nsamples = 16\nvalue = 0.47"] ;
24 -> 25 ;
26 [label="mse = -0.0\nsamples = 17\nvalue = 0.5"] ;
24 -> 26 ;
27 [label="X[4] <= 0.5\nmse = 0.0012\nsamples = 53\nvalue = 0.4943"] ;
17 -> 27 ;
28 [label="X[5] <= 0.5\nmse = 0.0002\nsamples = 35\nvalue = 0.5171"] ;
27 -> 28 ;
29 [label="mse = 0.0\nsamples = 15\nvalue = 0.5"] ;
28 -> 29 ;
30 [label="mse = 0.0\nsamples = 20\nvalue = 0.53"] ;
28 -> 30 ;
31 [label="mse = 0.0\nsamples = 18\nvalue = 0.45"] ;
27 -> 31 ;
32 [label="X[1] <= 0.5\nmse = 0.006\nsamples = 233\nvalue = 0.5455"] ;
0 -> 32 [labeldistance=2.5, labelangle=-45, headlabel="False"] ;
33 [label="X[5] <= 0.5\nmse = 0.0062\nsamples = 143\nvalue = 0.5154"] ;
32 -> 33 ;
34 [label="X[3] <= 0.5\nmse = 0.0035\nsamples = 56\nvalue = 0.4391"] ;
33 -> 34 ;
35 [label="X[9] <= 0.5\nmse = 0.0006\nsamples = 22\nvalue = 0.3727"] ;
34 -> 35 ;
36 [label="mse = 0.0\nsamples = 12\nvalue = 0.35"] ;
35 -> 36 ;
37 [label="mse = -0.0\nsamples = 10\nvalue = 0.4"] ;
35 -> 37 ;
38 [label="X[9] <= 0.5\nmse = 0.0006\nsamples = 34\nvalue = 0.4821"] ;
34 -> 38 ;
39 [label="mse = -0.0\nsamples = 19\nvalue = 0.46"] ;
38 -> 39 ;
40 [label="mse = 0.0\nsamples = 15\nvalue = 0.51"] ;
38 -> 40 ;
41 [label="X[3] <= 0.5\nmse = 0.0017\nsamples = 87\nvalue = 0.5645"] ;
33 -> 41 ;
42 [label="X[9] <= 0.5\nmse = 0.0006\nsamples = 28\nvalue = 0.515"] ;
41 -> 42 ;
43 [label="mse = -0.0\nsamples = 14\nvalue = 0.49"] ;
42 -> 43 ;
44 [label="mse = -0.0\nsamples = 14\nvalue = 0.54"] ;
42 -> 44 ;
45 [label="X[9] <= 0.5\nmse = 0.0006\nsamples = 59\nvalue = 0.588"] ;
41 -> 45 ;
46 [label="X[4] <= 0.5\nmse = 0.0002\nsamples = 26\nvalue = 0.565"] ;
45 -> 46 ;
47 [label="mse = 0.0\nsamples = 13\nvalue = 0.55"] ;
46 -> 47 ;
48 [label="mse = -0.0\nsamples = 13\nvalue = 0.58"] ;
46 -> 48 ;
49 [label="X[4] <= 0.5\nmse = 0.0001\nsamples = 33\nvalue = 0.6061"] ;
45 -> 49 ;
50 [label="mse = 0.0\nsamples = 23\nvalue = 0.6"] ;
49 -> 50 ;
51 [label="mse = -0.0\nsamples = 10\nvalue = 0.62"] ;
49 -> 51 ;
52 [label="X[4] <= 0.5\nmse = 0.002\nsamples = 90\nvalue = 0.5932"] ;
32 -> 52 ;
53 [label="X[9] <= 0.5\nmse = 0.0009\nsamples = 56\nvalue = 0.6207"] ;
52 -> 53 ;
54 [label="X[5] <= 0.5\nmse = 0.0002\nsamples = 26\nvalue = 0.5927"] ;
53 -> 54 ;
55 [label="mse = -0.0\nsamples = 15\nvalue = 0.58"] ;
54 -> 55 ;
56 [label="mse = 0.0\nsamples = 11\nvalue = 0.61"] ;
54 -> 56 ;
57 [label="X[5] <= 0.5\nmse = 0.0002\nsamples = 30\nvalue = 0.645"] ;
53 -> 57 ;
58 [label="mse = 0.0\nsamples = 15\nvalue = 0.63"] ;
57 -> 58 ;
59 [label="mse = 0.0\nsamples = 15\nvalue = 0.66"] ;
57 -> 59 ;
60 [label="X[8] <= 0.5\nmse = 0.0006\nsamples = 34\nvalue = 0.5479"] ;
52 -> 60 ;
61 [label="mse = -0.0\nsamples = 19\nvalue = 0.57"] ;
60 -> 61 ;
62 [label="mse = 0.0\nsamples = 15\nvalue = 0.52"] ;
60 -> 62 ;
}