digraph Tree {
node [shape=box] ;
0 [label="X[27] <= 0.5\nmse = 0.0087\nsamples = 500\nvalue = 0.4763"] ;
1 [label="X[3] <= 0.5\nmse = 0.0074\nsamples = 244\nvalue = 0.4339"] ;
0 -> 1 [labeldistance=2.5, labelangle=45, headlabel="True"] ;
2 [label="X[41] <= 0.5\nmse = 0.0063\nsamples = 128\nvalue = 0.404"] ;
1 -> 2 ;
3 [label="X[47] <= 0.5\nmse = 0.0051\nsamples = 55\nvalue = 0.3651"] ;
2 -> 3 ;
4 [label="X[36] <= 0.5\nmse = 0.0044\nsamples = 27\nvalue = 0.3356"] ;
3 -> 4 ;
5 [label="X[1] <= 0.5\nmse = 0.0032\nsamples = 22\nvalue = 0.3182"] ;
4 -> 5 ;
6 [label="X[42] <= 0.5\nmse = 0.0015\nsamples = 6\nvalue = 0.2683"] ;
5 -> 6 ;
7 [label="X[14] <= 0.5\nmse = 0.0006\nsamples = 2\nvalue = 0.225"] ;
6 -> 7 ;
8 [label="mse = 0.0\nsamples = 1\nvalue = 0.25"] ;
7 -> 8 ;
9 [label="mse = 0.0\nsamples = 1\nvalue = 0.2"] ;
7 -> 9 ;
10 [label="X[21] <= 0.5\nmse = 0.0005\nsamples = 4\nvalue = 0.29"] ;
6 -> 10 ;
11 [label="X[45] <= 0.5\nmse = 0.0\nsamples = 3\nvalue = 0.3033"] ;
10 -> 11 ;
12 [label="mse = 0.0\nsamples = 2\nvalue = 0.3"] ;
11 -> 12 ;
13 [label="mse = -0.0\nsamples = 1\nvalue = 0.31"] ;
11 -> 13 ;
14 [label="mse = 0.0\nsamples = 1\nvalue = 0.25"] ;
10 -> 14 ;
15 [label="X[40] <= 0.5\nmse = 0.0026\nsamples = 16\nvalue = 0.3369"] ;
5 -> 15 ;
16 [label="X[33] <= 0.5\nmse = 0.0028\nsamples = 3\nvalue = 0.2667"] ;
15 -> 16 ;
17 [label="X[45] <= 0.5\nmse = 0.0001\nsamples = 2\nvalue = 0.23"] ;
16 -> 17 ;
18 [label="mse = 0.0\nsamples = 1\nvalue = 0.22"] ;
17 -> 18 ;
19 [label="mse = 0.0\nsamples = 1\nvalue = 0.24"] ;
17 -> 19 ;
20 [label="mse = 0.0\nsamples = 1\nvalue = 0.34"] ;
16 -> 20 ;
21 [label="X[26] <= 0.5\nmse = 0.0012\nsamples = 13\nvalue = 0.3531"] ;
15 -> 21 ;
22 [label="X[15] <= 0.5\nmse = 0.0007\nsamples = 7\nvalue = 0.3343"] ;
21 -> 22 ;
23 [label="X[6] <= 0.5\nmse = 0.0006\nsamples = 4\nvalue = 0.3175"] ;
22 -> 23 ;
24 [label="X[42] <= 0.5\nmse = 0.0001\nsamples = 2\nvalue = 0.34"] ;
23 -> 24 ;
25 [label="mse = 0.0\nsamples = 1\nvalue = 0.35"] ;
24 -> 25 ;
26 [label="mse = 0.0\nsamples = 1\nvalue = 0.33"] ;
24 -> 26 ;
27 [label="X[22] <= 0.5\nmse = 0.0\nsamples = 2\nvalue = 0.295"] ;
23 -> 27 ;
28 [label="mse = 0.0\nsamples = 1\nvalue = 0.29"] ;
27 -> 28 ;
29 [label="mse = -0.0\nsamples = 1\nvalue = 0.3"] ;
27 -> 29 ;
30 [label="X[13] <= 0.5\nmse = 0.0001\nsamples = 3\nvalue = 0.3567"] ;
22 -> 30 ;
31 [label="mse = 0.0\nsamples = 2\nvalue = 0.35"] ;
30 -> 31 ;
32 [label="mse = 0.0\nsamples = 1\nvalue = 0.37"] ;
30 -> 32 ;
33 [label="X[34] <= 0.5\nmse = 0.0008\nsamples = 6\nvalue = 0.375"] ;
21 -> 33 ;
34 [label="X[8] <= 0.5\nmse = 0.0001\nsamples = 2\nvalue = 0.34"] ;
33 -> 34 ;
35 [label="mse = 0.0\nsamples = 1\nvalue = 0.35"] ;
34 -> 35 ;
36 [label="mse = 0.0\nsamples = 1\nvalue = 0.33"] ;
34 -> 36 ;
37 [label="X[46] <= 0.5\nmse = 0.0002\nsamples = 4\nvalue = 0.3925"] ;
33 -> 37 ;
38 [label="mse = 0.0\nsamples = 1\nvalue = 0.37"] ;
37 -> 38 ;
39 [label="X[7] <= 0.5\nmse = 0.0001\nsamples = 3\nvalue = 0.4"] ;
37 -> 39 ;
40 [label="X[32] <= 0.5\nmse = 0.0\nsamples = 2\nvalue = 0.395"] ;
39 -> 40 ;
41 [label="mse = 0.0\nsamples = 1\nvalue = 0.39"] ;
40 -> 41 ;
42 [label="mse = 0.0\nsamples = 1\nvalue = 0.4"] ;
40 -> 42 ;
43 [label="mse = 0.0\nsamples = 1\nvalue = 0.41"] ;
39 -> 43 ;
44 [label="X[13] <= 0.5\nmse = 0.0023\nsamples = 5\nvalue = 0.412"] ;
4 -> 44 ;
45 [label="X[33] <= 0.5\nmse = 0.0003\nsamples = 3\nvalue = 0.4467"] ;
44 -> 45 ;
46 [label="mse = 0.0\nsamples = 1\nvalue = 0.47"] ;
45 -> 46 ;
47 [label="X[12] <= 0.5\nmse = 0.0\nsamples = 2\nvalue = 0.435"] ;
45 -> 47 ;
48 [label="mse = 0.0\nsamples = 1\nvalue = 0.43"] ;
47 -> 48 ;
49 [label="mse = -0.0\nsamples = 1\nvalue = 0.44"] ;
47 -> 49 ;
50 [label="X[15] <= 0.5\nmse = 0.0009\nsamples = 2\nvalue = 0.36"] ;
44 -> 50 ;
51 [label="mse = 0.0\nsamples = 1\nvalue = 0.39"] ;
50 -> 51 ;
52 [label="mse = 0.0\nsamples = 1\nvalue = 0.33"] ;
50 -> 52 ;
53 [label="X[10] <= 0.5\nmse = 0.0041\nsamples = 28\nvalue = 0.3936"] ;
3 -> 53 ;
54 [label="X[15] <= 0.5\nmse = 0.0031\nsamples = 24\nvalue = 0.3825"] ;
53 -> 54 ;
55 [label="X[26] <= 0.5\nmse = 0.0035\nsamples = 14\nvalue = 0.36"] ;
54 -> 55 ;
56 [label="X[16] <= 0.5\nmse = 0.0011\nsamples = 7\nvalue = 0.3186"] ;
55 -> 56 ;
57 [label="X[13] <= 0.5\nmse = 0.0006\nsamples = 4\nvalue = 0.2975"] ;
56 -> 57 ;
58 [label="mse = 0.0\nsamples = 1\nvalue = 0.26"] ;
57 -> 58 ;
59 [label="X[31] <= 0.5\nmse = 0.0002\nsamples = 3\nvalue = 0.31"] ;
57 -> 59 ;
60 [label="mse = 0.0\nsamples = 2\nvalue = 0.3"] ;
59 -> 60 ;
61 [label="mse = -0.0\nsamples = 1\nvalue = 0.33"] ;
59 -> 61 ;
62 [label="X[13] <= 0.5\nmse = 0.0004\nsamples = 3\nvalue = 0.3467"] ;
56 -> 62 ;
63 [label="X[38] <= 0.5\nmse = 0.0001\nsamples = 2\nvalue = 0.36"] ;
62 -> 63 ;
64 [label="mse = 0.0\nsamples = 1\nvalue = 0.37"] ;
63 -> 64 ;
65 [label="mse = -0.0\nsamples = 1\nvalue = 0.35"] ;
63 -> 65 ;
66 [label="mse = 0.0\nsamples = 1\nvalue = 0.32"] ;
62 -> 66 ;
67 [label="X[43] <= 0.5\nmse = 0.0025\nsamples = 7\nvalue = 0.4014"] ;
55 -> 67 ;
68 [label="X[4] <= 0.5\nmse = 0.0009\nsamples = 4\nvalue = 0.365"] ;
67 -> 68 ;
69 [label="mse = 0.0\nsamples = 1\nvalue = 0.41"] ;
68 -> 69 ;
70 [label="X[40] <= 0.5\nmse = 0.0003\nsamples = 3\nvalue = 0.35"] ;
68 -> 70 ;
71 [label="X[35] <= 0.5\nmse = 0.0001\nsamples = 2\nvalue = 0.34"] ;
70 -> 71 ;
72 [label="mse = 0.0\nsamples = 1\nvalue = 0.35"] ;
71 -> 72 ;
73 [label="mse = 0.0\nsamples = 1\nvalue = 0.33"] ;
71 -> 73 ;
74 [label="mse = -0.0\nsamples = 1\nvalue = 0.37"] ;
70 -> 74 ;
75 [label="X[19] <= 0.5\nmse = 0.0005\nsamples = 3\nvalue = 0.45"] ;
67 -> 75 ;
76 [label="mse = 0.0\nsamples = 1\nvalue = 0.42"] ;
75 -> 76 ;
77 [label="X[13] <= 0.5\nmse = 0.0\nsamples = 2\nvalue = 0.465"] ;
75 -> 77 ;
78 [label="mse = 0.0\nsamples = 1\nvalue = 0.46"] ;
77 -> 78 ;
79 [label="mse = 0.0\nsamples = 1\nvalue = 0.47"] ;
77 -> 79 ;
80 [label="X[5] <= 0.5\nmse = 0.0009\nsamples = 10\nvalue = 0.414"] ;
54 -> 80 ;
81 [label="X[36] <= 0.5\nmse = 0.0002\nsamples = 4\nvalue = 0.3875"] ;
80 -> 81 ;
82 [label="mse = 0.0\nsamples = 2\nvalue = 0.38"] ;
81 -> 82 ;
83 [label="X[23] <= 0.5\nmse = 0.0002\nsamples = 2\nvalue = 0.395"] ;
81 -> 83 ;
84 [label="mse = 0.0\nsamples = 1\nvalue = 0.38"] ;
83 -> 84 ;
85 [label="mse = -0.0\nsamples = 1\nvalue = 0.41"] ;
83 -> 85 ;
86 [label="X[43] <= 0.5\nmse = 0.0006\nsamples = 6\nvalue = 0.4317"] ;
80 -> 86 ;
87 [label="X[4] <= 0.5\nmse = 0.0006\nsamples = 2\nvalue = 0.455"] ;
86 -> 87 ;
88 [label="mse = 0.0\nsamples = 1\nvalue = 0.48"] ;
87 -> 88 ;
89 [label="mse = 0.0\nsamples = 1\nvalue = 0.43"] ;
87 -> 89 ;
90 [label="X[9] <= 0.5\nmse = 0.0001\nsamples = 4\nvalue = 0.42"] ;
86 -> 90 ;
91 [label="mse = 0.0\nsamples = 1\nvalue = 0.44"] ;
90 -> 91 ;
92 [label="X[8] <= 0.5\nmse = 0.0\nsamples = 3\nvalue = 0.4133"] ;
90 -> 92 ;
93 [label="mse = 0.0\nsamples = 1\nvalue = 0.42"] ;
92 -> 93 ;
94 [label="mse = -0.0\nsamples = 2\nvalue = 0.41"] ;
92 -> 94 ;
95 [label="X[7] <= 0.5\nmse = 0.0046\nsamples = 4\nvalue = 0.46"] ;
53 -> 95 ;
96 [label="X[26] <= 0.5\nmse = 0.0002\nsamples = 2\nvalue = 0.395"] ;
95 -> 96 ;
97 [label="mse = 0.0\nsamples = 1\nvalue = 0.41"] ;
96 -> 97 ;
98 [label="mse = -0.0\nsamples = 1\nvalue = 0.38"] ;
96 -> 98 ;
99 [label="X[12] <= 0.5\nmse = 0.0006\nsamples = 2\nvalue = 0.525"] ;
95 -> 99 ;
100 [label="mse = 0.0\nsamples = 1\nvalue = 0.5"] ;
99 -> 100 ;
101 [label="mse = -0.0\nsamples = 1\nvalue = 0.55"] ;
99 -> 101 ;
102 [label="X[15] <= 0.5\nmse = 0.0051\nsamples = 73\nvalue = 0.4333"] ;
2 -> 102 ;
103 [label="X[10] <= 0.5\nmse = 0.0038\nsamples = 39\nvalue = 0.4056"] ;
102 -> 103 ;
104 [label="X[8] <= 0.5\nmse = 0.0029\nsamples = 27\nvalue = 0.3878"] ;
103 -> 104 ;
105 [label="X[33] <= 0.5\nmse = 0.0017\nsamples = 7\nvalue = 0.3471"] ;
104 -> 105 ;
106 [label="X[37] <= 0.5\nmse = 0.0007\nsamples = 5\nvalue = 0.326"] ;
105 -> 106 ;
107 [label="X[12] <= 0.5\nmse = 0.0\nsamples = 3\nvalue = 0.3467"] ;
106 -> 107 ;
108 [label="mse = 0.0\nsamples = 2\nvalue = 0.35"] ;
107 -> 108 ;
109 [label="mse = -0.0\nsamples = 1\nvalue = 0.34"] ;
107 -> 109 ;
110 [label="X[13] <= 0.5\nmse = 0.0\nsamples = 2\nvalue = 0.295"] ;
106 -> 110 ;
111 [label="mse = 0.0\nsamples = 1\nvalue = 0.3"] ;
110 -> 111 ;
112 [label="mse = -0.0\nsamples = 1\nvalue = 0.29"] ;
110 -> 112 ;
113 [label="X[43] <= 0.5\nmse = 0.0004\nsamples = 2\nvalue = 0.4"] ;
105 -> 113 ;
114 [label="mse = 0.0\nsamples = 1\nvalue = 0.38"] ;
113 -> 114 ;
115 [label="mse = -0.0\nsamples = 1\nvalue = 0.42"] ;
113 -> 115 ;
116 [label="X[24] <= 0.5\nmse = 0.0026\nsamples = 20\nvalue = 0.402"] ;
104 -> 116 ;
117 [label="X[9] <= 0.5\nmse = 0.0012\nsamples = 10\nvalue = 0.375"] ;
116 -> 117 ;
118 [label="X[12] <= 0.5\nmse = 0.0001\nsamples = 5\nvalue = 0.348"] ;
117 -> 118 ;
119 [label="X[25] <= 0.5\nmse = 0.0\nsamples = 4\nvalue = 0.3525"] ;
118 -> 119 ;
120 [label="mse = 0.0\nsamples = 1\nvalue = 0.36"] ;
119 -> 120 ;
121 [label="mse = -0.0\nsamples = 3\nvalue = 0.35"] ;
119 -> 121 ;
122 [label="mse = -0.0\nsamples = 1\nvalue = 0.33"] ;
118 -> 122 ;
123 [label="X[46] <= 0.5\nmse = 0.0009\nsamples = 5\nvalue = 0.402"] ;
117 -> 123 ;
124 [label="X[33] <= 0.5\nmse = 0.0001\nsamples = 2\nvalue = 0.37"] ;
123 -> 124 ;
125 [label="mse = 0.0\nsamples = 1\nvalue = 0.38"] ;
124 -> 125 ;
126 [label="mse = 0.0\nsamples = 1\nvalue = 0.36"] ;
124 -> 126 ;
127 [label="X[20] <= 0.5\nmse = 0.0004\nsamples = 3\nvalue = 0.4233"] ;
123 -> 127 ;
128 [label="mse = 0.0\nsamples = 1\nvalue = 0.45"] ;
127 -> 128 ;
129 [label="mse = -0.0\nsamples = 2\nvalue = 0.41"] ;
127 -> 129 ;
130 [label="X[38] <= 0.5\nmse = 0.0024\nsamples = 10\nvalue = 0.429"] ;
116 -> 130 ;
131 [label="X[26] <= 0.5\nmse = 0.0016\nsamples = 6\nvalue = 0.455"] ;
130 -> 131 ;
132 [label="X[45] <= 0.5\nmse = 0.0004\nsamples = 2\nvalue = 0.41"] ;
131 -> 132 ;
133 [label="mse = 0.0\nsamples = 1\nvalue = 0.39"] ;
132 -> 133 ;
134 [label="mse = -0.0\nsamples = 1\nvalue = 0.43"] ;
132 -> 134 ;
135 [label="X[16] <= 0.5\nmse = 0.0007\nsamples = 4\nvalue = 0.4775"] ;
131 -> 135 ;
136 [label="mse = 0.0\nsamples = 1\nvalue = 0.52"] ;
135 -> 136 ;
137 [label="X[11] <= 0.5\nmse = 0.0002\nsamples = 3\nvalue = 0.4633"] ;
135 -> 137 ;
138 [label="X[42] <= 0.5\nmse = 0.0\nsamples = 2\nvalue = 0.455"] ;
137 -> 138 ;
139 [label="mse = 0.0\nsamples = 1\nvalue = 0.45"] ;
138 -> 139 ;
140 [label="mse = 0.0\nsamples = 1\nvalue = 0.46"] ;
138 -> 140 ;
141 [label="mse = 0.0\nsamples = 1\nvalue = 0.48"] ;
137 -> 141 ;
142 [label="X[33] <= 0.5\nmse = 0.0011\nsamples = 4\nvalue = 0.39"] ;
130 -> 142 ;
143 [label="X[16] <= 0.5\nmse = 0.0004\nsamples = 2\nvalue = 0.42"] ;
142 -> 143 ;
144 [label="mse = 0.0\nsamples = 1\nvalue = 0.4"] ;
143 -> 144 ;
145 [label="mse = -0.0\nsamples = 1\nvalue = 0.44"] ;
143 -> 145 ;
146 [label="mse = 0.0\nsamples = 2\nvalue = 0.36"] ;
142 -> 146 ;
147 [label="X[38] <= 0.5\nmse = 0.0034\nsamples = 12\nvalue = 0.4458"] ;
103 -> 147 ;
148 [label="X[32] <= 0.5\nmse = 0.0021\nsamples = 7\nvalue = 0.4143"] ;
147 -> 148 ;
149 [label="X[47] <= 0.5\nmse = 0.001\nsamples = 4\nvalue = 0.385"] ;
148 -> 149 ;
150 [label="X[12] <= 0.5\nmse = 0.0\nsamples = 2\nvalue = 0.355"] ;
149 -> 150 ;
151 [label="mse = 0.0\nsamples = 1\nvalue = 0.35"] ;
150 -> 151 ;
152 [label="mse = 0.0\nsamples = 1\nvalue = 0.36"] ;
150 -> 152 ;
153 [label="X[22] <= 0.5\nmse = 0.0002\nsamples = 2\nvalue = 0.415"] ;
149 -> 153 ;
154 [label="mse = 0.0\nsamples = 1\nvalue = 0.4"] ;
153 -> 154 ;
155 [label="mse = -0.0\nsamples = 1\nvalue = 0.43"] ;
153 -> 155 ;
156 [label="X[22] <= 0.5\nmse = 0.001\nsamples = 3\nvalue = 0.4533"] ;
148 -> 156 ;
157 [label="mse = 0.0\nsamples = 1\nvalue = 0.41"] ;
156 -> 157 ;
158 [label="X[18] <= 0.5\nmse = 0.0\nsamples = 2\nvalue = 0.475"] ;
156 -> 158 ;
159 [label="mse = 0.0\nsamples = 1\nvalue = 0.48"] ;
158 -> 159 ;
160 [label="mse = 0.0\nsamples = 1\nvalue = 0.47"] ;
158 -> 160 ;
161 [label="X[37] <= 0.5\nmse = 0.0019\nsamples = 5\nvalue = 0.49"] ;
147 -> 161 ;
162 [label="mse = 0.0\nsamples = 1\nvalue = 0.57"] ;
161 -> 162 ;
163 [label="X[25] <= 0.5\nmse = 0.0004\nsamples = 4\nvalue = 0.47"] ;
161 -> 163 ;
164 [label="X[42] <= 0.5\nmse = 0.0001\nsamples = 3\nvalue = 0.46"] ;
163 -> 164 ;
165 [label="X[47] <= 0.5\nmse = 0.0\nsamples = 2\nvalue = 0.465"] ;
164 -> 165 ;
166 [label="mse = 0.0\nsamples = 1\nvalue = 0.47"] ;
165 -> 166 ;
167 [label="mse = 0.0\nsamples = 1\nvalue = 0.46"] ;
165 -> 167 ;
168 [label="mse = 0.0\nsamples = 1\nvalue = 0.45"] ;
164 -> 168 ;
169 [label="mse = 0.0\nsamples = 1\nvalue = 0.5"] ;
163 -> 169 ;
170 [label="X[6] <= 0.5\nmse = 0.0048\nsamples = 34\nvalue = 0.465"] ;
102 -> 170 ;
171 [label="X[19] <= 0.5\nmse = 0.0036\nsamples = 20\nvalue = 0.4265"] ;
170 -> 171 ;
172 [label="X[10] <= 0.5\nmse = 0.0045\nsamples = 8\nvalue = 0.385"] ;
171 -> 172 ;
173 [label="X[16] <= 0.5\nmse = 0.0026\nsamples = 7\nvalue = 0.3671"] ;
172 -> 173 ;
174 [label="X[7] <= 0.5\nmse = 0.0014\nsamples = 3\nvalue = 0.3167"] ;
173 -> 174 ;
175 [label="mse = 0.0\nsamples = 2\nvalue = 0.29"] ;
174 -> 175 ;
176 [label="mse = 0.0\nsamples = 1\nvalue = 0.37"] ;
174 -> 176 ;
177 [label="X[21] <= 0.5\nmse = 0.0001\nsamples = 4\nvalue = 0.405"] ;
173 -> 177 ;
178 [label="mse = 0.0\nsamples = 3\nvalue = 0.41"] ;
177 -> 178 ;
179 [label="mse = -0.0\nsamples = 1\nvalue = 0.39"] ;
177 -> 179 ;
180 [label="mse = 0.0\nsamples = 1\nvalue = 0.51"] ;
172 -> 180 ;
181 [label="X[48] <= 0.5\nmse = 0.0012\nsamples = 12\nvalue = 0.4542"] ;
171 -> 181 ;
182 [label="X[10] <= 0.5\nmse = 0.0002\nsamples = 5\nvalue = 0.42"] ;
181 -> 182 ;
183 [label="X[43] <= 0.5\nmse = 0.0\nsamples = 4\nvalue = 0.4125"] ;
182 -> 183 ;
184 [label="mse = 0.0\nsamples = 1\nvalue = 0.42"] ;
183 -> 184 ;
185 [label="mse = -0.0\nsamples = 3\nvalue = 0.41"] ;
183 -> 185 ;
186 [label="mse = -0.0\nsamples = 1\nvalue = 0.45"] ;
182 -> 186 ;
187 [label="X[32] <= 0.5\nmse = 0.0004\nsamples = 7\nvalue = 0.4786"] ;
181 -> 187 ;
188 [label="X[16] <= 0.5\nmse = 0.0\nsamples = 3\nvalue = 0.4967"] ;
187 -> 188 ;
189 [label="mse = 0.0\nsamples = 1\nvalue = 0.49"] ;
188 -> 189 ;
190 [label="mse = 0.0\nsamples = 2\nvalue = 0.5"] ;
188 -> 190 ;
191 [label="X[45] <= 0.5\nmse = 0.0002\nsamples = 4\nvalue = 0.465"] ;
187 -> 191 ;
192 [label="X[1] <= 0.5\nmse = 0.0\nsamples = 3\nvalue = 0.4567"] ;
191 -> 192 ;
193 [label="mse = -0.0\nsamples = 2\nvalue = 0.46"] ;
192 -> 193 ;
194 [label="mse = 0.0\nsamples = 1\nvalue = 0.45"] ;
192 -> 194 ;
195 [label="mse = 0.0\nsamples = 1\nvalue = 0.49"] ;
191 -> 195 ;
196 [label="X[42] <= 0.5\nmse = 0.0014\nsamples = 14\nvalue = 0.52"] ;
170 -> 196 ;
197 [label="X[13] <= 0.5\nmse = 0.0005\nsamples = 6\nvalue = 0.4833"] ;
196 -> 197 ;
198 [label="X[24] <= 0.5\nmse = 0.0002\nsamples = 3\nvalue = 0.4633"] ;
197 -> 198 ;
199 [label="X[20] <= 0.5\nmse = 0.0\nsamples = 2\nvalue = 0.455"] ;
198 -> 199 ;
200 [label="mse = 0.0\nsamples = 1\nvalue = 0.46"] ;
199 -> 200 ;
201 [label="mse = 0.0\nsamples = 1\nvalue = 0.45"] ;
199 -> 201 ;
202 [label="mse = 0.0\nsamples = 1\nvalue = 0.48"] ;
198 -> 202 ;
203 [label="X[25] <= 0.5\nmse = 0.0001\nsamples = 3\nvalue = 0.5033"] ;
197 -> 203 ;
204 [label="mse = 0.0\nsamples = 2\nvalue = 0.51"] ;
203 -> 204 ;
205 [label="mse = 0.0\nsamples = 1\nvalue = 0.49"] ;
203 -> 205 ;
206 [label="X[20] <= 0.5\nmse = 0.0002\nsamples = 8\nvalue = 0.5475"] ;
196 -> 206 ;
207 [label="mse = 0.0\nsamples = 1\nvalue = 0.52"] ;
206 -> 207 ;
208 [label="X[9] <= 0.5\nmse = 0.0002\nsamples = 7\nvalue = 0.5514"] ;
206 -> 208 ;
209 [label="X[33] <= 0.5\nmse = 0.0\nsamples = 2\nvalue = 0.565"] ;
208 -> 209 ;
210 [label="mse = 0.0\nsamples = 1\nvalue = 0.57"] ;
209 -> 210 ;
211 [label="mse = 0.0\nsamples = 1\nvalue = 0.56"] ;
209 -> 211 ;
212 [label="X[43] <= 0.5\nmse = 0.0001\nsamples = 5\nvalue = 0.546"] ;
208 -> 212 ;
213 [label="X[11] <= 0.5\nmse = 0.0\nsamples = 4\nvalue = 0.55"] ;
212 -> 213 ;
214 [label="X[33] <= 0.5\nmse = 0.0\nsamples = 3\nvalue = 0.5533"] ;
213 -> 214 ;
215 [label="mse = 0.0\nsamples = 1\nvalue = 0.56"] ;
214 -> 215 ;
216 [label="mse = -0.0\nsamples = 2\nvalue = 0.55"] ;
214 -> 216 ;
217 [label="mse = 0.0\nsamples = 1\nvalue = 0.54"] ;
213 -> 217 ;
218 [label="mse = -0.0\nsamples = 1\nvalue = 0.53"] ;
212 -> 218 ;
219 [label="X[15] <= 0.5\nmse = 0.0067\nsamples = 116\nvalue = 0.4669"] ;
1 -> 219 ;
220 [label="X[21] <= 0.5\nmse = 0.0054\nsamples = 56\nvalue = 0.4336"] ;
219 -> 220 ;
221 [label="X[39] <= 0.5\nmse = 0.0041\nsamples = 33\nvalue = 0.4042"] ;
220 -> 221 ;
222 [label="X[24] <= 0.5\nmse = 0.0016\nsamples = 6\nvalue = 0.3233"] ;
221 -> 222 ;
223 [label="X[10] <= 0.5\nmse = 0.0011\nsamples = 4\nvalue = 0.3025"] ;
222 -> 223 ;
224 [label="X[25] <= 0.5\nmse = 0.0004\nsamples = 3\nvalue = 0.2867"] ;
223 -> 224 ;
225 [label="X[47] <= 0.5\nmse = 0.0001\nsamples = 2\nvalue = 0.3"] ;
224 -> 225 ;
226 [label="mse = 0.0\nsamples = 1\nvalue = 0.31"] ;
225 -> 226 ;
227 [label="mse = 0.0\nsamples = 1\nvalue = 0.29"] ;
225 -> 227 ;
228 [label="mse = 0.0\nsamples = 1\nvalue = 0.26"] ;
224 -> 228 ;
229 [label="mse = 0.0\nsamples = 1\nvalue = 0.35"] ;
223 -> 229 ;
230 [label="X[44] <= 0.5\nmse = 0.0\nsamples = 2\nvalue = 0.365"] ;
222 -> 230 ;
231 [label="mse = 0.0\nsamples = 1\nvalue = 0.36"] ;
230 -> 231 ;
232 [label="mse = -0.0\nsamples = 1\nvalue = 0.37"] ;
230 -> 232 ;
233 [label="X[41] <= 0.5\nmse = 0.0029\nsamples = 27\nvalue = 0.4222"] ;
221 -> 233 ;
234 [label="X[45] <= 0.5\nmse = 0.0026\nsamples = 10\nvalue = 0.39"] ;
233 -> 234 ;
235 [label="X[31] <= 0.5\nmse = 0.0018\nsamples = 7\nvalue = 0.3686"] ;
234 -> 235 ;
236 [label="X[35] <= 0.5\nmse = 0.0006\nsamples = 5\nvalue = 0.346"] ;
235 -> 236 ;
237 [label="mse = 0.0\nsamples = 1\nvalue = 0.3"] ;
236 -> 237 ;
238 [label="X[37] <= 0.5\nmse = 0.0001\nsamples = 4\nvalue = 0.3575"] ;
236 -> 238 ;
239 [label="X[12] <= 0.5\nmse = 0.0\nsamples = 3\nvalue = 0.3633"] ;
238 -> 239 ;
240 [label="mse = 0.0\nsamples = 2\nvalue = 0.36"] ;
239 -> 240 ;
241 [label="mse = 0.0\nsamples = 1\nvalue = 0.37"] ;
239 -> 241 ;
242 [label="mse = -0.0\nsamples = 1\nvalue = 0.34"] ;
238 -> 242 ;
243 [label="X[24] <= 0.5\nmse = 0.0002\nsamples = 2\nvalue = 0.425"] ;
235 -> 243 ;
244 [label="mse = 0.0\nsamples = 1\nvalue = 0.41"] ;
243 -> 244 ;
245 [label="mse = 0.0\nsamples = 1\nvalue = 0.44"] ;
243 -> 245 ;
246 [label="X[14] <= 0.5\nmse = 0.0011\nsamples = 3\nvalue = 0.44"] ;
234 -> 246 ;
247 [label="mse = 0.0\nsamples = 1\nvalue = 0.4"] ;
246 -> 247 ;
248 [label="X[10] <= 0.5\nmse = 0.0004\nsamples = 2\nvalue = 0.46"] ;
246 -> 248 ;
249 [label="mse = 0.0\nsamples = 1\nvalue = 0.48"] ;
248 -> 249 ;
250 [label="mse = 0.0\nsamples = 1\nvalue = 0.44"] ;
248 -> 250 ;
251 [label="X[42] <= 0.5\nmse = 0.0021\nsamples = 17\nvalue = 0.4412"] ;
233 -> 251 ;
252 [label="X[26] <= 0.5\nmse = 0.0012\nsamples = 7\nvalue = 0.4057"] ;
251 -> 252 ;
253 [label="mse = 0.0\nsamples = 2\nvalue = 0.45"] ;
252 -> 253 ;
254 [label="X[16] <= 0.5\nmse = 0.0006\nsamples = 5\nvalue = 0.388"] ;
252 -> 254 ;
255 [label="X[10] <= 0.5\nmse = 0.0002\nsamples = 2\nvalue = 0.415"] ;
254 -> 255 ;
256 [label="mse = 0.0\nsamples = 1\nvalue = 0.4"] ;
255 -> 256 ;
257 [label="mse = -0.0\nsamples = 1\nvalue = 0.43"] ;
255 -> 257 ;
258 [label="X[36] <= 0.5\nmse = 0.0001\nsamples = 3\nvalue = 0.37"] ;
254 -> 258 ;
259 [label="X[44] <= 0.5\nmse = 0.0\nsamples = 2\nvalue = 0.365"] ;
258 -> 259 ;
260 [label="mse = 0.0\nsamples = 1\nvalue = 0.36"] ;
259 -> 260 ;
261 [label="mse = -0.0\nsamples = 1\nvalue = 0.37"] ;
259 -> 261 ;
262 [label="mse = -0.0\nsamples = 1\nvalue = 0.38"] ;
258 -> 262 ;
263 [label="X[14] <= 0.5\nmse = 0.0012\nsamples = 10\nvalue = 0.466"] ;
251 -> 263 ;
264 [label="X[16] <= 0.5\nmse = 0.0014\nsamples = 3\nvalue = 0.5"] ;
263 -> 264 ;
265 [label="mse = 0.0\nsamples = 1\nvalue = 0.45"] ;
264 -> 265 ;
266 [label="X[35] <= 0.5\nmse = 0.0002\nsamples = 2\nvalue = 0.525"] ;
264 -> 266 ;
267 [label="mse = 0.0\nsamples = 1\nvalue = 0.54"] ;
266 -> 267 ;
268 [label="mse = 0.0\nsamples = 1\nvalue = 0.51"] ;
266 -> 268 ;
269 [label="X[24] <= 0.5\nmse = 0.0004\nsamples = 7\nvalue = 0.4514"] ;
263 -> 269 ;
270 [label="X[34] <= 0.5\nmse = 0.0002\nsamples = 2\nvalue = 0.475"] ;
269 -> 270 ;
271 [label="mse = 0.0\nsamples = 1\nvalue = 0.49"] ;
270 -> 271 ;
272 [label="mse = 0.0\nsamples = 1\nvalue = 0.46"] ;
270 -> 272 ;
273 [label="X[33] <= 0.5\nmse = 0.0001\nsamples = 5\nvalue = 0.442"] ;
269 -> 273 ;
274 [label="mse = 0.0\nsamples = 1\nvalue = 0.42"] ;
273 -> 274 ;
275 [label="X[45] <= 0.5\nmse = 0.0\nsamples = 4\nvalue = 0.4475"] ;
273 -> 275 ;
276 [label="mse = 0.0\nsamples = 3\nvalue = 0.45"] ;
275 -> 276 ;
277 [label="mse = 0.0\nsamples = 1\nvalue = 0.44"] ;
275 -> 277 ;
278 [label="X[43] <= 0.5\nmse = 0.0044\nsamples = 23\nvalue = 0.4757"] ;
220 -> 278 ;
279 [label="X[10] <= 0.5\nmse = 0.0017\nsamples = 12\nvalue = 0.4308"] ;
278 -> 279 ;
280 [label="X[4] <= 0.5\nmse = 0.0008\nsamples = 10\nvalue = 0.417"] ;
279 -> 280 ;
281 [label="mse = 0.0\nsamples = 2\nvalue = 0.37"] ;
280 -> 281 ;
282 [label="X[9] <= 0.5\nmse = 0.0003\nsamples = 8\nvalue = 0.4288"] ;
280 -> 282 ;
283 [label="X[47] <= 0.5\nmse = 0.0002\nsamples = 5\nvalue = 0.42"] ;
282 -> 283 ;
284 [label="X[19] <= 0.5\nmse = 0.0\nsamples = 2\nvalue = 0.405"] ;
283 -> 284 ;
285 [label="mse = 0.0\nsamples = 1\nvalue = 0.41"] ;
284 -> 285 ;
286 [label="mse = -0.0\nsamples = 1\nvalue = 0.4"] ;
284 -> 286 ;
287 [label="mse = 0.0\nsamples = 3\nvalue = 0.43"] ;
283 -> 287 ;
288 [label="X[42] <= 0.5\nmse = 0.0001\nsamples = 3\nvalue = 0.4433"] ;
282 -> 288 ;
289 [label="mse = 0.0\nsamples = 1\nvalue = 0.43"] ;
288 -> 289 ;
290 [label="mse = -0.0\nsamples = 2\nvalue = 0.45"] ;
288 -> 290 ;
291 [label="X[26] <= 0.5\nmse = 0.0004\nsamples = 2\nvalue = 0.5"] ;
279 -> 291 ;
292 [label="mse = 0.0\nsamples = 1\nvalue = 0.48"] ;
291 -> 292 ;
293 [label="mse = 0.0\nsamples = 1\nvalue = 0.52"] ;
291 -> 293 ;
294 [label="X[8] <= 0.5\nmse = 0.0027\nsamples = 11\nvalue = 0.5245"] ;
278 -> 294 ;
295 [label="X[32] <= 0.5\nmse = 0.0003\nsamples = 4\nvalue = 0.47"] ;
294 -> 295 ;
296 [label="X[38] <= 0.5\nmse = 0.0\nsamples = 2\nvalue = 0.485"] ;
295 -> 296 ;
297 [label="mse = 0.0\nsamples = 1\nvalue = 0.49"] ;
296 -> 297 ;
298 [label="mse = 0.0\nsamples = 1\nvalue = 0.48"] ;
296 -> 298 ;
299 [label="X[23] <= 0.5\nmse = 0.0\nsamples = 2\nvalue = 0.455"] ;
295 -> 299 ;
300 [label="mse = 0.0\nsamples = 1\nvalue = 0.46"] ;
299 -> 300 ;
301 [label="mse = 0.0\nsamples = 1\nvalue = 0.45"] ;
299 -> 301 ;
302 [label="X[9] <= 0.5\nmse = 0.0015\nsamples = 7\nvalue = 0.5557"] ;
294 -> 302 ;
303 [label="mse = 0.0\nsamples = 1\nvalue = 0.63"] ;
302 -> 303 ;
304 [label="X[12] <= 0.5\nmse = 0.0006\nsamples = 6\nvalue = 0.5433"] ;
302 -> 304 ;
305 [label="X[19] <= 0.5\nmse = 0.0001\nsamples = 3\nvalue = 0.52"] ;
304 -> 305 ;
306 [label="mse = 0.0\nsamples = 1\nvalue = 0.51"] ;
305 -> 306 ;
307 [label="X[38] <= 0.5\nmse = 0.0\nsamples = 2\nvalue = 0.525"] ;
305 -> 307 ;
308 [label="mse = 0.0\nsamples = 1\nvalue = 0.52"] ;
307 -> 308 ;
309 [label="mse = 0.0\nsamples = 1\nvalue = 0.53"] ;
307 -> 309 ;
310 [label="X[20] <= 0.5\nmse = 0.0001\nsamples = 3\nvalue = 0.5667"] ;
304 -> 310 ;
311 [label="mse = 0.0\nsamples = 2\nvalue = 0.56"] ;
310 -> 311 ;
312 [label="mse = -0.0\nsamples = 1\nvalue = 0.58"] ;
310 -> 312 ;
313 [label="X[12] <= 0.5\nmse = 0.0058\nsamples = 60\nvalue = 0.498"] ;
219 -> 313 ;
314 [label="X[41] <= 0.5\nmse = 0.0039\nsamples = 30\nvalue = 0.465"] ;
313 -> 314 ;
315 [label="X[21] <= 0.5\nmse = 0.003\nsamples = 17\nvalue = 0.4418"] ;
314 -> 315 ;
316 [label="X[11] <= 0.5\nmse = 0.0028\nsamples = 7\nvalue = 0.4071"] ;
315 -> 316 ;
317 [label="X[42] <= 0.5\nmse = 0.0019\nsamples = 3\nvalue = 0.36"] ;
316 -> 317 ;
318 [label="mse = 0.0\nsamples = 1\nvalue = 0.42"] ;
317 -> 318 ;
319 [label="X[5] <= 0.5\nmse = 0.0001\nsamples = 2\nvalue = 0.33"] ;
317 -> 319 ;
320 [label="mse = 0.0\nsamples = 1\nvalue = 0.32"] ;
319 -> 320 ;
321 [label="mse = 0.0\nsamples = 1\nvalue = 0.34"] ;
319 -> 321 ;
322 [label="X[25] <= 0.5\nmse = 0.0006\nsamples = 4\nvalue = 0.4425"] ;
316 -> 322 ;
323 [label="X[13] <= 0.5\nmse = 0.0001\nsamples = 2\nvalue = 0.42"] ;
322 -> 323 ;
324 [label="mse = 0.0\nsamples = 1\nvalue = 0.43"] ;
323 -> 324 ;
325 [label="mse = 0.0\nsamples = 1\nvalue = 0.41"] ;
323 -> 325 ;
326 [label="X[16] <= 0.5\nmse = 0.0\nsamples = 2\nvalue = 0.465"] ;
322 -> 326 ;
327 [label="mse = 0.0\nsamples = 1\nvalue = 0.46"] ;
326 -> 327 ;
328 [label="mse = 0.0\nsamples = 1\nvalue = 0.47"] ;
326 -> 328 ;
329 [label="X[6] <= 0.5\nmse = 0.0018\nsamples = 10\nvalue = 0.466"] ;
315 -> 329 ;
330 [label="X[4] <= 0.5\nmse = 0.0004\nsamples = 7\nvalue = 0.4429"] ;
329 -> 330 ;
331 [label="X[32] <= 0.5\nmse = 0.0001\nsamples = 4\nvalue = 0.43"] ;
330 -> 331 ;
332 [label="X[40] <= 0.5\nmse = 0.0\nsamples = 3\nvalue = 0.4233"] ;
331 -> 332 ;
333 [label="mse = 0.0\nsamples = 1\nvalue = 0.43"] ;
332 -> 333 ;
334 [label="mse = -0.0\nsamples = 2\nvalue = 0.42"] ;
332 -> 334 ;
335 [label="mse = 0.0\nsamples = 1\nvalue = 0.45"] ;
331 -> 335 ;
336 [label="X[36] <= 0.5\nmse = 0.0003\nsamples = 3\nvalue = 0.46"] ;
330 -> 336 ;
337 [label="X[14] <= 0.5\nmse = 0.0001\nsamples = 2\nvalue = 0.45"] ;
336 -> 337 ;
338 [label="mse = 0.0\nsamples = 1\nvalue = 0.46"] ;
337 -> 338 ;
339 [label="mse = 0.0\nsamples = 1\nvalue = 0.44"] ;
337 -> 339 ;
340 [label="mse = -0.0\nsamples = 1\nvalue = 0.48"] ;
336 -> 340 ;
341 [label="X[4] <= 0.5\nmse = 0.0009\nsamples = 3\nvalue = 0.52"] ;
329 -> 341 ;
342 [label="mse = 0.0\nsamples = 1\nvalue = 0.56"] ;
341 -> 342 ;
343 [label="X[22] <= 0.5\nmse = 0.0001\nsamples = 2\nvalue = 0.5"] ;
341 -> 343 ;
344 [label="mse = 0.0\nsamples = 1\nvalue = 0.51"] ;
343 -> 344 ;
345 [label="mse = 0.0\nsamples = 1\nvalue = 0.49"] ;
343 -> 345 ;
346 [label="X[4] <= 0.5\nmse = 0.0034\nsamples = 13\nvalue = 0.4954"] ;
314 -> 346 ;
347 [label="X[44] <= 0.5\nmse = 0.003\nsamples = 7\nvalue = 0.4614"] ;
346 -> 347 ;
348 [label="X[22] <= 0.5\nmse = 0.0011\nsamples = 5\nvalue = 0.432"] ;
347 -> 348 ;
349 [label="mse = 0.0\nsamples = 1\nvalue = 0.37"] ;
348 -> 349 ;
350 [label="X[25] <= 0.5\nmse = 0.0002\nsamples = 4\nvalue = 0.4475"] ;
348 -> 350 ;
351 [label="mse = 0.0\nsamples = 2\nvalue = 0.46"] ;
350 -> 351 ;
352 [label="X[48] <= 0.5\nmse = 0.0\nsamples = 2\nvalue = 0.435"] ;
350 -> 352 ;
353 [label="mse = 0.0\nsamples = 1\nvalue = 0.44"] ;
352 -> 353 ;
354 [label="mse = -0.0\nsamples = 1\nvalue = 0.43"] ;
352 -> 354 ;
355 [label="X[7] <= 0.5\nmse = 0.0002\nsamples = 2\nvalue = 0.535"] ;
347 -> 355 ;
356 [label="mse = 0.0\nsamples = 1\nvalue = 0.55"] ;
355 -> 356 ;
357 [label="mse = 0.0\nsamples = 1\nvalue = 0.52"] ;
355 -> 357 ;
358 [label="X[21] <= 0.5\nmse = 0.0009\nsamples = 6\nvalue = 0.535"] ;
346 -> 358 ;
359 [label="X[38] <= 0.5\nmse = 0.0003\nsamples = 3\nvalue = 0.51"] ;
358 -> 359 ;
360 [label="mse = 0.0\nsamples = 1\nvalue = 0.53"] ;
359 -> 360 ;
361 [label="X[8] <= 0.5\nmse = 0.0001\nsamples = 2\nvalue = 0.5"] ;
359 -> 361 ;
362 [label="mse = 0.0\nsamples = 1\nvalue = 0.51"] ;
361 -> 362 ;
363 [label="mse = 0.0\nsamples = 1\nvalue = 0.49"] ;
361 -> 363 ;
364 [label="X[36] <= 0.5\nmse = 0.0002\nsamples = 3\nvalue = 0.56"] ;
358 -> 364 ;
365 [label="mse = 0.0\nsamples = 1\nvalue = 0.54"] ;
364 -> 365 ;
366 [label="mse = 0.0\nsamples = 2\nvalue = 0.57"] ;
364 -> 366 ;
367 [label="X[10] <= 0.5\nmse = 0.0055\nsamples = 30\nvalue = 0.531"] ;
313 -> 367 ;
368 [label="X[39] <= 0.5\nmse = 0.0037\nsamples = 20\nvalue = 0.4965"] ;
367 -> 368 ;
369 [label="X[20] <= 0.5\nmse = 0.0015\nsamples = 3\nvalue = 0.4133"] ;
368 -> 369 ;
370 [label="mse = 0.0\nsamples = 1\nvalue = 0.36"] ;
369 -> 370 ;
371 [label="X[44] <= 0.5\nmse = 0.0001\nsamples = 2\nvalue = 0.44"] ;
369 -> 371 ;
372 [label="mse = 0.0\nsamples = 1\nvalue = 0.45"] ;
371 -> 372 ;
373 [label="mse = -0.0\nsamples = 1\nvalue = 0.43"] ;
371 -> 373 ;
374 [label="X[25] <= 0.5\nmse = 0.0026\nsamples = 17\nvalue = 0.5112"] ;
368 -> 374 ;
375 [label="X[18] <= 0.5\nmse = 0.0021\nsamples = 10\nvalue = 0.489"] ;
374 -> 375 ;
376 [label="X[14] <= 0.5\nmse = 0.001\nsamples = 5\nvalue = 0.466"] ;
375 -> 376 ;
377 [label="X[36] <= 0.5\nmse = 0.0006\nsamples = 3\nvalue = 0.4467"] ;
376 -> 377 ;
378 [label="X[6] <= 0.5\nmse = 0.0001\nsamples = 2\nvalue = 0.43"] ;
377 -> 378 ;
379 [label="mse = 0.0\nsamples = 1\nvalue = 0.42"] ;
378 -> 379 ;
380 [label="mse = 0.0\nsamples = 1\nvalue = 0.44"] ;
378 -> 380 ;
381 [label="mse = -0.0\nsamples = 1\nvalue = 0.48"] ;
377 -> 381 ;
382 [label="X[21] <= 0.5\nmse = 0.0002\nsamples = 2\nvalue = 0.495"] ;
376 -> 382 ;
383 [label="mse = 0.0\nsamples = 1\nvalue = 0.51"] ;
382 -> 383 ;
384 [label="mse = 0.0\nsamples = 1\nvalue = 0.48"] ;
382 -> 384 ;
385 [label="X[38] <= 0.5\nmse = 0.0022\nsamples = 5\nvalue = 0.512"] ;
375 -> 385 ;
386 [label="X[16] <= 0.5\nmse = 0.0004\nsamples = 3\nvalue = 0.5467"] ;
385 -> 386 ;
387 [label="mse = 0.0\nsamples = 1\nvalue = 0.52"] ;
386 -> 387 ;
388 [label="X[4] <= 0.5\nmse = 0.0001\nsamples = 2\nvalue = 0.56"] ;
386 -> 388 ;
389 [label="mse = 0.0\nsamples = 1\nvalue = 0.55"] ;
388 -> 389 ;
390 [label="mse = -0.0\nsamples = 1\nvalue = 0.57"] ;
388 -> 390 ;
391 [label="X[29] <= 0.5\nmse = 0.0004\nsamples = 2\nvalue = 0.46"] ;
385 -> 391 ;
392 [label="mse = 0.0\nsamples = 1\nvalue = 0.44"] ;
391 -> 392 ;
393 [label="mse = 0.0\nsamples = 1\nvalue = 0.48"] ;
391 -> 393 ;
394 [label="X[6] <= 0.5\nmse = 0.0016\nsamples = 7\nvalue = 0.5429"] ;
374 -> 394 ;
395 [label="X[34] <= 0.5\nmse = 0.0008\nsamples = 3\nvalue = 0.51"] ;
394 -> 395 ;
396 [label="mse = 0.0\nsamples = 2\nvalue = 0.49"] ;
395 -> 396 ;
397 [label="mse = -0.0\nsamples = 1\nvalue = 0.55"] ;
395 -> 397 ;
398 [label="X[26] <= 0.5\nmse = 0.0009\nsamples = 4\nvalue = 0.5675"] ;
394 -> 398 ;
399 [label="mse = 0.0\nsamples = 1\nvalue = 0.52"] ;
398 -> 399 ;
400 [label="X[11] <= 0.5\nmse = 0.0002\nsamples = 3\nvalue = 0.5833"] ;
398 -> 400 ;
401 [label="X[37] <= 0.5\nmse = 0.0\nsamples = 2\nvalue = 0.575"] ;
400 -> 401 ;
402 [label="mse = 0.0\nsamples = 1\nvalue = 0.58"] ;
401 -> 402 ;
403 [label="mse = 0.0\nsamples = 1\nvalue = 0.57"] ;
401 -> 403 ;
404 [label="mse = 0.0\nsamples = 1\nvalue = 0.6"] ;
400 -> 404 ;
405 [label="X[9] <= 0.5\nmse = 0.002\nsamples = 10\nvalue = 0.6"] ;
367 -> 405 ;
406 [label="X[38] <= 0.5\nmse = 0.0016\nsamples = 4\nvalue = 0.5625"] ;
405 -> 406 ;
407 [label="mse = 0.0\nsamples = 1\nvalue = 0.63"] ;
406 -> 407 ;
408 [label="X[34] <= 0.5\nmse = 0.0001\nsamples = 3\nvalue = 0.54"] ;
406 -> 408 ;
409 [label="X[43] <= 0.5\nmse = 0.0\nsamples = 2\nvalue = 0.535"] ;
408 -> 409 ;
410 [label="mse = 0.0\nsamples = 1\nvalue = 0.54"] ;
409 -> 410 ;
411 [label="mse = -0.0\nsamples = 1\nvalue = 0.53"] ;
409 -> 411 ;
412 [label="mse = -0.0\nsamples = 1\nvalue = 0.55"] ;
408 -> 412 ;
413 [label="X[31] <= 0.5\nmse = 0.0007\nsamples = 6\nvalue = 0.625"] ;
405 -> 413 ;
414 [label="X[45] <= 0.5\nmse = 0.0001\nsamples = 3\nvalue = 0.61"] ;
413 -> 414 ;
415 [label="X[37] <= 0.5\nmse = 0.0\nsamples = 2\nvalue = 0.605"] ;
414 -> 415 ;
416 [label="mse = 0.0\nsamples = 1\nvalue = 0.61"] ;
415 -> 416 ;
417 [label="mse = 0.0\nsamples = 1\nvalue = 0.6"] ;
415 -> 417 ;
418 [label="mse = -0.0\nsamples = 1\nvalue = 0.62"] ;
414 -> 418 ;
419 [label="X[35] <= 0.5\nmse = 0.0009\nsamples = 3\nvalue = 0.64"] ;
413 -> 419 ;
420 [label="X[34] <= 0.5\nmse = 0.0001\nsamples = 2\nvalue = 0.62"] ;
419 -> 420 ;
421 [label="mse = 0.0\nsamples = 1\nvalue = 0.61"] ;
420 -> 421 ;
422 [label="mse = 0.0\nsamples = 1\nvalue = 0.63"] ;
420 -> 422 ;
423 [label="mse = -0.0\nsamples = 1\nvalue = 0.68"] ;
419 -> 423 ;
424 [label="X[2] <= 0.5\nmse = 0.0066\nsamples = 256\nvalue = 0.5167"] ;
0 -> 424 [labeldistance=2.5, labelangle=-45, headlabel="False"] ;
425 [label="X[39] <= 0.5\nmse = 0.0059\nsamples = 126\nvalue = 0.4876"] ;
424 -> 425 ;
426 [label="X[4] <= 0.5\nmse = 0.004\nsamples = 16\nvalue = 0.3994"] ;
425 -> 426 ;
427 [label="X[5] <= 0.5\nmse = 0.0031\nsamples = 8\nvalue = 0.3625"] ;
426 -> 427 ;
428 [label="X[15] <= 0.5\nmse = 0.0013\nsamples = 4\nvalue = 0.3175"] ;
427 -> 428 ;
429 [label="X[33] <= 0.5\nmse = 0.0005\nsamples = 3\nvalue = 0.3"] ;
428 -> 429 ;
430 [label="X[48] <= 0.5\nmse = 0.0\nsamples = 2\nvalue = 0.315"] ;
429 -> 430 ;
431 [label="mse = 0.0\nsamples = 1\nvalue = 0.32"] ;
430 -> 431 ;
432 [label="mse = 0.0\nsamples = 1\nvalue = 0.31"] ;
430 -> 432 ;
433 [label="mse = 0.0\nsamples = 1\nvalue = 0.27"] ;
429 -> 433 ;
434 [label="mse = -0.0\nsamples = 1\nvalue = 0.37"] ;
428 -> 434 ;
435 [label="X[20] <= 0.5\nmse = 0.001\nsamples = 4\nvalue = 0.4075"] ;
427 -> 435 ;
436 [label="X[12] <= 0.5\nmse = 0.0004\nsamples = 2\nvalue = 0.38"] ;
435 -> 436 ;
437 [label="mse = 0.0\nsamples = 1\nvalue = 0.36"] ;
436 -> 437 ;
438 [label="mse = 0.0\nsamples = 1\nvalue = 0.4"] ;
436 -> 438 ;
439 [label="X[19] <= 0.5\nmse = 0.0\nsamples = 2\nvalue = 0.435"] ;
435 -> 439 ;
440 [label="mse = 0.0\nsamples = 1\nvalue = 0.43"] ;
439 -> 440 ;
441 [label="mse = -0.0\nsamples = 1\nvalue = 0.44"] ;
439 -> 441 ;
442 [label="X[13] <= 0.5\nmse = 0.0022\nsamples = 8\nvalue = 0.4362"] ;
426 -> 442 ;
443 [label="X[31] <= 0.5\nmse = 0.0001\nsamples = 3\nvalue = 0.3833"] ;
442 -> 443 ;
444 [label="mse = 0.0\nsamples = 1\nvalue = 0.37"] ;
443 -> 444 ;
445 [label="mse = 0.0\nsamples = 2\nvalue = 0.39"] ;
443 -> 445 ;
446 [label="X[10] <= 0.5\nmse = 0.0007\nsamples = 5\nvalue = 0.468"] ;
442 -> 446 ;
447 [label="X[6] <= 0.5\nmse = 0.0001\nsamples = 2\nvalue = 0.44"] ;
446 -> 447 ;
448 [label="mse = 0.0\nsamples = 1\nvalue = 0.43"] ;
447 -> 448 ;
449 [label="mse = -0.0\nsamples = 1\nvalue = 0.45"] ;
447 -> 449 ;
450 [label="X[46] <= 0.5\nmse = 0.0003\nsamples = 3\nvalue = 0.4867"] ;
446 -> 450 ;
451 [label="mse = 0.0\nsamples = 1\nvalue = 0.51"] ;
450 -> 451 ;
452 [label="X[7] <= 0.5\nmse = 0.0\nsamples = 2\nvalue = 0.475"] ;
450 -> 452 ;
453 [label="mse = 0.0\nsamples = 1\nvalue = 0.48"] ;
452 -> 453 ;
454 [label="mse = 0.0\nsamples = 1\nvalue = 0.47"] ;
452 -> 454 ;
455 [label="X[1] <= 0.5\nmse = 0.0049\nsamples = 110\nvalue = 0.5005"] ;
425 -> 455 ;
456 [label="X[30] <= 0.5\nmse = 0.005\nsamples = 21\nvalue = 0.4462"] ;
455 -> 456 ;
457 [label="mse = 0.0\nsamples = 1\nvalue = 0.26"] ;
456 -> 457 ;
458 [label="X[32] <= 0.5\nmse = 0.0035\nsamples = 20\nvalue = 0.4555"] ;
456 -> 458 ;
459 [label="X[48] <= 0.5\nmse = 0.0011\nsamples = 6\nvalue = 0.41"] ;
458 -> 459 ;
460 [label="X[35] <= 0.5\nmse = 0.0004\nsamples = 2\nvalue = 0.37"] ;
459 -> 460 ;
461 [label="mse = 0.0\nsamples = 1\nvalue = 0.35"] ;
460 -> 461 ;
462 [label="mse = 0.0\nsamples = 1\nvalue = 0.39"] ;
460 -> 462 ;
463 [label="X[14] <= 0.5\nmse = 0.0003\nsamples = 4\nvalue = 0.43"] ;
459 -> 463 ;
464 [label="X[25] <= 0.5\nmse = 0.0\nsamples = 2\nvalue = 0.415"] ;
463 -> 464 ;
465 [label="mse = 0.0\nsamples = 1\nvalue = 0.42"] ;
464 -> 465 ;
466 [label="mse = -0.0\nsamples = 1\nvalue = 0.41"] ;
464 -> 466 ;
467 [label="X[24] <= 0.5\nmse = 0.0\nsamples = 2\nvalue = 0.445"] ;
463 -> 467 ;
468 [label="mse = 0.0\nsamples = 1\nvalue = 0.44"] ;
467 -> 468 ;
469 [label="mse = 0.0\nsamples = 1\nvalue = 0.45"] ;
467 -> 469 ;
470 [label="X[48] <= 0.5\nmse = 0.0032\nsamples = 14\nvalue = 0.475"] ;
458 -> 470 ;
471 [label="X[46] <= 0.5\nmse = 0.0014\nsamples = 8\nvalue = 0.4475"] ;
470 -> 471 ;
472 [label="X[21] <= 0.5\nmse = 0.0002\nsamples = 3\nvalue = 0.41"] ;
471 -> 472 ;
473 [label="mse = 0.0\nsamples = 2\nvalue = 0.42"] ;
472 -> 473 ;
474 [label="mse = -0.0\nsamples = 1\nvalue = 0.39"] ;
472 -> 474 ;
475 [label="X[36] <= 0.5\nmse = 0.0008\nsamples = 5\nvalue = 0.47"] ;
471 -> 475 ;
476 [label="X[13] <= 0.5\nmse = 0.0002\nsamples = 4\nvalue = 0.4575"] ;
475 -> 476 ;
477 [label="mse = 0.0\nsamples = 2\nvalue = 0.47"] ;
476 -> 477 ;
478 [label="X[25] <= 0.5\nmse = 0.0\nsamples = 2\nvalue = 0.445"] ;
476 -> 478 ;
479 [label="mse = 0.0\nsamples = 1\nvalue = 0.44"] ;
478 -> 479 ;
480 [label="mse = 0.0\nsamples = 1\nvalue = 0.45"] ;
478 -> 480 ;
481 [label="mse = 0.0\nsamples = 1\nvalue = 0.52"] ;
475 -> 481 ;
482 [label="X[15] <= 0.5\nmse = 0.0032\nsamples = 6\nvalue = 0.5117"] ;
470 -> 482 ;
483 [label="X[46] <= 0.5\nmse = 0.0004\nsamples = 3\nvalue = 0.4633"] ;
482 -> 483 ;
484 [label="X[21] <= 0.5\nmse = 0.0001\nsamples = 2\nvalue = 0.45"] ;
483 -> 484 ;
485 [label="mse = 0.0\nsamples = 1\nvalue = 0.46"] ;
484 -> 485 ;
486 [label="mse = 0.0\nsamples = 1\nvalue = 0.44"] ;
484 -> 486 ;
487 [label="mse = 0.0\nsamples = 1\nvalue = 0.49"] ;
483 -> 487 ;
488 [label="X[18] <= 0.5\nmse = 0.0014\nsamples = 3\nvalue = 0.56"] ;
482 -> 488 ;
489 [label="X[11] <= 0.5\nmse = 0.0002\nsamples = 2\nvalue = 0.535"] ;
488 -> 489 ;
490 [label="mse = 0.0\nsamples = 1\nvalue = 0.55"] ;
489 -> 490 ;
491 [label="mse = 0.0\nsamples = 1\nvalue = 0.52"] ;
489 -> 491 ;
492 [label="mse = -0.0\nsamples = 1\nvalue = 0.61"] ;
488 -> 492 ;
493 [label="X[18] <= 0.5\nmse = 0.004\nsamples = 89\nvalue = 0.5133"] ;
455 -> 493 ;
494 [label="X[20] <= 0.5\nmse = 0.0042\nsamples = 48\nvalue = 0.4917"] ;
493 -> 494 ;
495 [label="X[16] <= 0.5\nmse = 0.0033\nsamples = 22\nvalue = 0.4577"] ;
494 -> 495 ;
496 [label="X[47] <= 0.5\nmse = 0.0014\nsamples = 11\nvalue = 0.4209"] ;
495 -> 496 ;
497 [label="X[9] <= 0.5\nmse = 0.0007\nsamples = 6\nvalue = 0.395"] ;
496 -> 497 ;
498 [label="X[29] <= 0.5\nmse = 0.0002\nsamples = 3\nvalue = 0.3733"] ;
497 -> 498 ;
499 [label="mse = 0.0\nsamples = 1\nvalue = 0.39"] ;
498 -> 499 ;
500 [label="X[7] <= 0.5\nmse = 0.0\nsamples = 2\nvalue = 0.365"] ;
498 -> 500 ;
501 [label="mse = 0.0\nsamples = 1\nvalue = 0.37"] ;
500 -> 501 ;
502 [label="mse = -0.0\nsamples = 1\nvalue = 0.36"] ;
500 -> 502 ;
503 [label="X[4] <= 0.5\nmse = 0.0003\nsamples = 3\nvalue = 0.4167"] ;
497 -> 503 ;
504 [label="mse = 0.0\nsamples = 1\nvalue = 0.44"] ;
503 -> 504 ;
505 [label="X[25] <= 0.5\nmse = 0.0\nsamples = 2\nvalue = 0.405"] ;
503 -> 505 ;
506 [label="mse = 0.0\nsamples = 1\nvalue = 0.4"] ;
505 -> 506 ;
507 [label="mse = -0.0\nsamples = 1\nvalue = 0.41"] ;
505 -> 507 ;
508 [label="X[48] <= 0.5\nmse = 0.0004\nsamples = 5\nvalue = 0.452"] ;
496 -> 508 ;
509 [label="X[15] <= 0.5\nmse = 0.0001\nsamples = 2\nvalue = 0.43"] ;
508 -> 509 ;
510 [label="mse = 0.0\nsamples = 1\nvalue = 0.44"] ;
509 -> 510 ;
511 [label="mse = 0.0\nsamples = 1\nvalue = 0.42"] ;
509 -> 511 ;
512 [label="X[36] <= 0.5\nmse = 0.0001\nsamples = 3\nvalue = 0.4667"] ;
508 -> 512 ;
513 [label="mse = 0.0\nsamples = 1\nvalue = 0.48"] ;
512 -> 513 ;
514 [label="mse = 0.0\nsamples = 2\nvalue = 0.46"] ;
512 -> 514 ;
515 [label="X[46] <= 0.5\nmse = 0.0024\nsamples = 11\nvalue = 0.4945"] ;
495 -> 515 ;
516 [label="X[36] <= 0.5\nmse = 0.0011\nsamples = 5\nvalue = 0.456"] ;
515 -> 516 ;
517 [label="X[44] <= 0.5\nmse = 0.0005\nsamples = 4\nvalue = 0.4425"] ;
516 -> 517 ;
518 [label="mse = 0.0\nsamples = 1\nvalue = 0.48"] ;
517 -> 518 ;
519 [label="mse = 0.0\nsamples = 3\nvalue = 0.43"] ;
517 -> 519 ;
520 [label="mse = 0.0\nsamples = 1\nvalue = 0.51"] ;
516 -> 520 ;
521 [label="X[4] <= 0.5\nmse = 0.0013\nsamples = 6\nvalue = 0.5267"] ;
515 -> 521 ;
522 [label="X[9] <= 0.5\nmse = 0.0002\nsamples = 4\nvalue = 0.5075"] ;
521 -> 522 ;
523 [label="X[25] <= 0.5\nmse = 0.0\nsamples = 2\nvalue = 0.495"] ;
522 -> 523 ;
524 [label="mse = 0.0\nsamples = 1\nvalue = 0.49"] ;
523 -> 524 ;
525 [label="mse = 0.0\nsamples = 1\nvalue = 0.5"] ;
523 -> 525 ;
526 [label="mse = -0.0\nsamples = 2\nvalue = 0.52"] ;
522 -> 526 ;
527 [label="X[12] <= 0.5\nmse = 0.0012\nsamples = 2\nvalue = 0.565"] ;
521 -> 527 ;
528 [label="mse = 0.0\nsamples = 1\nvalue = 0.6"] ;
527 -> 528 ;
529 [label="mse = 0.0\nsamples = 1\nvalue = 0.53"] ;
527 -> 529 ;
530 [label="X[15] <= 0.5\nmse = 0.0031\nsamples = 26\nvalue = 0.5204"] ;
494 -> 530 ;
531 [label="X[11] <= 0.5\nmse = 0.0027\nsamples = 14\nvalue = 0.4936"] ;
530 -> 531 ;
532 [label="X[7] <= 0.5\nmse = 0.0015\nsamples = 4\nvalue = 0.4325"] ;
531 -> 532 ;
533 [label="X[16] <= 0.5\nmse = 0.0001\nsamples = 2\nvalue = 0.47"] ;
532 -> 533 ;
534 [label="mse = 0.0\nsamples = 1\nvalue = 0.46"] ;
533 -> 534 ;
535 [label="mse = 0.0\nsamples = 1\nvalue = 0.48"] ;
533 -> 535 ;
536 [label="X[26] <= 0.5\nmse = 0.0\nsamples = 2\nvalue = 0.395"] ;
532 -> 536 ;
537 [label="mse = 0.0\nsamples = 1\nvalue = 0.4"] ;
536 -> 537 ;
538 [label="mse = 0.0\nsamples = 1\nvalue = 0.39"] ;
536 -> 538 ;
539 [label="X[24] <= 0.5\nmse = 0.001\nsamples = 10\nvalue = 0.518"] ;
531 -> 539 ;
540 [label="X[42] <= 0.5\nmse = 0.0003\nsamples = 5\nvalue = 0.544"] ;
539 -> 540 ;
541 [label="X[43] <= 0.5\nmse = 0.0001\nsamples = 4\nvalue = 0.5525"] ;
540 -> 541 ;
542 [label="mse = 0.0\nsamples = 1\nvalue = 0.54"] ;
541 -> 542 ;
543 [label="X[41] <= 0.5\nmse = 0.0\nsamples = 3\nvalue = 0.5567"] ;
541 -> 543 ;
544 [label="mse = 0.0\nsamples = 1\nvalue = 0.55"] ;
543 -> 544 ;
545 [label="mse = 0.0\nsamples = 2\nvalue = 0.56"] ;
543 -> 545 ;
546 [label="mse = -0.0\nsamples = 1\nvalue = 0.51"] ;
540 -> 546 ;
547 [label="X[25] <= 0.5\nmse = 0.0004\nsamples = 5\nvalue = 0.492"] ;
539 -> 547 ;
548 [label="mse = 0.0\nsamples = 1\nvalue = 0.52"] ;
547 -> 548 ;
549 [label="X[4] <= 0.5\nmse = 0.0002\nsamples = 4\nvalue = 0.485"] ;
547 -> 549 ;
550 [label="X[36] <= 0.5\nmse = 0.0\nsamples = 3\nvalue = 0.4767"] ;
549 -> 550 ;
551 [label="mse = 0.0\nsamples = 1\nvalue = 0.47"] ;
550 -> 551 ;
552 [label="mse = 0.0\nsamples = 2\nvalue = 0.48"] ;
550 -> 552 ;
553 [label="mse = 0.0\nsamples = 1\nvalue = 0.51"] ;
549 -> 553 ;
554 [label="X[37] <= 0.5\nmse = 0.0019\nsamples = 12\nvalue = 0.5517"] ;
530 -> 554 ;
555 [label="X[32] <= 0.5\nmse = 0.0012\nsamples = 7\nvalue = 0.5271"] ;
554 -> 555 ;
556 [label="X[34] <= 0.5\nmse = 0.0001\nsamples = 3\nvalue = 0.5533"] ;
555 -> 556 ;
557 [label="mse = 0.0\nsamples = 1\nvalue = 0.54"] ;
556 -> 557 ;
558 [label="mse = -0.0\nsamples = 2\nvalue = 0.56"] ;
556 -> 558 ;
559 [label="X[25] <= 0.5\nmse = 0.0011\nsamples = 4\nvalue = 0.5075"] ;
555 -> 559 ;
560 [label="X[12] <= 0.5\nmse = 0.0004\nsamples = 3\nvalue = 0.5233"] ;
559 -> 560 ;
561 [label="mse = 0.0\nsamples = 1\nvalue = 0.55"] ;
560 -> 561 ;
562 [label="X[33] <= 0.5\nmse = 0.0001\nsamples = 2\nvalue = 0.51"] ;
560 -> 562 ;
563 [label="mse = 0.0\nsamples = 1\nvalue = 0.52"] ;
562 -> 563 ;
564 [label="mse = -0.0\nsamples = 1\nvalue = 0.5"] ;
562 -> 564 ;
565 [label="mse = -0.0\nsamples = 1\nvalue = 0.46"] ;
559 -> 565 ;
566 [label="X[34] <= 0.5\nmse = 0.0009\nsamples = 5\nvalue = 0.586"] ;
554 -> 566 ;
567 [label="X[38] <= 0.5\nmse = 0.0004\nsamples = 3\nvalue = 0.5667"] ;
566 -> 567 ;
568 [label="mse = -0.0\nsamples = 2\nvalue = 0.58"] ;
567 -> 568 ;
569 [label="mse = -0.0\nsamples = 1\nvalue = 0.54"] ;
567 -> 569 ;
570 [label="X[14] <= 0.5\nmse = 0.0002\nsamples = 2\nvalue = 0.615"] ;
566 -> 570 ;
571 [label="mse = 0.0\nsamples = 1\nvalue = 0.6"] ;
570 -> 571 ;
572 [label="mse = 0.0\nsamples = 1\nvalue = 0.63"] ;
570 -> 572 ;
573 [label="X[34] <= 0.5\nmse = 0.0027\nsamples = 41\nvalue = 0.5385"] ;
493 -> 573 ;
574 [label="X[11] <= 0.5\nmse = 0.0015\nsamples = 19\nvalue = 0.5126"] ;
573 -> 574 ;
575 [label="X[9] <= 0.5\nmse = 0.0004\nsamples = 11\nvalue = 0.4991"] ;
574 -> 575 ;
576 [label="X[20] <= 0.5\nmse = 0.0002\nsamples = 4\nvalue = 0.4825"] ;
575 -> 576 ;
577 [label="mse = 0.0\nsamples = 1\nvalue = 0.46"] ;
576 -> 577 ;
578 [label="X[6] <= 0.5\nmse = 0.0001\nsamples = 3\nvalue = 0.49"] ;
576 -> 578 ;
579 [label="X[41] <= 0.5\nmse = 0.0\nsamples = 2\nvalue = 0.485"] ;
578 -> 579 ;
580 [label="mse = 0.0\nsamples = 1\nvalue = 0.48"] ;
579 -> 580 ;
581 [label="mse = 0.0\nsamples = 1\nvalue = 0.49"] ;
579 -> 581 ;
582 [label="mse = -0.0\nsamples = 1\nvalue = 0.5"] ;
578 -> 582 ;
583 [label="X[43] <= 0.5\nmse = 0.0002\nsamples = 7\nvalue = 0.5086"] ;
575 -> 583 ;
584 [label="X[35] <= 0.5\nmse = 0.0002\nsamples = 2\nvalue = 0.525"] ;
583 -> 584 ;
585 [label="mse = 0.0\nsamples = 1\nvalue = 0.54"] ;
584 -> 585 ;
586 [label="mse = 0.0\nsamples = 1\nvalue = 0.51"] ;
584 -> 586 ;
587 [label="X[47] <= 0.5\nmse = 0.0001\nsamples = 5\nvalue = 0.502"] ;
583 -> 587 ;
588 [label="mse = 0.0\nsamples = 1\nvalue = 0.52"] ;
587 -> 588 ;
589 [label="X[32] <= 0.5\nmse = 0.0\nsamples = 4\nvalue = 0.4975"] ;
587 -> 589 ;
590 [label="mse = 0.0\nsamples = 1\nvalue = 0.49"] ;
589 -> 590 ;
591 [label="mse = 0.0\nsamples = 3\nvalue = 0.5"] ;
589 -> 591 ;
592 [label="X[43] <= 0.5\nmse = 0.0023\nsamples = 8\nvalue = 0.5312"] ;
574 -> 592 ;
593 [label="X[7] <= 0.5\nmse = 0.001\nsamples = 4\nvalue = 0.4975"] ;
592 -> 593 ;
594 [label="X[4] <= 0.5\nmse = 0.0\nsamples = 2\nvalue = 0.525"] ;
593 -> 594 ;
595 [label="mse = 0.0\nsamples = 1\nvalue = 0.52"] ;
594 -> 595 ;
596 [label="mse = 0.0\nsamples = 1\nvalue = 0.53"] ;
594 -> 596 ;
597 [label="X[15] <= 0.5\nmse = 0.0004\nsamples = 2\nvalue = 0.47"] ;
593 -> 597 ;
598 [label="mse = 0.0\nsamples = 1\nvalue = 0.45"] ;
597 -> 598 ;
599 [label="mse = 0.0\nsamples = 1\nvalue = 0.49"] ;
597 -> 599 ;
600 [label="X[31] <= 0.5\nmse = 0.0014\nsamples = 4\nvalue = 0.565"] ;
592 -> 600 ;
601 [label="mse = 0.0\nsamples = 1\nvalue = 0.5"] ;
600 -> 601 ;
602 [label="X[45] <= 0.5\nmse = 0.0\nsamples = 3\nvalue = 0.5867"] ;
600 -> 602 ;
603 [label="mse = 0.0\nsamples = 2\nvalue = 0.59"] ;
602 -> 603 ;
604 [label="mse = -0.0\nsamples = 1\nvalue = 0.58"] ;
602 -> 604 ;
605 [label="X[43] <= 0.5\nmse = 0.0027\nsamples = 22\nvalue = 0.5609"] ;
573 -> 605 ;
606 [label="X[25] <= 0.5\nmse = 0.0021\nsamples = 11\nvalue = 0.5345"] ;
605 -> 606 ;
607 [label="X[32] <= 0.5\nmse = 0.0005\nsamples = 3\nvalue = 0.49"] ;
606 -> 607 ;
608 [label="mse = 0.0\nsamples = 1\nvalue = 0.52"] ;
607 -> 608 ;
609 [label="X[14] <= 0.5\nmse = 0.0\nsamples = 2\nvalue = 0.475"] ;
607 -> 609 ;
610 [label="mse = 0.0\nsamples = 1\nvalue = 0.48"] ;
609 -> 610 ;
611 [label="mse = 0.0\nsamples = 1\nvalue = 0.47"] ;
609 -> 611 ;
612 [label="X[24] <= 0.5\nmse = 0.0017\nsamples = 8\nvalue = 0.5512"] ;
606 -> 612 ;
613 [label="X[26] <= 0.5\nmse = 0.0013\nsamples = 4\nvalue = 0.52"] ;
612 -> 613 ;
614 [label="mse = 0.0\nsamples = 1\nvalue = 0.46"] ;
613 -> 614 ;
615 [label="X[41] <= 0.5\nmse = 0.0001\nsamples = 3\nvalue = 0.54"] ;
613 -> 615 ;
616 [label="mse = 0.0\nsamples = 1\nvalue = 0.55"] ;
615 -> 616 ;
617 [label="X[7] <= 0.5\nmse = 0.0\nsamples = 2\nvalue = 0.535"] ;
615 -> 617 ;
618 [label="mse = 0.0\nsamples = 1\nvalue = 0.54"] ;
617 -> 618 ;
619 [label="mse = -0.0\nsamples = 1\nvalue = 0.53"] ;
617 -> 619 ;
620 [label="X[7] <= 0.5\nmse = 0.0002\nsamples = 4\nvalue = 0.5825"] ;
612 -> 620 ;
621 [label="mse = 0.0\nsamples = 2\nvalue = 0.57"] ;
620 -> 621 ;
622 [label="X[21] <= 0.5\nmse = 0.0\nsamples = 2\nvalue = 0.595"] ;
620 -> 622 ;
623 [label="mse = 0.0\nsamples = 1\nvalue = 0.6"] ;
622 -> 623 ;
624 [label="mse = 0.0\nsamples = 1\nvalue = 0.59"] ;
622 -> 624 ;
625 [label="X[4] <= 0.5\nmse = 0.0019\nsamples = 11\nvalue = 0.5873"] ;
605 -> 625 ;
626 [label="X[24] <= 0.5\nmse = 0.0002\nsamples = 5\nvalue = 0.612"] ;
625 -> 626 ;
627 [label="mse = 0.0\nsamples = 1\nvalue = 0.59"] ;
626 -> 627 ;
628 [label="X[35] <= 0.5\nmse = 0.0001\nsamples = 4\nvalue = 0.6175"] ;
626 -> 628 ;
629 [label="mse = 0.0\nsamples = 1\nvalue = 0.6"] ;
628 -> 629 ;
630 [label="X[41] <= 0.5\nmse = 0.0\nsamples = 3\nvalue = 0.6233"] ;
628 -> 630 ;
631 [label="mse = 0.0\nsamples = 1\nvalue = 0.63"] ;
630 -> 631 ;
632 [label="mse = -0.0\nsamples = 2\nvalue = 0.62"] ;
630 -> 632 ;
633 [label="X[42] <= 0.5\nmse = 0.0024\nsamples = 6\nvalue = 0.5667"] ;
625 -> 633 ;
634 [label="X[26] <= 0.5\nmse = 0.0001\nsamples = 2\nvalue = 0.52"] ;
633 -> 634 ;
635 [label="mse = 0.0\nsamples = 1\nvalue = 0.53"] ;
634 -> 635 ;
636 [label="mse = 0.0\nsamples = 1\nvalue = 0.51"] ;
634 -> 636 ;
637 [label="X[16] <= 0.5\nmse = 0.002\nsamples = 4\nvalue = 0.59"] ;
633 -> 637 ;
638 [label="X[31] <= 0.5\nmse = 0.0004\nsamples = 3\nvalue = 0.5667"] ;
637 -> 638 ;
639 [label="mse = 0.0\nsamples = 1\nvalue = 0.54"] ;
638 -> 639 ;
640 [label="X[46] <= 0.5\nmse = 0.0001\nsamples = 2\nvalue = 0.58"] ;
638 -> 640 ;
641 [label="mse = 0.0\nsamples = 1\nvalue = 0.59"] ;
640 -> 641 ;
642 [label="mse = 0.0\nsamples = 1\nvalue = 0.57"] ;
640 -> 642 ;
643 [label="mse = -0.0\nsamples = 1\nvalue = 0.66"] ;
637 -> 643 ;
644 [label="X[13] <= 0.5\nmse = 0.0056\nsamples = 130\nvalue = 0.5449"] ;
424 -> 644 ;
645 [label="X[21] <= 0.5\nmse = 0.0042\nsamples = 69\nvalue = 0.513"] ;
644 -> 645 ;
646 [label="X[41] <= 0.5\nmse = 0.004\nsamples = 35\nvalue = 0.4843"] ;
645 -> 646 ;
647 [label="X[31] <= 0.5\nmse = 0.0033\nsamples = 17\nvalue = 0.4535"] ;
646 -> 647 ;
648 [label="X[9] <= 0.5\nmse = 0.0024\nsamples = 9\nvalue = 0.4267"] ;
647 -> 648 ;
649 [label="X[36] <= 0.5\nmse = 0.0008\nsamples = 3\nvalue = 0.3767"] ;
648 -> 649 ;
650 [label="X[43] <= 0.5\nmse = 0.0002\nsamples = 2\nvalue = 0.395"] ;
649 -> 650 ;
651 [label="mse = 0.0\nsamples = 1\nvalue = 0.38"] ;
650 -> 651 ;
652 [label="mse = -0.0\nsamples = 1\nvalue = 0.41"] ;
650 -> 652 ;
653 [label="mse = -0.0\nsamples = 1\nvalue = 0.34"] ;
649 -> 653 ;
654 [label="X[47] <= 0.5\nmse = 0.0013\nsamples = 6\nvalue = 0.4517"] ;
648 -> 654 ;
655 [label="X[30] <= 0.5\nmse = 0.0008\nsamples = 3\nvalue = 0.4233"] ;
654 -> 655 ;
656 [label="mse = 0.0\nsamples = 1\nvalue = 0.46"] ;
655 -> 656 ;
657 [label="X[42] <= 0.5\nmse = 0.0002\nsamples = 2\nvalue = 0.405"] ;
655 -> 657 ;
658 [label="mse = 0.0\nsamples = 1\nvalue = 0.42"] ;
657 -> 658 ;
659 [label="mse = 0.0\nsamples = 1\nvalue = 0.39"] ;
657 -> 659 ;
660 [label="X[34] <= 0.5\nmse = 0.0003\nsamples = 3\nvalue = 0.48"] ;
654 -> 660 ;
661 [label="mse = 0.0\nsamples = 1\nvalue = 0.46"] ;
660 -> 661 ;
662 [label="X[39] <= 0.5\nmse = 0.0001\nsamples = 2\nvalue = 0.49"] ;
660 -> 662 ;
663 [label="mse = 0.0\nsamples = 1\nvalue = 0.5"] ;
662 -> 663 ;
664 [label="mse = 0.0\nsamples = 1\nvalue = 0.48"] ;
662 -> 664 ;
665 [label="X[39] <= 0.5\nmse = 0.0026\nsamples = 8\nvalue = 0.4838"] ;
647 -> 665 ;
666 [label="mse = 0.0\nsamples = 1\nvalue = 0.37"] ;
665 -> 666 ;
667 [label="X[46] <= 0.5\nmse = 0.0009\nsamples = 7\nvalue = 0.5"] ;
665 -> 667 ;
668 [label="X[33] <= 0.5\nmse = 0.0003\nsamples = 3\nvalue = 0.4733"] ;
667 -> 668 ;
669 [label="mse = 0.0\nsamples = 1\nvalue = 0.45"] ;
668 -> 669 ;
670 [label="X[25] <= 0.5\nmse = 0.0\nsamples = 2\nvalue = 0.485"] ;
668 -> 670 ;
671 [label="mse = 0.0\nsamples = 1\nvalue = 0.49"] ;
670 -> 671 ;
672 [label="mse = 0.0\nsamples = 1\nvalue = 0.48"] ;
670 -> 672 ;
673 [label="X[4] <= 0.5\nmse = 0.0004\nsamples = 4\nvalue = 0.52"] ;
667 -> 673 ;
674 [label="X[32] <= 0.5\nmse = 0.0002\nsamples = 3\nvalue = 0.53"] ;
673 -> 674 ;
675 [label="mse = 0.0\nsamples = 2\nvalue = 0.52"] ;
674 -> 675 ;
676 [label="mse = 0.0\nsamples = 1\nvalue = 0.55"] ;
674 -> 676 ;
677 [label="mse = 0.0\nsamples = 1\nvalue = 0.49"] ;
673 -> 677 ;
678 [label="X[12] <= 0.5\nmse = 0.0029\nsamples = 18\nvalue = 0.5133"] ;
646 -> 678 ;
679 [label="X[37] <= 0.5\nmse = 0.0038\nsamples = 6\nvalue = 0.48"] ;
678 -> 679 ;
680 [label="X[7] <= 0.5\nmse = 0.001\nsamples = 4\nvalue = 0.4475"] ;
679 -> 680 ;
681 [label="X[25] <= 0.5\nmse = 0.0004\nsamples = 2\nvalue = 0.42"] ;
680 -> 681 ;
682 [label="mse = 0.0\nsamples = 1\nvalue = 0.4"] ;
681 -> 682 ;
683 [label="mse = -0.0\nsamples = 1\nvalue = 0.44"] ;
681 -> 683 ;
684 [label="X[18] <= 0.5\nmse = 0.0\nsamples = 2\nvalue = 0.475"] ;
680 -> 684 ;
685 [label="mse = 0.0\nsamples = 1\nvalue = 0.48"] ;
684 -> 685 ;
686 [label="mse = 0.0\nsamples = 1\nvalue = 0.47"] ;
684 -> 686 ;
687 [label="X[48] <= 0.5\nmse = 0.003\nsamples = 2\nvalue = 0.545"] ;
679 -> 687 ;
688 [label="mse = 0.0\nsamples = 1\nvalue = 0.49"] ;
687 -> 688 ;
689 [label="mse = 0.0\nsamples = 1\nvalue = 0.6"] ;
687 -> 689 ;
690 [label="X[23] <= 0.5\nmse = 0.0016\nsamples = 12\nvalue = 0.53"] ;
678 -> 690 ;
691 [label="X[35] <= 0.5\nmse = 0.0011\nsamples = 4\nvalue = 0.4925"] ;
690 -> 691 ;
692 [label="X[48] <= 0.5\nmse = 0.0003\nsamples = 3\nvalue = 0.51"] ;
691 -> 692 ;
693 [label="X[8] <= 0.5\nmse = 0.0001\nsamples = 2\nvalue = 0.5"] ;
692 -> 693 ;
694 [label="mse = 0.0\nsamples = 1\nvalue = 0.49"] ;
693 -> 694 ;
695 [label="mse = 0.0\nsamples = 1\nvalue = 0.51"] ;
693 -> 695 ;
696 [label="mse = 0.0\nsamples = 1\nvalue = 0.53"] ;
692 -> 696 ;
697 [label="mse = 0.0\nsamples = 1\nvalue = 0.44"] ;
691 -> 697 ;
698 [label="X[35] <= 0.5\nmse = 0.0008\nsamples = 8\nvalue = 0.5488"] ;
690 -> 698 ;
699 [label="X[9] <= 0.5\nmse = 0.0005\nsamples = 5\nvalue = 0.532"] ;
698 -> 699 ;
700 [label="X[47] <= 0.5\nmse = 0.0\nsamples = 2\nvalue = 0.555"] ;
699 -> 700 ;
701 [label="mse = 0.0\nsamples = 1\nvalue = 0.56"] ;
700 -> 701 ;
702 [label="mse = 0.0\nsamples = 1\nvalue = 0.55"] ;
700 -> 702 ;
703 [label="X[5] <= 0.5\nmse = 0.0002\nsamples = 3\nvalue = 0.5167"] ;
699 -> 703 ;
704 [label="mse = 0.0\nsamples = 1\nvalue = 0.5"] ;
703 -> 704 ;
705 [label="X[33] <= 0.5\nmse = 0.0\nsamples = 2\nvalue = 0.525"] ;
703 -> 705 ;
706 [label="mse = 0.0\nsamples = 1\nvalue = 0.52"] ;
705 -> 706 ;
707 [label="mse = 0.0\nsamples = 1\nvalue = 0.53"] ;
705 -> 707 ;
708 [label="X[4] <= 0.5\nmse = 0.0001\nsamples = 3\nvalue = 0.5767"] ;
698 -> 708 ;
709 [label="mse = 0.0\nsamples = 1\nvalue = 0.59"] ;
708 -> 709 ;
710 [label="mse = -0.0\nsamples = 2\nvalue = 0.57"] ;
708 -> 710 ;
711 [label="X[31] <= 0.5\nmse = 0.0026\nsamples = 34\nvalue = 0.5426"] ;
645 -> 711 ;
712 [label="X[26] <= 0.5\nmse = 0.0026\nsamples = 16\nvalue = 0.5712"] ;
711 -> 712 ;
713 [label="X[36] <= 0.5\nmse = 0.002\nsamples = 8\nvalue = 0.5338"] ;
712 -> 713 ;
714 [label="X[47] <= 0.5\nmse = 0.0004\nsamples = 2\nvalue = 0.59"] ;
713 -> 714 ;
715 [label="mse = 0.0\nsamples = 1\nvalue = 0.57"] ;
714 -> 715 ;
716 [label="mse = 0.0\nsamples = 1\nvalue = 0.61"] ;
714 -> 716 ;
717 [label="X[39] <= 0.5\nmse = 0.0012\nsamples = 6\nvalue = 0.515"] ;
713 -> 717 ;
718 [label="mse = 0.0\nsamples = 1\nvalue = 0.45"] ;
717 -> 718 ;
719 [label="X[12] <= 0.5\nmse = 0.0004\nsamples = 5\nvalue = 0.528"] ;
717 -> 719 ;
720 [label="X[34] <= 0.5\nmse = 0.0\nsamples = 2\nvalue = 0.505"] ;
719 -> 720 ;
721 [label="mse = 0.0\nsamples = 1\nvalue = 0.5"] ;
720 -> 721 ;
722 [label="mse = 0.0\nsamples = 1\nvalue = 0.51"] ;
720 -> 722 ;
723 [label="X[20] <= 0.5\nmse = 0.0001\nsamples = 3\nvalue = 0.5433"] ;
719 -> 723 ;
724 [label="mse = 0.0\nsamples = 2\nvalue = 0.55"] ;
723 -> 724 ;
725 [label="mse = 0.0\nsamples = 1\nvalue = 0.53"] ;
723 -> 725 ;
726 [label="X[19] <= 0.5\nmse = 0.0003\nsamples = 8\nvalue = 0.6088"] ;
712 -> 726 ;
727 [label="X[24] <= 0.5\nmse = 0.0002\nsamples = 5\nvalue = 0.6"] ;
726 -> 727 ;
728 [label="X[46] <= 0.5\nmse = 0.0001\nsamples = 3\nvalue = 0.59"] ;
727 -> 728 ;
729 [label="X[8] <= 0.5\nmse = 0.0\nsamples = 2\nvalue = 0.595"] ;
728 -> 729 ;
730 [label="mse = 0.0\nsamples = 1\nvalue = 0.6"] ;
729 -> 730 ;
731 [label="mse = 0.0\nsamples = 1\nvalue = 0.59"] ;
729 -> 731 ;
732 [label="mse = -0.0\nsamples = 1\nvalue = 0.58"] ;
728 -> 732 ;
733 [label="X[25] <= 0.5\nmse = 0.0\nsamples = 2\nvalue = 0.615"] ;
727 -> 733 ;
734 [label="mse = 0.0\nsamples = 1\nvalue = 0.62"] ;
733 -> 734 ;
735 [label="mse = -0.0\nsamples = 1\nvalue = 0.61"] ;
733 -> 735 ;
736 [label="X[5] <= 0.5\nmse = 0.0\nsamples = 3\nvalue = 0.6233"] ;
726 -> 736 ;
737 [label="mse = 0.0\nsamples = 1\nvalue = 0.63"] ;
736 -> 737 ;
738 [label="mse = -0.0\nsamples = 2\nvalue = 0.62"] ;
736 -> 738 ;
739 [label="X[43] <= 0.5\nmse = 0.0012\nsamples = 18\nvalue = 0.5172"] ;
711 -> 739 ;
740 [label="X[26] <= 0.5\nmse = 0.0004\nsamples = 10\nvalue = 0.501"] ;
739 -> 740 ;
741 [label="X[16] <= 0.5\nmse = 0.0002\nsamples = 6\nvalue = 0.49"] ;
740 -> 741 ;
742 [label="X[48] <= 0.5\nmse = 0.0001\nsamples = 4\nvalue = 0.48"] ;
741 -> 742 ;
743 [label="X[12] <= 0.5\nmse = 0.0\nsamples = 3\nvalue = 0.4833"] ;
742 -> 743 ;
744 [label="mse = 0.0\nsamples = 2\nvalue = 0.48"] ;
743 -> 744 ;
745 [label="mse = 0.0\nsamples = 1\nvalue = 0.49"] ;
743 -> 745 ;
746 [label="mse = 0.0\nsamples = 1\nvalue = 0.47"] ;
742 -> 746 ;
747 [label="mse = -0.0\nsamples = 2\nvalue = 0.51"] ;
741 -> 747 ;
748 [label="X[45] <= 0.5\nmse = 0.0002\nsamples = 4\nvalue = 0.5175"] ;
740 -> 748 ;
749 [label="mse = 0.0\nsamples = 2\nvalue = 0.53"] ;
748 -> 749 ;
750 [label="X[24] <= 0.5\nmse = 0.0\nsamples = 2\nvalue = 0.505"] ;
748 -> 750 ;
751 [label="mse = 0.0\nsamples = 1\nvalue = 0.51"] ;
750 -> 751 ;
752 [label="mse = 0.0\nsamples = 1\nvalue = 0.5"] ;
750 -> 752 ;
753 [label="X[42] <= 0.5\nmse = 0.0016\nsamples = 8\nvalue = 0.5375"] ;
739 -> 753 ;
754 [label="X[35] <= 0.5\nmse = 0.0015\nsamples = 6\nvalue = 0.525"] ;
753 -> 754 ;
755 [label="X[25] <= 0.5\nmse = 0.0016\nsamples = 2\nvalue = 0.49"] ;
754 -> 755 ;
756 [label="mse = 0.0\nsamples = 1\nvalue = 0.45"] ;
755 -> 756 ;
757 [label="mse = 0.0\nsamples = 1\nvalue = 0.53"] ;
755 -> 757 ;
758 [label="X[34] <= 0.5\nmse = 0.0005\nsamples = 4\nvalue = 0.5425"] ;
754 -> 758 ;
759 [label="mse = 0.0\nsamples = 1\nvalue = 0.51"] ;
758 -> 759 ;
760 [label="X[38] <= 0.5\nmse = 0.0002\nsamples = 3\nvalue = 0.5533"] ;
758 -> 760 ;
761 [label="mse = 0.0\nsamples = 1\nvalue = 0.57"] ;
760 -> 761 ;
762 [label="X[15] <= 0.5\nmse = 0.0\nsamples = 2\nvalue = 0.545"] ;
760 -> 762 ;
763 [label="mse = 0.0\nsamples = 1\nvalue = 0.54"] ;
762 -> 763 ;
764 [label="mse = 0.0\nsamples = 1\nvalue = 0.55"] ;
762 -> 764 ;
765 [label="X[45] <= 0.5\nmse = 0.0\nsamples = 2\nvalue = 0.575"] ;
753 -> 765 ;
766 [label="mse = 0.0\nsamples = 1\nvalue = 0.57"] ;
765 -> 766 ;
767 [label="mse = 0.0\nsamples = 1\nvalue = 0.58"] ;
765 -> 767 ;
768 [label="X[47] <= 0.5\nmse = 0.0047\nsamples = 61\nvalue = 0.581"] ;
644 -> 768 ;
769 [label="X[37] <= 0.5\nmse = 0.0036\nsamples = 28\nvalue = 0.5489"] ;
768 -> 769 ;
770 [label="X[41] <= 0.5\nmse = 0.0031\nsamples = 15\nvalue = 0.5187"] ;
769 -> 770 ;
771 [label="X[48] <= 0.5\nmse = 0.0008\nsamples = 6\nvalue = 0.4767"] ;
770 -> 771 ;
772 [label="X[7] <= 0.5\nmse = 0.0002\nsamples = 4\nvalue = 0.46"] ;
771 -> 772 ;
773 [label="X[18] <= 0.5\nmse = 0.0\nsamples = 2\nvalue = 0.475"] ;
772 -> 773 ;
774 [label="mse = 0.0\nsamples = 1\nvalue = 0.48"] ;
773 -> 774 ;
775 [label="mse = 0.0\nsamples = 1\nvalue = 0.47"] ;
773 -> 775 ;
776 [label="X[4] <= 0.5\nmse = 0.0\nsamples = 2\nvalue = 0.445"] ;
772 -> 776 ;
777 [label="mse = 0.0\nsamples = 1\nvalue = 0.45"] ;
776 -> 777 ;
778 [label="mse = 0.0\nsamples = 1\nvalue = 0.44"] ;
776 -> 778 ;
779 [label="X[24] <= 0.5\nmse = 0.0001\nsamples = 2\nvalue = 0.51"] ;
771 -> 779 ;
780 [label="mse = 0.0\nsamples = 1\nvalue = 0.5"] ;
779 -> 780 ;
781 [label="mse = -0.0\nsamples = 1\nvalue = 0.52"] ;
779 -> 781 ;
782 [label="X[31] <= 0.5\nmse = 0.0027\nsamples = 9\nvalue = 0.5467"] ;
770 -> 782 ;
783 [label="X[6] <= 0.5\nmse = 0.0012\nsamples = 6\nvalue = 0.52"] ;
782 -> 783 ;
784 [label="mse = 0.0\nsamples = 1\nvalue = 0.45"] ;
783 -> 784 ;
785 [label="X[12] <= 0.5\nmse = 0.0003\nsamples = 5\nvalue = 0.534"] ;
783 -> 785 ;
786 [label="X[22] <= 0.5\nmse = 0.0\nsamples = 2\nvalue = 0.515"] ;
785 -> 786 ;
787 [label="mse = 0.0\nsamples = 1\nvalue = 0.52"] ;
786 -> 787 ;
788 [label="mse = -0.0\nsamples = 1\nvalue = 0.51"] ;
786 -> 788 ;
789 [label="X[29] <= 0.5\nmse = 0.0\nsamples = 3\nvalue = 0.5467"] ;
785 -> 789 ;
790 [label="mse = 0.0\nsamples = 1\nvalue = 0.54"] ;
789 -> 790 ;
791 [label="mse = -0.0\nsamples = 2\nvalue = 0.55"] ;
789 -> 791 ;
792 [label="X[24] <= 0.5\nmse = 0.0014\nsamples = 3\nvalue = 0.6"] ;
782 -> 792 ;
793 [label="mse = 0.0\nsamples = 1\nvalue = 0.55"] ;
792 -> 793 ;
794 [label="X[34] <= 0.5\nmse = 0.0002\nsamples = 2\nvalue = 0.625"] ;
792 -> 794 ;
795 [label="mse = 0.0\nsamples = 1\nvalue = 0.64"] ;
794 -> 795 ;
796 [label="mse = 0.0\nsamples = 1\nvalue = 0.61"] ;
794 -> 796 ;
797 [label="X[18] <= 0.5\nmse = 0.002\nsamples = 13\nvalue = 0.5838"] ;
769 -> 797 ;
798 [label="X[24] <= 0.5\nmse = 0.0005\nsamples = 6\nvalue = 0.55"] ;
797 -> 798 ;
799 [label="X[7] <= 0.5\nmse = 0.0002\nsamples = 3\nvalue = 0.57"] ;
798 -> 799 ;
800 [label="mse = 0.0\nsamples = 1\nvalue = 0.55"] ;
799 -> 800 ;
801 [label="mse = 0.0\nsamples = 2\nvalue = 0.58"] ;
799 -> 801 ;
802 [label="mse = -0.0\nsamples = 3\nvalue = 0.53"] ;
798 -> 802 ;
803 [label="X[4] <= 0.5\nmse = 0.0014\nsamples = 7\nvalue = 0.6129"] ;
797 -> 803 ;
804 [label="X[20] <= 0.5\nmse = 0.0001\nsamples = 2\nvalue = 0.56"] ;
803 -> 804 ;
805 [label="mse = 0.0\nsamples = 1\nvalue = 0.57"] ;
804 -> 805 ;
806 [label="mse = -0.0\nsamples = 1\nvalue = 0.55"] ;
804 -> 806 ;
807 [label="X[6] <= 0.5\nmse = 0.0004\nsamples = 5\nvalue = 0.634"] ;
803 -> 807 ;
808 [label="X[42] <= 0.5\nmse = 0.0002\nsamples = 3\nvalue = 0.62"] ;
807 -> 808 ;
809 [label="mse = 0.0\nsamples = 2\nvalue = 0.63"] ;
808 -> 809 ;
810 [label="mse = -0.0\nsamples = 1\nvalue = 0.6"] ;
808 -> 810 ;
811 [label="X[25] <= 0.5\nmse = 0.0\nsamples = 2\nvalue = 0.655"] ;
807 -> 811 ;
812 [label="mse = 0.0\nsamples = 1\nvalue = 0.65"] ;
811 -> 812 ;
813 [label="mse = 0.0\nsamples = 1\nvalue = 0.66"] ;
811 -> 813 ;
814 [label="X[26] <= 0.5\nmse = 0.0041\nsamples = 33\nvalue = 0.6082"] ;
768 -> 814 ;
815 [label="X[6] <= 0.5\nmse = 0.0033\nsamples = 20\nvalue = 0.578"] ;
814 -> 815 ;
816 [label="X[21] <= 0.5\nmse = 0.0021\nsamples = 13\nvalue = 0.5538"] ;
815 -> 816 ;
817 [label="X[44] <= 0.5\nmse = 0.0022\nsamples = 5\nvalue = 0.52"] ;
816 -> 817 ;
818 [label="X[10] <= 0.5\nmse = 0.0014\nsamples = 3\nvalue = 0.55"] ;
817 -> 818 ;
819 [label="mse = 0.0\nsamples = 1\nvalue = 0.5"] ;
818 -> 819 ;
820 [label="X[36] <= 0.5\nmse = 0.0002\nsamples = 2\nvalue = 0.575"] ;
818 -> 820 ;
821 [label="mse = 0.0\nsamples = 1\nvalue = 0.59"] ;
820 -> 821 ;
822 [label="mse = 0.0\nsamples = 1\nvalue = 0.56"] ;
820 -> 822 ;
823 [label="X[4] <= 0.5\nmse = 0.0\nsamples = 2\nvalue = 0.475"] ;
817 -> 823 ;
824 [label="mse = 0.0\nsamples = 1\nvalue = 0.48"] ;
823 -> 824 ;
825 [label="mse = 0.0\nsamples = 1\nvalue = 0.47"] ;
823 -> 825 ;
826 [label="X[9] <= 0.5\nmse = 0.0009\nsamples = 8\nvalue = 0.575"] ;
816 -> 826 ;
827 [label="X[33] <= 0.5\nmse = 0.0005\nsamples = 4\nvalue = 0.555"] ;
826 -> 827 ;
828 [label="X[38] <= 0.5\nmse = 0.0\nsamples = 2\nvalue = 0.535"] ;
827 -> 828 ;
829 [label="mse = 0.0\nsamples = 1\nvalue = 0.53"] ;
828 -> 829 ;
830 [label="mse = -0.0\nsamples = 1\nvalue = 0.54"] ;
828 -> 830 ;
831 [label="X[23] <= 0.5\nmse = 0.0002\nsamples = 2\nvalue = 0.575"] ;
827 -> 831 ;
832 [label="mse = 0.0\nsamples = 1\nvalue = 0.56"] ;
831 -> 832 ;
833 [label="mse = 0.0\nsamples = 1\nvalue = 0.59"] ;
831 -> 833 ;
834 [label="X[31] <= 0.5\nmse = 0.0004\nsamples = 4\nvalue = 0.595"] ;
826 -> 834 ;
835 [label="X[15] <= 0.5\nmse = 0.0\nsamples = 3\nvalue = 0.5833"] ;
834 -> 835 ;
836 [label="mse = -0.0\nsamples = 2\nvalue = 0.58"] ;
835 -> 836 ;
837 [label="mse = 0.0\nsamples = 1\nvalue = 0.59"] ;
835 -> 837 ;
838 [label="mse = 0.0\nsamples = 1\nvalue = 0.63"] ;
834 -> 838 ;
839 [label="X[4] <= 0.5\nmse = 0.0024\nsamples = 7\nvalue = 0.6229"] ;
815 -> 839 ;
840 [label="X[44] <= 0.5\nmse = 0.0003\nsamples = 4\nvalue = 0.5925"] ;
839 -> 840 ;
841 [label="X[7] <= 0.5\nmse = 0.0001\nsamples = 3\nvalue = 0.5833"] ;
840 -> 841 ;
842 [label="mse = 0.0\nsamples = 1\nvalue = 0.57"] ;
841 -> 842 ;
843 [label="mse = -0.0\nsamples = 2\nvalue = 0.59"] ;
841 -> 843 ;
844 [label="mse = -0.0\nsamples = 1\nvalue = 0.62"] ;
840 -> 844 ;
845 [label="X[32] <= 0.5\nmse = 0.0024\nsamples = 3\nvalue = 0.6633"] ;
839 -> 845 ;
846 [label="X[33] <= 0.5\nmse = 0.0006\nsamples = 2\nvalue = 0.695"] ;
845 -> 846 ;
847 [label="mse = 0.0\nsamples = 1\nvalue = 0.67"] ;
846 -> 847 ;
848 [label="mse = -0.0\nsamples = 1\nvalue = 0.72"] ;
846 -> 848 ;
849 [label="mse = 0.0\nsamples = 1\nvalue = 0.6"] ;
845 -> 849 ;
850 [label="X[20] <= 0.5\nmse = 0.0017\nsamples = 13\nvalue = 0.6546"] ;
814 -> 850 ;
851 [label="X[12] <= 0.5\nmse = 0.001\nsamples = 5\nvalue = 0.692"] ;
850 -> 851 ;
852 [label="X[6] <= 0.5\nmse = 0.0005\nsamples = 3\nvalue = 0.67"] ;
851 -> 852 ;
853 [label="mse = 0.0\nsamples = 1\nvalue = 0.7"] ;
852 -> 853 ;
854 [label="X[46] <= 0.5\nmse = 0.0\nsamples = 2\nvalue = 0.655"] ;
852 -> 854 ;
855 [label="mse = 0.0\nsamples = 1\nvalue = 0.66"] ;
854 -> 855 ;
856 [label="mse = 0.0\nsamples = 1\nvalue = 0.65"] ;
854 -> 856 ;
857 [label="X[38] <= 0.5\nmse = 0.0\nsamples = 2\nvalue = 0.725"] ;
851 -> 857 ;
858 [label="mse = 0.0\nsamples = 1\nvalue = 0.73"] ;
857 -> 858 ;
859 [label="mse = 0.0\nsamples = 1\nvalue = 0.72"] ;
857 -> 859 ;
860 [label="X[45] <= 0.5\nmse = 0.0007\nsamples = 8\nvalue = 0.6313"] ;
850 -> 860 ;
861 [label="X[31] <= 0.5\nmse = 0.0003\nsamples = 7\nvalue = 0.6386"] ;
860 -> 861 ;
862 [label="mse = 0.0\nsamples = 1\nvalue = 0.6"] ;
861 -> 862 ;
863 [label="X[12] <= 0.5\nmse = 0.0001\nsamples = 6\nvalue = 0.645"] ;
861 -> 863 ;
864 [label="X[35] <= 0.5\nmse = 0.0001\nsamples = 4\nvalue = 0.65"] ;
863 -> 864 ;
865 [label="X[21] <= 0.5\nmse = 0.0\nsamples = 3\nvalue = 0.6467"] ;
864 -> 865 ;
866 [label="mse = 0.0\nsamples = 2\nvalue = 0.65"] ;
865 -> 866 ;
867 [label="mse = -0.0\nsamples = 1\nvalue = 0.64"] ;
865 -> 867 ;
868 [label="mse = -0.0\nsamples = 1\nvalue = 0.66"] ;
864 -> 868 ;
869 [label="X[48] <= 0.5\nmse = 0.0\nsamples = 2\nvalue = 0.635"] ;
863 -> 869 ;
870 [label="mse = 0.0\nsamples = 1\nvalue = 0.64"] ;
869 -> 870 ;
871 [label="mse = -0.0\nsamples = 1\nvalue = 0.63"] ;
869 -> 871 ;
872 [label="mse = 0.0\nsamples = 1\nvalue = 0.58"] ;
860 -> 872 ;
}